{
  "layers": [
    {
      "activation": 3,
      "biases": [
        -0.11970323416990326,
        -0.04479257470760515,
        0.07392396299700098,
        -2.616481235268529,
        0.022173836319652345,
        -0.08547535333806952,
        0.21928938910332388,
        -0.5093062637439411,
        0.038723903187431526,
        0.10821044717705794,
        2.3175042941645456,
        -0.419734548005302,
        -0.2629715201729301,
        -0.09383031407438415,
        -0.7624698021543416,
        -0.1800004480100444,
        0.305874171320498,
        -0.5733352394267245,
        3.282764950884055,
        0.599042454114287
      ],
      "cols": 20,
      "rows": 4,
      "weights": [
        [
          9.715276585572083,
          7.736583244073378,
          5.706875160445201,
          -0.3159710749657364,
          9.161577294071405,
          -8.83265985314225,
          1.2003331884823207,
          2.157357432937998,
          7.3196593372232535,
          6.19968628512874,
          0.008770707503446124,
          -1.273611172486697,
          8.415196913954329,
          -7.748771119488732,
          3.340382558016938,
          -1.3293655177470414,
          7.047871048780874,
          3.353573548750201,
          -2.439975354322135,
          -6.399240330072479
        ],
        [
          7.027964171653413,
          1.1661792215405176,
          -4.7480614559952405,
          3.209168616195022,
          -3.472796659653944,
          -1.6659232139680746,
          4.718438234404455,
          1.5975279864939091,
          -1.5144887519790922,
          4.26815395058551,
          -3.8024100641120064,
          -4.778757899466162,
          3.7631941247807443,
          -1.2793332314366843,
          -1.5721274196884933,
          -1.8782407101214942,
          0.6451687866327488,
          2.0620651601839977,
          -2.4232013568899586,
          -3.056652408484313
        ],
        [
          -7.503574634825322,
          -2.2189673293178807,
          3.456292411625282,
          0.0940141793118481,
          2.7885153814340833,
          3.0180736234948133,
          -5.349881103840627,
          1.791056118947347,
          1.4208013897190794,
          -4.431345289202844,
          -3.9695834231138813,
          5.718136558122633,
          -2.2692809859509033,
          1.7194682520120692,
          3.6710610428888977,
          -0.7961730475297086,
          0.6058112305299054,
          1.6647247088652122,
          -1.0106807722604616,
          3.5459629184176413
        ],
        [
          0.46085535444772746,
          1.2929775010091111,
          0.033520761254344264,
          3.0256801566012324,
          0.6656199684213054,
          0.6852660561476583,
          -3.0944613170410533,
          3.0367539460313995,
          4.5127162619205565,
          -1.962080551185075,
          3.0393712235680796,
          6.318270661851357,
          0.8249747227452073,
          1.304217564846977,
          4.4748288253033675,
          2.8357388199207434,
          4.164646416819098,
          -1.7506230817726784,
          -3.5312482402575704,
          -1.3104284418970245
        ]
      ]
    },
    {
      "activation": 3,
      "biases": [
        1.0919421626598536,
        1.0150962527371274,
        0.0799719800237948,
        -0.7949341269465999,
        -0.5175938631194538,
        -1.037141771830004,
        0.11047547363815778,
        -0.4174278872084038,
        0.002473399314828852,
        1.4630452556006726,
        0.7310474333757372,
        0.332006315194127,
        1.3675450762585333,
        -2.134147618577338,
        -0.15527814367799023,
        -0.17376979081056157,
        0.6494620416712952,
        0.7045269364909181,
        -0.34604471608786297,
        0.9807459896511946
      ],
      "cols": 20,
      "rows": 20,
      "weights": [
        [
          -0.5061692105614624,
          -0.679737525448701,
          -0.08899625655719531,
          -0.5406152190880709,
          4.252180172159753,
          0.9211040497088878,
          -1.5304291472917757,
          -0.19063045916177226,
          3.459796092945932,
          0.99327795717721,
          0.5422301291003193,
          0.4383158757259786,
          0.9289912039225473,
          -1.0742654299263386,
          -1.0136392975053858,
          -0.3351008515606917,
          0.45723266708567634,
          -2.20970398393244,
          -1.856668294415695,
          1.628965159041673
        ],
        [
          -0.2151711273146447,
          -0.23079476503538954,
          0.460364284748791,
          0.6749768994262704,
          1.3190398190963204,
          0.1799793410363211,
          -1.630981522939008,
          -0.15246960195213524,
          1.4326368434422958,
          0.4571456177657936,
          0.977892192652324,
          -1.171059289256761,
          -0.13931576815506494,
          -1.791317674670324,
          -0.116885923410913,
          0.5148474329467615,
          -0.3742844905087072,
          -1.7945704781716787,
          -0.40826159004854434,
          1.3290147454031742
        ],
        [
          -0.1773790883369238,
          0.7744716677119218,
          -0.0610080384053373,
          1.1332350317370996,
          -1.558465776228783,
          -0.9316471141488472,
          -1.2131142536469635,
          -0.13567021156426684,
          -1.2581379982125687,
          -1.3227867992935398,
          1.0140047978408804,
          -2.2921289225824153,
          -1.03858236654654,
          -2.2838490786379735,
          0.7637690109927415,
          1.3189094333308378,
          -0.8732289666449616,
          -1.5427738082776765,
          -0.4827318670479351,
          -0.35412574425866644
        ],
        [
          -0.19269106325927354,
          -0.6245965022082233,
          0.44493108922464375,
          -0.30414120882437407,
          0.5369999011970531,
          3.296790283907205,
          1.5626161348854313,
          1.8816856630692402,
          0.5629569716972667,
          -0.985261838251234,
          0.771910010827037,
          1.9537193656876377,
          -1.8865865069813925,
          -0.6935655695312412,
          1.1492843309578125,
          -0.5159342998756142,
          0.6226665242563927,
          0.07945439308511017,
          0.32126279191522705,
          -0.5390995368853517
        ],
        [
          0.5049527376957867,
          0.1775849367061961,
          0.26135412760329624,
          -0.2890566411724197,
          -0.986264190267461,
          -1.4367281471574231,
          -1.460264403176079,
          0.6389492441554163,
          -0.011508090668498512,
          -0.23285808679473224,
          1.4291988143002188,
          -1.865377176169435,
          0.40162830594432763,
          -3.417978696679573,
          1.2388623222410657,
          1.0966908306443,
          -0.3117471042225637,
          -2.718087774366681,
          -0.562447398204492,
          -0.5471256057874013
        ],
        [
          0.2989681004594872,
          -0.27483000556909953,
          -0.8387997493093665,
          0.6652953967807389,
          -1.9406036848167718,
          1.8525526071659053,
          1.57097174824315,
          0.8381085458227717,
          -1.6448087209409237,
          -0.8873025151102536,
          -1.0031238587121285,
          1.9774452059992615,
          -1.0269445248012494,
          1.706149147684544,
          0.852339905852961,
          -0.5962924664887043,
          -0.9399712544028384,
          2.484008272533475,
          1.4412830845556752,
          -0.855875200434887
        ],
        [
          -0.4259579801575407,
          0.5279233092082707,
          0.7201972539636562,
          -0.6605809426331466,
          2.79538121240505,
          0.3099265056487282,
          0.1893315517289842,
          -1.507041429363346,
          0.9693068270617995,
          0.8550439300951551,
          -0.6801787089577577,
          0.5057633649844926,
          0.08964923324486716,
          1.3745355042962657,
          -1.5714803937196746,
          -0.09469023937955097,
          1.825500304081407,
          -0.4889009442630552,
          -0.8933629940763583,
          0.9742833994113734
        ],
        [
          0.1991646873685435,
          -1.4109427043546723,
          -0.055652794666613756,
          -0.16345146358927445,
          -0.022979869435452514,
          0.899029359418019,
          -0.7743516108136502,
          0.8486139372970892,
          0.49569311426556045,
          -0.5105496005677057,
          0.34037246916973085,
          1.6673788701353531,
          -0.3096098477781458,
          -1.6014160996765687,
          0.021076459850192734,
          -0.819948945758018,
          -1.3572119541791217,
          -0.4163413108218894,
          0.41783510277091734,
          0.5127948162783671
        ],
        [
          0.5682403895061692,
          -0.3428447646733238,
          -0.002446607204668545,
          0.19157105621434717,
          -0.4232911173559029,
          -0.566741774443357,
          -1.8115293765670382,
          1.006083614641718,
          0.4474507283170563,
          0.22026417864680534,
          1.663714802118552,
          -0.5236852414041,
          0.3990971041787008,
          -2.75171248561759,
          0.16478087253006887,
          0.190492901991913,
          -1.966319892527538,
          -1.0258924697255005,
          -0.02578276475553516,
          0.42212326836853536
        ],
        [
          -0.5554332171312684,
          0.5047764325627527,
          0.30079296338766204,
          -1.290373566222167,
          2.8223424516392908,
          -0.008857977945627196,
          0.04296851733374086,
          -0.8522387458135721,
          1.399604798107332,
          -0.35869708692693625,
          0.36633650664508105,
          -0.4784579610866414,
          -0.3389924593564185,
          -0.7404694894591074,
          -0.8576828421199268,
          0.3428480362546091,
          1.1779210662100343,
          -1.4923861360296222,
          -1.4746450334384065,
          1.093310573491711
        ],
        [
          0.6948839861534123,
          1.804459199179947,
          -0.7864386642105512,
          -2.8243590376893137,
          -2.4750029667638427,
          -1.012128754975754,
          1.105241585430732,
          1.573105908648468,
          -0.48965993720838724,
          -0.5801742161897662,
          3.1171077134454475,
          3.147769096235869,
          -1.0114225118094855,
          -3.072337061709668,
          -0.7181314944904416,
          1.6148356789271718,
          -2.05000460560114,
          2.175650326874325,
          1.9034649658210292,
          0.9461775101387722
        ],
        [
          0.3992011729912937,
          -1.4794539473048638,
          -1.5820626019749826,
          0.07760047629559938,
          -3.097336515078299,
          -0.9609851083282629,
          -1.3137039541919082,
          2.7316694153902557,
          -1.4199208699244272,
          0.18624802726806264,
          1.1391238521977183,
          -0.0651671494049446,
          0.3990107255849589,
          -1.644074378542509,
          0.5707019690206643,
          -0.45439659197313986,
          -2.8175642714629787,
          1.0235578012902569,
          0.8944545694587976,
          -0.8194489778439644
        ],
        [
          -0.20874886942056378,
          -0.26147508790293816,
          0.013612337273386125,
          -1.247277034103173,
          2.0854396835156974,
          1.0577544109614403,
          -0.7068834783663009,
          0.013413923941142207,
          2.0592399281070346,
          -0.5589229700253991,
          0.9279027368578052,
          0.33465332346735815,
          -0.5063720070519899,
          -2.3372149004529894,
          0.3878927591542124,
          -0.04739851097418692,
          0.24086358213133502,
          -1.7579468014319692,
          -0.9591410933775746,
          0.43433913188761725
        ],
        [
          0.41850309606793235,
          -0.18412632804204593,
          -0.1695051212285305,
          1.314248206911783,
          -1.482783758544104,
          1.1080929516284146,
          0.989446589635147,
          0.08796439341785889,
          -0.6587664796625515,
          -0.1749767989646337,
          -0.3915549264445181,
          1.2803448213957733,
          -0.5646486866265361,
          1.6958148196259544,
          0.235710789273708,
          -0.6954779808188696,
          -0.48448498969976983,
          1.9861583701375072,
          1.873646302163442,
          -0.3675372350348924
        ],
        [
          0.14646442498359274,
          -2.0841148539910934,
          -0.10483706754006514,
          0.2379814408929583,
          -1.2768136332646347,
          0.41664883720755663,
          -1.3268097278390851,
          1.2038300236054198,
          -0.260850031362021,
          -0.5643228415450181,
          1.002599932534575,
          0.08028114482306246,
          -0.41888624529597557,
          -2.9448055402301465,
          1.0320569196161884,
          -0.19855624761240845,
          -2.4993122877296226,
          -0.2085989663557627,
          0.16612238207736876,
          -0.4197612986384665
        ],
        [
          0.0029511145254137263,
          0.23439059374607507,
          -0.6468478611856252,
          1.2957740563479534,
          -0.5854013814408091,
          -0.16485995989365979,
          -1.6170347335027178,
          0.7893413385196136,
          -0.05198283605133373,
          -0.7646179214669347,
          0.15895887238217252,
          -0.2928062319050052,
          -0.32914321446175393,
          0.6918112446121952,
          0.2766981328336723,
          0.19846987929378743,
          -1.9756760233989548,
          0.3535479091379323,
          1.5807779583109893,
          0.6319754413427856
        ],
        [
          0.6327968461597583,
          0.1011835405304163,
          -0.658130875872309,
          -0.29015894516749147,
          0.3423902852581691,
          -0.5377189963069232,
          -1.3946212250258974,
          0.6093233420640404,
          0.9155083561680983,
          0.7945774180666126,
          1.2457756109847526,
          0.0841369421819855,
          0.6144435527561667,
          -2.9067798789405783,
          0.43585288508099795,
          -0.39666971164399195,
          -1.4376982603708117,
          -0.8385028644611444,
          0.20255931366937757,
          0.5018432307903924
        ],
        [
          -0.4416145759605861,
          -2.065559287334022,
          1.9790820858574514,
          0.6337131957904074,
          0.7413663942590271,
          0.75760613627076,
          0.9874872723811895,
          -1.0590869844745219,
          0.009725204058733214,
          -0.3749606718451559,
          -0.4877847885641074,
          0.07867012167114124,
          -0.257435775764874,
          -1.3319855959527533,
          0.23124610939171733,
          -1.0417794965785034,
          1.0111133184123393,
          -1.6911880656503928,
          -2.124304375640422,
          -1.024152636650444
        ],
        [
          0.10137659282447001,
          0.52995937182356,
          -1.6953102435829457,
          0.7693811197757192,
          -0.40051700704018656,
          -3.2059185821575076,
          -1.1527145966104573,
          -2.3822494282740267,
          -0.7848362485928152,
          -0.15286105811181053,
          -1.5018616424201872,
          -0.8020747981396502,
          3.671163607373786,
          1.149767701009601,
          0.8688485870372459,
          -0.5540654090696812,
          0.12074404136978464,
          0.4226863187067854,
          0.4804709827761223,
          0.7234561676518296
        ],
        [
          -0.041419693272709675,
          0.9094352045142832,
          -0.009285774913111838,
          -0.5092716424500561,
          -2.4276262290705883,
          -1.635399451054692,
          1.2778231874725183,
          -0.5381555119051805,
          -2.4497805542945974,
          1.3196228113417738,
          -0.7043446032717885,
          -0.14359883610661647,
          0.9903281055033876,
          1.4174797398724253,
          -0.11771115359029331,
          -0.06031616603250417,
          0.7770104055368537,
          2.130359805391402,
          0.8525115012450908,
          -0.7663497276202942
        ]
      ]
    },
    {
      "activation": 3,
      "biases": [
        0.3704443898449273,
        0.839983819809393,
        0.8548607832108572,
        1.014887929924937,
        0.23283382614428594,
        -0.4168546907111029,
        0.6719648090773389,
        0.7186765936356199,
        -0.06930794690146153,
        0.21800204694014222,
        1.6155251990143296,
        1.8668526597632755,
        -0.8515240042226869,
        -0.2373684609572381,
        -0.2581398597158166,
        -0.9737918456250959,
        -1.2501172675151166,
        -0.06715613528463285,
        0.15597820491650558,
        -0.30292121282284673
      ],
      "cols": 20,
      "rows": 20,
      "weights": [
        [
          -0.29628265975179685,
          0.8022638052292104,
          0.7742145790127868,
          0.676146252091566,
          -0.026316541655044184,
          -0.5238354659836386,
          0.6583769805259626,
          0.298681357695628,
          0.6292993857944313,
          -0.158208686192112,
          1.0944376709090489,
          1.387829038543161,
          0.0873823904332383,
          -0.8178794018347086,
          0.3489520109290104,
          -0.3164898122558755,
          -0.5993028717989208,
          -0.6424280175234462,
          0.06325178919318032,
          -0.5556369140239981
        ],
        [
          0.5653275330661602,
          -0.48970102106694824,
          0.2414567608567527,
          0.09487174972955324,
          2.319439579104913,
          1.4117776641614888,
          0.43233406446263056,
          -1.6831692367218127,
          1.017196342015852,
          -0.10598989381061806,
          -1.2808678128654027,
          -0.5398664154514284,
          0.5879572620346539,
          0.768121710898237,
          0.21254614597983937,
          0.06530277888579712,
          -1.159921765225425,
          0.5423403108656489,
          -1.538801652688812,
          0.7776577658445633
        ],
        [
          0.33598879912710394,
          1.3371345902203742,
          -0.061215720665206703,
          -0.2925560163256059,
          0.7882685276842567,
          0.1730385284006486,
          -0.8361568394793227,
          0.4524227101274416,
          0.942001744423708,
          0.8171370466059478,
          0.3570709538029545,
          -0.398701149740678,
          -0.48663954195572734,
          0.3043678887085365,
          0.3897612745968333,
          -0.12433616054520669,
          1.8647034796390058,
          0.01341471811338371,
          -0.12039828747043158,
          0.7084041138134914
        ],
        [
          -1.2938056364180568,
          0.40069054870949666,
          -0.10716408734809356,
          -1.0486305394860531,
          0.23325534638149661,
          0.11797725475525345,
          1.366510951823058,
          -0.49341685592137385,
          -0.8272298156930935,
          0.06640964545044792,
          0.45934122300323904,
          -0.12279714775771117,
          1.1147889401051982,
          1.7684016327857512,
          -0.345760687445342,
          -0.6923227599678535,
          -0.14377527900377984,
          -1.3556463894197932,
          1.459838128196533,
          0.939310064468003
        ],
        [
          1.1232116325702473,
          -1.7264158673520154,
          -0.45489282310043355,
          -1.6455318491863558,
          1.8370383865403748,
          1.9724081331933891,
          0.9037749579999214,
          0.7630496997607189,
          -3.188479901958695,
          2.34717750032469,
          3.173878310536075,
          2.467845184657077,
          1.6896302194088653,
          1.6349177521965652,
          -0.1199127053311605,
          0.019784507127829126,
          0.3994561364557083,
          0.1922123184696892,
          1.5019244251945252,
          0.1582642566792859
        ],
        [
          0.9377510712911865,
          0.8247055461099279,
          -0.5556146242220952,
          -0.48129096187381415,
          -1.161293276967395,
          0.250730129404179,
          -0.5340630165382649,
          -2.895111968452598,
          2.195342618000971,
          1.7658822603448507,
          0.6044600158967515,
          0.9922512435329885,
          -1.8672280111767354,
          0.601973308570098,
          0.7607955579882633,
          2.281398599037086,
          2.140586116041424,
          0.38138905601939654,
          0.6352475511112867,
          1.5528608874885315
        ],
        [
          -0.4857302024511869,
          0.23868801412477256,
          0.4240816462402887,
          1.8287372687934285,
          0.4216486558764797,
          -0.038572358474435076,
          0.6153261541569504,
          1.687093793601868,
          0.36002148616898466,
          1.0344057137616873,
          0.33314514502800985,
          -2.07787692861595,
          0.3048613523726775,
          -0.25854142021180243,
          -0.9255088668683161,
          -0.5363263311143318,
          0.6644500385771793,
          2.031347344510766,
          -0.07665468891245793,
          0.2590616673653129
        ],
        [
          0.14684163074989082,
          -0.30068061317892875,
          0.7406636837595324,
          1.0740108600619582,
          1.146673515388001,
          -0.1673994637454603,
          -1.0607488682927233,
          -1.42760119685425,
          -0.7812568603171959,
          0.17764210023377866,
          -0.8385166114050465,
          -0.552789476993385,
          -0.5620510259545664,
          -0.2537368710543679,
          1.4671320191294277,
          -1.693498528583053,
          -1.1221243988540839,
          -1.3075322056322218,
          0.3582073211614338,
          -0.043753710911082974
        ],
        [
          2.8109113736920235,
          0.3539295134686791,
          -0.35401563487888027,
          -1.7193534768466807,
          -1.0085540225245686,
          1.5893961241065604,
          2.6781858127824028,
          0.4560985258396992,
          0.6134367584707531,
          0.8028520473624011,
          0.16571416102661582,
          1.6684135300824445,
          0.5319496920647597,
          -0.6800804713692788,
          1.0280807225925979,
          1.4620793465394442,
          1.7063465197324756,
          -0.11580666485919032,
          0.3547569922024898,
          0.10340410026903733
        ],
        [
          -0.18578508045661998,
          -0.3592931076193687,
          0.8395598965317377,
          1.2022819514801708,
          0.6045614653969267,
          -0.7451905622871193,
          0.9970422581047284,
          -0.45815916612170754,
          0.046711918196981526,
          -1.1341198651028974,
          0.36911292327318423,
          1.7418044908271875,
          -0.1234320339516727,
          0.4901478050557436,
          -0.13348898772760018,
          0.5845408365399203,
          -1.0132353870331665,
          0.2384348966678688,
          0.9589193649100526,
          -1.165711371981218
        ],
        [
          1.6807953701091394,
          -0.3750432805295431,
          -0.07578930412398631,
          -1.9868389710653345,
          -1.077778308269578,
          0.7283683133180163,
          0.937774087276242,
          -1.6131092197335926,
          -0.43904790451459663,
          1.098011882018088,
          -0.32778809216724836,
          1.0020385830848848,
          0.6870429343698558,
          -1.4850871461285335,
          1.6649505006737932,
          -1.0399528823770334,
          -0.26472088339690036,
          -1.2511701697959523,
          0.244876205637998,
          1.4691575138014918
        ],
        [
          0.6358975306176232,
          -1.255209258323981,
          -0.04982978624798265,
          0.2414147285855766,
          -0.08554418244797155,
          -1.2739941452508154,
          1.5888688010631529,
          -1.6914971404904433,
          -0.9428270558004507,
          0.8558756224036042,
          -0.28046125461003074,
          -0.6001673065907872,
          1.0300945659788112,
          0.5513798024240538,
          1.3932805546383489,
          -0.14950034156069444,
          -2.1252105082374917,
          -0.19862422607110916,
          -0.4837839513506416,
          -2.5341704602927817
        ],
        [
          -1.801767266666923,
          1.6122279677957168,
          0.24587734773289652,
          0.01162068048154674,
          0.6214518754259162,
          0.26537225911203866,
          1.1487430300647696,
          -0.7617109240278355,
          -0.4834226768908427,
          -0.49814451736201226,
          1.1236499630572314,
          2.415374028123895,
          0.06294025492488318,
          1.6628181556700712,
          -0.5671754168315055,
          1.0051685874680367,
          -2.435881933484476,
          0.132514296901987,
          -1.5853539893596174,
          1.040682232734912
        ],
        [
          -0.333217826690387,
          -0.19208548511399653,
          -0.20878515688794771,
          1.4334370204893396,
          3.1158470619732723,
          0.9243195095077689,
          1.4489449990243315,
          5.191845184040433,
          -1.801371803870328,
          1.0379586413648125,
          2.2579578686182713,
          -0.9102058455453625,
          1.7827016898069339,
          1.5134507871897775,
          -2.4893186218364365,
          -0.2204612605617946,
          0.2951683394647883,
          2.7353805301300103,
          1.7404444564685213,
          -0.6049100835021101
        ],
        [
          -1.9266014189654388,
          0.6270701410393092,
          -0.6236157282625397,
          -0.39613307381655516,
          -0.5779179131066401,
          -1.584760955283813,
          -0.6363561791984979,
          -0.5760906577611636,
          1.9702668075437697,
          -1.0547273200060465,
          -0.6554302607015172,
          1.2866117365110674,
          -0.42461719077037957,
          0.30765155987351406,
          0.1273658128212289,
          0.2231685321057639,
          0.3739082786956494,
          -0.30918265562397484,
          -0.02789183333220406,
          1.3695387920877882
        ],
        [
          0.5162539067243956,
          1.0370567558152604,
          0.7224656539446142,
          -0.13484710645931314,
          -0.3732807013785974,
          1.5477504101647066,
          -0.972007996804533,
          0.9506870658903278,
          -0.18968765663162174,
          0.43284932363849987,
          0.7717928599285803,
          -1.6865886543413497,
          1.7115262948118766,
          -0.7926914822677309,
          -0.25356488614055483,
          1.197608178657323,
          -0.1670012238339444,
          0.606105613882262,
          -1.170147555129776,
          0.013664679960152304
        ],
        [
          2.028425591525134,
          0.49700872544341057,
          0.20214898908946444,
          1.7330075318161506,
          2.15546340702541,
          0.45966898809621665,
          -0.13846586246439507,
          0.6338915729455294,
          1.4932398844197226,
          -0.45330460162246505,
          2.926286248800865,
          -1.813512246432068,
          0.549985517360979,
          -0.023864602200722167,
          -2.4144855671837964,
          2.0339668662121286,
          -1.6018897416368403,
          3.385612697307431,
          -0.33262499222682373,
          0.40681389872343365
        ],
        [
          -2.435424781413014,
          0.062231393320931645,
          -0.4854523754227313,
          0.3433023905146876,
          0.16352832323670718,
          -1.3641087216434897,
          0.9347761005797514,
          -0.8072896824943335,
          -1.9405438445760175,
          -1.3098139757431466,
          0.6110168472389069,
          -2.0938731371992576,
          1.0968872331471924,
          -1.1594729550105964,
          -1.394408798581019,
          0.6314160403771728,
          -0.11853604567941121,
          0.9624053745468585,
          0.23849748353562375,
          -0.19287794118128357
        ],
        [
          -0.5975510042828199,
          -0.9411761247489118,
          0.5944470025463071,
          -2.2391817737912874,
          1.063530738875617,
          -0.5905319341975603,
          0.9801857586878779,
          -1.5522225194638108,
          -1.6150825043362305,
          -0.4219480341300657,
          -0.6176135737833581,
          -0.7905124472454789,
          0.03875444737144252,
          -2.2174992736153922,
          1.2383485414804576,
          1.3819540914087627,
          0.1954617869045583,
          -1.0442572860468997,
          -1.277081630209789,
          1.8071196674743957
        ],
        [
          2.6570845874421947,
          0.6793767005771039,
          0.35114736207968295,
          -0.23690668200560336,
          1.4355769136663448,
          -0.6174872310095385,
          -0.11007940490386503,
          0.7821445656918614,
          -0.6989307489628238,
          0.9044357921582745,
          1.43878819587554,
          0.2124331756342263,
          0.44390078503243413,
          -0.6930322675910611,
          -0.02288801001585021,
          -1.5381656198190188,
          -0.5984833984257397,
          0.7572125510964782,
          -0.4844612927674087,
          0.005104611619662316
        ]
      ]
    },
    {
      "activation": 1,
      "biases": [
        0.11745328973199981,
        -0.7839342719766292,
        -1.7512273380357286,
        -2.5735454444877424,
        -2.7228754290654766,
        -0.42427831408270356,
        -0.38205299761065187
      ],
      "cols": 7,
      "rows": 20,
      "weights": [
        [
          0.01515320870439149,
          1.0832470748655014,
          -0.1844702361055374,
          -0.9692590752885338,
          0.31695219008091136,
          0.4965245366583145,
          0.1029745042427123
        ],
        [
          -0.3656311726136149,
          -0.5375368485889531,
          -0.7048537747208841,
          -1.880138990094987,
          1.0655452031265407,
          1.2314957240260036,
          0.5385638469832554
        ],
        [
          0.4730867490647428,
          -1.3167256412863915,
          -1.54027221449756,
          -0.05976879338213603,
          -1.7445850414816004,
          -0.0034003272635707332,
          1.3456876322432312
        ],
        [
          0.015685435677168087,
          0.6547321427815422,
          -0.531656257101421,
          -0.9763209110972653,
          -1.3574065096299697,
          -0.5523906286722784,
          -0.30576405299941883
        ],
        [
          0.024632191808146162,
          -3.1550381029309604,
          -0.7078058268059331,
          1.6095360175960969,
          2.2528833958892984,
          -0.24324921266121594,
          0.04764144777736771
        ],
        [
          0.00645572285694499,
          -3.2081693458402234,
          -0.4649276547019203,
          -2.2154978302088666,
          -0.2561505871563161,
          0.17006512583581423,
          -0.03184207594745307
        ],
        [
          0.6450096933664882,
          -1.2222778490341084,
          -1.5388776936742545,
          0.9838213988228849,
          -0.5283471850680752,
          -0.45169102458098415,
          -0.27867859337860457
        ],
        [
          -0.10350015471967215,
          2.4962579847375985,
          2.6858913324089153,
          -0.05360886708304483,
          1.2225681322556943,
          0.2917251567299085,
          -0.07453446006541078
        ],
        [
          -0.38777957411830755,
          -1.311039274957588,
          -1.1938611481870536,
          0.4757613712283001,
          -0.41888416444318577,
          -0.1258826291406457,
          -0.512823053183059
        ],
        [
          -0.2815568717410211,
          -0.2705676426409591,
          1.931331208509635,
          -2.1009277951182828,
          -2.9798392939985865,
          -0.8571503625759719,
          -0.5844476654697368
        ],
        [
          -0.18343020837814758,
          -0.08848910473338148,
          0.5230751548090155,
          -2.095412840800635,
          -3.6292185449571512,
          -0.6833100250308758,
          0.11191730359247906
        ],
        [
          0.18521286127588205,
          -0.8274237429575849,
          -2.042839020118575,
          -1.0408546650394586,
          -0.6969207225232462,
          -0.38671208432059545,
          -0.024382528288888525
        ],
        [
          -0.4765688909460573,
          1.5622964585827708,
          1.592248489038462,
          -0.30609171801315255,
          0.23657889947752728,
          0.3366427092882515,
          -0.25706959581028954
        ],
        [
          0.059677957792493457,
          0.48174518278969025,
          -1.3666893522202421,
          1.0687472003978444,
          1.6269966205599042,
          0.6813426560964349,
          0.3987855510341531
        ],
        [
          0.382235114874175,
          -0.647428875290905,
          0.9485263925476399,
          4.670219390804046,
          2.7466594545428302,
          0.33584766182353804,
          -0.10986220616856299
        ],
        [
          0.07405820599992657,
          0.36184415989065283,
          0.32754366081607733,
          2.558499002503052,
          0.22131015841239274,
          0.26282629725141265,
          0.6877656038920918
        ],
        [
          -0.2181965487364519,
          0.29101080828640385,
          0.9847475533289378,
          1.051135787836862,
          1.8546776599737922,
          0.17691997973933607,
          1.1385493586402005
        ],
        [
          0.19417263806767268,
          -2.652671455804422,
          0.2930894601428792,
          -0.9371038929705985,
          0.1757215076520488,
          0.26404460856168166,
          -0.4787535945831596
        ],
        [
          0.4736340246651653,
          0.2376849348006231,
          -0.05838101641714272,
          0.882499847268708,
          -1.2298827562488182,
          -0.21811809684650216,
          0.5158819949978942
        ],
        [
          0.4359069063046249,
          0.6360071839184162,
          0.624819149373406,
          1.486962812926478,
          -0.8175715650724403,
          -0.24656768440856622,
          -0.6938975221556924
        ]
      ]
    }
  ]
}
