{
  "layers": [
    {
      "activation": 3,
      "biases": [
        0.31153010074555054,
        0.05749145737320331,
        0.8148309667656093,
        0.20094695976484536,
        0.15791034046187596,
        1.2530547996966652,
        -0.0012456856549886964,
        -0.7619767693226854,
        -0.11553531130313416,
        0.038122538783060295,
        0.22907379195199612,
        -0.5321689631216991,
        -0.44334130086722323,
        0.4324323115948004,
        -0.08875327665974685,
        0.1482174159597295,
        -0.5797033734751377,
        -0.2655530938527893,
        0.023097767362330338,
        0.5059819271268734
      ],
      "cols": 20,
      "rows": 4,
      "weights": [
        [
          1.6063315856609133,
          -1.108482409939592,
          0.6529371738146802,
          -1.6883155940897097,
          -1.5789310459456762,
          -1.499160650787898,
          0.7276101955807471,
          -0.5107585661357714,
          -1.2290508012135286,
          -1.7669432736113075,
          0.8832848796381926,
          1.0389274133756197,
          1.7884030020057988,
          2.0657861328811453,
          -0.045436022118013814,
          -0.8386080013112107,
          1.4280446722423044,
          1.417365133051718,
          -1.2152920107601946,
          0.36622660946295504
        ],
        [
          0.5338353575431426,
          -0.1376637505684436,
          -0.7145489750900229,
          -0.29904228803535343,
          -0.699820892462506,
          -0.9375233708622097,
          0.8885050967016311,
          -0.5661700410561622,
          -0.7787437198488757,
          -0.7533167809418947,
          1.0032988278074284,
          -0.41705421539320564,
          -0.08099652718037897,
          -1.8766308033987396,
          0.07509496464673375,
          0.8020482636376978,
          0.5907767521474813,
          0.6338670816460265,
          -1.547136006214401,
          -0.4814391091289195
        ],
        [
          -1.2035691793493335,
          1.062927248240799,
          -0.7201185819576202,
          0.42773078942538223,
          -0.33772889837005765,
          -0.7808722220679517,
          -1.0840630691529503,
          1.58610617680743,
          -0.902783137073818,
          -1.4908670874884238,
          -1.0320540233128306,
          1.1753688059731606,
          1.0468915201438538,
          0.5404114900555057,
          0.828967750240021,
          0.41567595331200036,
          0.05587014118420874,
          -0.11698559305309625,
          1.768497554151212,
          -1.19510738419994
        ],
        [
          -0.7243415363336484,
          0.943451501025377,
          -0.1463230113429356,
          -0.3822636032863167,
          0.28616427600310784,
          0.1383047152146003,
          -1.8331078262749079,
          0.875250812253845,
          0.8082287907845781,
          0.5669639856771369,
          -0.3578254697684134,
          1.3893942687407974,
          0.547331424081981,
          4.199803994320527,
          1.1578219546993815,
          0.7854535424148795,
          -0.16223340492377003,
          0.3823212314731058,
          1.2744483229558006,
          0.29226452171784717
        ]
      ]
    },
    {
      "activation": 3,
      "biases": [
        0.17788966932823444,
        -0.38965190111041376,
        0.05931733750956863,
        -0.2942242485455199,
        0.15224664637054852,
        -0.10232749738279107,
        -0.4574223785088818,
        0.07418289763036837,
        -0.04300100104561796,
        0.005443406038147004,
        0.8095831484794226,
        -0.5963979511056806,
        -0.41519307872257133,
        0.04592200809939479,
        -0.25798336038438713,
        -0.09826574684112538,
        -0.27221995637470825,
        -0.46664978019636255,
        0.10908092610533965,
        -0.14291811543548602
      ],
      "cols": 20,
      "rows": 20,
      "weights": [
        [
          0.674729770798182,
          -0.18569732192890992,
          -0.4910250508495606,
          -0.08603857655973571,
          0.37142488398337975,
          0.23229449805785254,
          -0.261246372969774,
          -0.8124448953707653,
          1.1536410485774338,
          0.31710151694591804,
          0.6321144617890827,
          0.04628727984382607,
          -0.33530131436820443,
          0.2185704207853831,
          0.36288977607122835,
          -0.12302120508699467,
          -0.11340007498769714,
          -0.22722468104146615,
          -0.12839203472989105,
          1.269797622214755
        ],
        [
          -0.5035472233092176,
          -0.07742328374387496,
          0.3987406044622597,
          -0.4778482125016785,
          0.17953674974083597,
          -0.07493177108380619,
          -0.27663076886331384,
          0.3019028346867813,
          -1.1580417549924669,
          -0.05094793874306537,
          -0.15203361569759222,
          -0.5784410284928179,
          0.22061210888354107,
          -0.011101977543846543,
          -0.5507043947808158,
          -0.18209079329463013,
          -0.22493156481751325,
          0.5062491221225999,
          -0.38277764724464636,
          -1.072197590941711
        ],
        [
          0.021211120614340374,
          0.1291117963406983,
          -0.43922775904571326,
          0.30816586721654315,
          0.4640047245733695,
          0.04468877870915223,
          -0.4207698328511703,
          -0.032978157641633477,
          0.6462829798152597,
          -0.1516640750118134,
          0.9093136558240145,
          -0.07146653976870368,
          -0.07309059084875075,
          -0.24154916650905275,
          0.024551132904404395,
          -0.4806521059728564,
          0.15742663090726533,
          0.19278414818048184,
          0.2895991979855801,
          0.33048736226049763
        ],
        [
          -0.4240846112040301,
          0.5590750195590554,
          0.5611790727588857,
          0.18742214377215063,
          -0.6635319633067214,
          -0.40243540628641195,
          -0.2164931944322794,
          0.7872878073558067,
          -0.5857898093067627,
          0.013056810677238627,
          0.10678396532775834,
          -0.3382493908868503,
          -0.39927630071954584,
          0.5023819124798647,
          -0.5101841468714015,
          0.6662031188617061,
          0.3363463957313641,
          0.27753525516501765,
          0.5261930144062511,
          -0.8786255735471042
        ],
        [
          -0.21840866652068505,
          0.5614053951571576,
          -0.026994912619466734,
          0.01663383044687934,
          0.05991723046042109,
          0.21173107697907304,
          0.34234740847535505,
          0.1020539103848471,
          -0.5770834115770864,
          0.2783938161803659,
          0.27015851755451636,
          0.11644758108947853,
          0.342370920966706,
          0.23863023252240131,
          0.1312723296272366,
          0.2470106177505995,
          0.7698570376659125,
          0.024407047095053862,
          1.3385711641615918,
          -0.7264707065734392
        ],
        [
          -0.09021445942399406,
          0.7307664267576246,
          0.11139237472233456,
          -0.29956793545177124,
          -0.533819301660115,
          -0.2617876859390809,
          -0.023961130102366987,
          0.29936516857511236,
          0.37577111100634375,
          -0.1354743966386808,
          1.5856960074863897,
          -0.3066105182862062,
          0.05261758812466395,
          0.04807289355126508,
          0.22010611976610783,
          -0.19867007260668984,
          0.5039115254262385,
          0.39486713783553806,
          1.2417019563001803,
          -0.46412444916564816
        ],
        [
          0.505052799226743,
          0.5798747325809811,
          -0.5086953198794116,
          -0.33574893067091294,
          -0.5974128843139821,
          -0.05634363686119184,
          0.3303640792288566,
          -0.3508064562586263,
          0.5968610445662865,
          0.25315164440959587,
          -0.039184134697661105,
          0.19774247563518388,
          0.02127583835348177,
          0.5851615483998986,
          0.034143555048961875,
          -0.03927255520337988,
          -0.27409047369304707,
          -0.6256586873849882,
          -0.09313800792849906,
          1.2529360872132465
        ],
        [
          -0.2887127812240084,
          -0.6084384236156649,
          0.4394975727811455,
          -0.20347471356734873,
          0.36488336867069054,
          0.21506285161842495,
          0.0400110096375511,
          0.17010832547489793,
          -0.617232335966301,
          -0.24360267330103874,
          -0.885563354287862,
          0.5032439860740016,
          0.2231266753374328,
          0.16070314384173473,
          -0.3348210226814227,
          0.37489213361700247,
          -0.02250444056184853,
          0.35847762155103824,
          -0.25827681080358406,
          -1.201853639013792
        ],
        [
          0.19168926903390313,
          0.1925474311487713,
          -0.36169404979089675,
          -0.08915175782200357,
          0.037139621757582494,
          0.23712758961168337,
          -0.3156943981801197,
          0.18016183705737895,
          -0.8498715486236286,
          -0.3494781887079672,
          -0.03586369439406828,
          0.5040116916034979,
          -0.0027369666613277573,
          0.03349888462481186,
          -0.20239374236689844,
          0.20642797996910878,
          0.12345836899521015,
          0.8469371468568099,
          0.9057677241650662,
          -0.7508743971328478
        ],
        [
          -0.692419610209809,
          -0.13405453496045192,
          0.46671066968710845,
          -0.22789846997475985,
          -0.1824223853653914,
          -0.0010529556133391344,
          0.3668923363607465,
          -0.15690568520632575,
          -1.0793996301363125,
          0.14532873446538142,
          -0.5385990412918055,
          0.19840418552889158,
          -0.4682163494487294,
          0.0877630181212624,
          -0.40115314365519683,
          -0.04855451299700859,
          0.5660265671057619,
          0.6983494764337308,
          1.0208411910011517,
          -0.6021317556063299
        ],
        [
          0.325182468463527,
          -0.0816180022283271,
          -0.17068692054374668,
          -0.17406171687642596,
          0.33347222708818675,
          0.28894786298176445,
          -0.21308940487466493,
          -0.25023773495176466,
          0.5333191596955545,
          0.26642320521713236,
          0.21928999653351397,
          -0.5232856044989284,
          -0.4165072380655619,
          0.21738462662645544,
          -0.026101611297318167,
          0.28032360956672714,
          -0.021502008853390337,
          0.2046544383637855,
          -0.5603041068913275,
          1.1983777414718153
        ],
        [
          -0.33614547862125993,
          -0.8919427361139406,
          -0.12484119482267302,
          -0.16665302731078027,
          1.138372989270571,
          0.5039553298196215,
          -0.25579268574072894,
          0.04428064053996741,
          -0.08048647749943147,
          -0.5635452552445173,
          -0.7168736639257329,
          0.6718975950370552,
          0.08303318766177975,
          -0.5593316369835428,
          0.4231546264644719,
          -0.2118356515756265,
          -0.5847391565957317,
          0.48846444205865797,
          -0.55421879122065,
          -0.47623958204853495
        ],
        [
          0.06441759186812686,
          -0.742718293362335,
          -0.14881039129641407,
          0.25190700886823103,
          0.9386365879951303,
          0.050822068114489395,
          -0.04618746389794853,
          -0.12505141873305642,
          0.37153366430481316,
          -0.4858456427995371,
          -1.0326293888428282,
          0.15466989176841525,
          -0.03132843632318999,
          -0.531780633059977,
          0.347065091526805,
          -0.5378350224733348,
          -0.756744256075704,
          -0.3776687806943953,
          -0.9766958031526851,
          -0.19245670751961255
        ],
        [
          -0.638923775049234,
          -1.844696440396252,
          0.3829444255024301,
          0.4789734711611731,
          2.0543224097489103,
          -0.42515576221643414,
          -0.34283204227265146,
          0.13241806555502644,
          -1.4049894987815932,
          -0.32793010887182056,
          0.7723032310288039,
          -0.04442361511241186,
          0.7282829627901805,
          -1.2652531311986852,
          0.49372525344344453,
          -1.3654580007702466,
          0.5995293259017679,
          0.9269949106742306,
          0.24360858622030931,
          -1.4976589309517316
        ],
        [
          -0.45113681848685416,
          -0.6125845341480868,
          0.026994877039746838,
          0.16561200725502043,
          0.5094752901980066,
          -0.22911589033998667,
          -0.4843392779972082,
          0.20106605962667898,
          -0.4091712753980113,
          -0.411904243646043,
          0.011941354500174365,
          0.14418731936415602,
          -0.4128218979176189,
          -0.5709732848620501,
          -0.2353820751379921,
          0.006658077937188309,
          -0.14283295587491654,
          0.3776117601797544,
          -0.7174689968690827,
          -0.5238774486589107
        ],
        [
          -0.17453014319135604,
          0.22939024403483133,
          0.6635641146895455,
          -0.21786648156863359,
          0.48474510625627526,
          0.13917743937308966,
          -0.017600844559533514,
          -0.0017900629960802801,
          -0.6213020258398928,
          -0.3815577013580153,
          0.07095018045424681,
          -0.27336127569687113,
          -0.1890802610182432,
          -0.3136209018254685,
          -0.3258087438834113,
          0.18122756063886578,
          -0.10449678566669429,
          0.11251290000557287,
          -0.15402014438484052,
          -0.7154591810443011
        ],
        [
          -0.04128103353899443,
          -0.38351876789809275,
          -0.2572816349525184,
          0.3555213638378284,
          0.12448989681669774,
          -0.2121516910184057,
          -0.1171792100100525,
          -0.26689124184900376,
          0.5725899935757156,
          -0.48036655092031644,
          -0.9924421122587902,
          0.09116021648928363,
          -0.1155289695167401,
          -0.39112783460903594,
          0.005816500090094512,
          -0.1561470638478739,
          -0.6284053718802385,
          -0.01846028036321558,
          -0.504013401979187,
          0.865273150717246
        ],
        [
          0.1497171590515447,
          -0.8414419276872543,
          -0.4321029658612305,
          0.21832232750979422,
          0.3877605366576763,
          0.1107448063760477,
          -0.2577749744656183,
          0.04388027523151217,
          0.06063615208458425,
          -0.11661258339506253,
          -0.39587993306772906,
          0.08604721601053986,
          -0.030661310990018564,
          -0.1518497872627822,
          0.0880099612400752,
          -0.44784784083602275,
          -0.7091091724806268,
          -0.16735032756077753,
          -0.7831363806271487,
          0.9899582500997274
        ],
        [
          -0.6554401970572427,
          -0.2677389279656407,
          0.3626625441748373,
          0.16865432401236027,
          0.4763056420025412,
          -0.580654709862387,
          -0.027736714729649767,
          0.6429324757895832,
          -1.371483020820286,
          -0.06778412292662792,
          -0.07282526301362943,
          -0.10085564712781138,
          -0.35316010003355197,
          -0.31842967021502194,
          -0.0649525758681142,
          -0.40174803041979995,
          0.00889943141669542,
          0.2103883362509604,
          -0.015113964750100163,
          -1.507672371274224
        ],
        [
          -0.16578782384085977,
          -0.33876244753290946,
          -0.029001357244430724,
          0.4799386207398432,
          0.08719272359746122,
          0.15310031658155937,
          -0.1737993181547682,
          -0.48522209467371236,
          0.4031678675882675,
          0.22529274695130158,
          0.970304491448377,
          0.6367483908333263,
          0.27553356488821124,
          -0.12235234135716092,
          -0.13211339319024226,
          -0.034320762320721614,
          0.2973754675136423,
          0.14963885777381677,
          0.6960628474183075,
          0.6418978011964486
        ]
      ]
    },
    {
      "activation": 3,
      "biases": [
        -0.007786194075393744,
        0.1983970914467746,
        0.06222446473448595,
        -0.2592537060228964,
        0.11122290665718458,
        -0.2411233395609325,
        0.29939289079455034,
        0.48124812277751605,
        0.38902341680019187,
        -0.06473779723981453,
        0.19377627745729678,
        -0.3041496270373183,
        0.5906622582859689,
        0.4632132972577965,
        -0.36678565748609043,
        -0.14957969671942725,
        0.28068212352287675,
        0.42941816887700923,
        0.23871807794651603,
        -0.2826425396175953
      ],
      "cols": 20,
      "rows": 20,
      "weights": [
        [
          0.013265115612163541,
          -0.013201768734693926,
          0.005243429008581176,
          0.02333644219280059,
          0.022171492817440006,
          -0.6716121259879204,
          0.6122136209082052,
          -0.43140565832667976,
          -0.15083499941241565,
          -0.4241597838265781,
          0.811170287560156,
          0.20325132886806854,
          -0.21307336947901215,
          -0.15781935186846757,
          0.36464117251542333,
          0.33930945236053833,
          -0.02483928434206321,
          0.8966530977888003,
          -0.35714602198325296,
          -0.2894672383397152
        ],
        [
          -0.02676226208241,
          -0.5162471861190685,
          -0.2519584547743082,
          0.25123769020768766,
          1.0058416696272003,
          -0.9917372868538893,
          0.37922058900646743,
          -0.4992431181017587,
          0.7858104135118702,
          -0.010579170404054983,
          1.0848757255545054,
          -0.18399086536624895,
          -0.2720318142262541,
          0.7160071383628847,
          0.14073551997285208,
          -0.5090454606972199,
          0.08832203481209627,
          0.8166851898339893,
          0.5441006796819052,
          -0.29998488724601724
        ],
        [
          0.44755599087041764,
          0.31719050739504795,
          0.21323906923291808,
          0.06970407974600631,
          0.0374444420105937,
          1.0689643399199953,
          0.02620162265893697,
          0.39367130058644806,
          0.5876192068459318,
          -0.331441012188128,
          -0.41721421150169935,
          -0.3365337834858824,
          -0.19088345458534256,
          0.6811068991466571,
          0.32729562928063854,
          -0.26689639637531654,
          -0.13653181101810796,
          -0.4593159242297289,
          -0.3224024521737862,
          -0.01949521891157288
        ],
        [
          0.326352576810652,
          0.08974510687303397,
          0.3851714055634371,
          0.0858273952176849,
          -0.2621588791815857,
          -0.036679402253210563,
          -0.18502707791387682,
          0.09767850854840836,
          -0.6752402708830354,
          0.17308914852365082,
          0.21376645781792264,
          0.055057602242526746,
          0.42588812949159655,
          -0.5253028098459068,
          -0.2935202096612763,
          0.24770894426537918,
          -0.02400442798882197,
          -0.3692842028197949,
          -0.043881057726508875,
          0.0962598545404842
        ],
        [
          -0.32904054747105244,
          0.13813328320666032,
          0.7462705350567693,
          0.3635233661160365,
          -0.5065887028585255,
          0.9377680484252787,
          -0.8116652200051412,
          0.20335470633757083,
          -0.6294944484875016,
          0.44671655833457247,
          -1.2975855851479776,
          -0.23015326073184328,
          -0.3526291993714321,
          -0.6042946227286018,
          -0.21364835247222813,
          0.6987285080325458,
          -0.18492932771610468,
          -0.6637977756311461,
          0.1569298496860435,
          -0.12274904431801832
        ],
        [
          -0.09815215265506733,
          -0.2853557091823358,
          -0.2553020514075359,
          0.36360888513306683,
          -0.15019924924294584,
          -0.2512839368744391,
          0.2717867294903394,
          -0.47457441160940295,
          0.0866740127916276,
          0.19260340358730793,
          -0.06930381960873522,
          0.3666161229293563,
          0.3123556325281877,
          -0.5278293960057603,
          0.3366167613276746,
          -0.30281608649659525,
          -0.06283141593056465,
          0.30480559489583,
          -0.1010812955924996,
          0.5410700765895706
        ],
        [
          0.5360907787168384,
          -0.39899754995226966,
          -0.40006171889816805,
          0.3752657760087095,
          -0.17479062884314342,
          -0.33934212251565704,
          -0.4542550998175317,
          -0.6625024335616551,
          -0.07382326250103134,
          -0.07708762338451874,
          0.1060600242075124,
          0.46588719439566767,
          -0.5110865864991467,
          0.19539711512933366,
          0.21302019374661788,
          -0.23701415840432516,
          -0.38878300215592326,
          -0.42347213799167804,
          -0.0003210451599932972,
          -0.2160651665465766
        ],
        [
          0.08604557349432058,
          0.04261800654028289,
          0.16378190626891354,
          0.2876309392377532,
          0.25929737886226223,
          0.8802302977667024,
          -0.42896679238923896,
          0.21976281365086095,
          0.052451356439444756,
          -0.023384775703373523,
          -0.6210395355392526,
          -0.5186446116080593,
          0.2861231316944111,
          0.45366191190902655,
          -0.173205495431595,
          -0.4288631039642999,
          0.09668830301617212,
          -0.6683922518781379,
          0.18078070013784034,
          -0.36827519553628263
        ],
        [
          -0.21673599079264047,
          -0.032206761563935093,
          -0.617673029558671,
          -0.41072026080571683,
          0.31228638150644294,
          -1.2452566660381978,
          0.34358363954548854,
          -0.4860695231556632,
          -0.7721980572081654,
          0.22839983025809288,
          1.561463635352996,
          0.1646950987658227,
          -0.30804191886600946,
          -0.6474395184605681,
          -0.056036970871190445,
          0.8775579116689081,
          -0.08337368660889623,
          2.19060644224661,
          0.21384130279516908,
          -0.22122308962467724
        ],
        [
          0.054049778824255504,
          -0.5794680210705281,
          0.01376638674557201,
          0.05135754891334396,
          -0.2892314720986996,
          -0.19965205793976534,
          0.12395370001895235,
          -0.09814391793988042,
          0.32996125904389945,
          0.27092251854106625,
          0.5330090835731318,
          0.03322308585542641,
          -0.17190396340376307,
          -0.48486434575381926,
          0.6722056194621858,
          -0.19252349458421755,
          -0.27992685602742207,
          0.1460828966459402,
          0.17478774538043412,
          0.06687701595845182
        ],
        [
          0.017875566405184732,
          0.33983912341498884,
          0.06273277207356409,
          -0.22912621547936324,
          1.5751296003275304,
          -0.8751762137335926,
          0.3125829012539417,
          0.20164928439519167,
          -0.6870657051527598,
          0.2629241697870341,
          1.0784507847192877,
          -0.17084336050548107,
          0.27431967405305174,
          0.022336153041930047,
          0.2547047724908615,
          1.4955728400176003,
          -0.1263030960639765,
          1.9727063967267189,
          0.3464755205763484,
          -0.4596481915106551
        ],
        [
          -0.12617195015616658,
          -0.1503136657701026,
          -0.15088902126344178,
          0.5488702957902649,
          -0.5948875045778017,
          -0.27206826324830646,
          -0.07326973463121063,
          -0.23726843861944766,
          -0.23275926617743706,
          -0.42250065929462655,
          0.13404956670471518,
          0.39249129214658407,
          0.20198475373312966,
          -0.675178437311263,
          0.0004397735045670973,
          0.592475772894134,
          0.07354125322567011,
          -0.05260143261228235,
          -0.5341344454986887,
          1.043383004082809
        ],
        [
          -0.22906313288136876,
          -0.2863156329809089,
          -0.05370008349556323,
          0.1888776364910407,
          0.24141553467903917,
          0.15861116523627314,
          -0.362168963904099,
          0.05569462976459833,
          -0.31915708572355816,
          0.11109120376436411,
          -0.4260445694436587,
          0.5252754572187653,
          -0.2471917643839703,
          -0.44203382848064926,
          0.3271387506587463,
          0.7407763738720687,
          0.06071673901886993,
          -0.38809788265034817,
          -0.4931308343333817,
          0.34721435510812804
        ],
        [
          0.17100939366765922,
          -0.19069817628128952,
          -0.5983516059820467,
          -0.059944915565995106,
          0.1016206779969386,
          -0.7108927133982986,
          -0.1506672795085696,
          -0.6886186437570008,
          0.7467239857255178,
          -0.15847428987774062,
          0.34527151246606747,
          0.0061567592474020315,
          -0.017305227931569737,
          0.4983605255104317,
          -0.1405106369595095,
          -0.08037243192418428,
          0.09106147105999088,
          0.790062439817792,
          -0.2466536601556739,
          -0.003591426971308965
        ],
        [
          -0.3657924913469628,
          -0.07836224160246966,
          -0.2377023781247599,
          0.14172294041659836,
          0.24118812592213842,
          -0.639413794517058,
          -0.22458960615804063,
          -0.023729240103433615,
          -0.9119955765923472,
          0.08781778102944947,
          0.5196959931980059,
          -0.015164613366540493,
          0.27528069319253357,
          -0.9760515002332971,
          0.23597415381357337,
          0.2771438919554549,
          -0.023181134012932206,
          -0.20164040290374724,
          0.15481779280011873,
          0.37020810690518413
        ],
        [
          0.16416167135892343,
          -0.3212196582187727,
          -0.6153024519199687,
          -0.0714479435086902,
          0.3514567827634842,
          -0.30231899160468395,
          0.577704504763605,
          -0.263039107825932,
          0.7713862135819287,
          -0.18312511122594693,
          0.0067388576127707205,
          0.4056621067501139,
          0.17935635210477052,
          0.5245431923055602,
          0.20329213586522865,
          -0.3664761806869536,
          -0.445984603181953,
          0.5271756318671794,
          -0.4018105480842513,
          -0.06185452681109928
        ],
        [
          0.4354565781818859,
          -0.4310509264387058,
          0.14606759479377748,
          0.6277553200086184,
          0.3832616263666755,
          0.0964676591696636,
          -0.4704379459340464,
          0.31524428134494353,
          0.14761828127407142,
          0.6951285542402801,
          -0.9723887914507773,
          -0.3710905844436213,
          0.14295761870100154,
          -0.19695743030360938,
          0.46697161744593363,
          -0.45201432701149885,
          -0.004963699397322509,
          -0.7235938007343609,
          0.22450122242558718,
          -0.20776425111859662
        ],
        [
          0.4502355660949167,
          -0.44122712190539043,
          0.29729560484739465,
          0.5467997749722338,
          0.344033413892478,
          0.3650827852662366,
          -0.5769189054122201,
          -0.17609487295016116,
          0.4186986225645782,
          0.6197357760023329,
          -1.1519578598995244,
          -0.05629409210426199,
          0.36021693563400753,
          -0.37049701428950266,
          0.110203166202117,
          0.585606637552526,
          0.23166640700865235,
          -0.8186747782079921,
          -0.2539435836096486,
          -0.028890619673441285
        ],
        [
          -0.6274741176059542,
          -0.35378652489181955,
          -0.9578084812291056,
          -0.0791706268669073,
          -0.480296439697461,
          0.5646413587933232,
          -0.7149930210913454,
          -0.5721804076826221,
          0.7299810523011359,
          0.34621629581527064,
          -1.2659381546892476,
          -0.38111280849228396,
          0.04061208405598712,
          0.18394493618243793,
          0.41226097238932313,
          -0.8669657848707909,
          0.30181390137008846,
          -1.2487059992056813,
          0.08236263063706836,
          -0.052186235870337654
        ],
        [
          -0.48281484640135547,
          0.3791416754396034,
          0.06661741411364738,
          0.2618689623760874,
          0.1578076157309234,
          -0.9961375385018081,
          0.9667237220572037,
          -0.5256653964555696,
          -0.8531126982365571,
          -0.4871718088609296,
          1.9614725508781945,
          0.6063303813065342,
          -0.2672317127132432,
          -0.8899112243161148,
          -0.3463269646187726,
          1.2366553687781099,
          0.24512061427172052,
          2.519883966793075,
          -0.49273346165710274,
          -0.5599121414201215
        ]
      ]
    },
    {
      "activation": 1,
      "biases": [
        0.13839234968832106,
        -0.491514734259747,
        -0.5342588618706196,
        -0.3821592132703838,
        -0.942884442197623,
        0.49663001641160226,
        0.3674152535238175
      ],
      "cols": 7,
      "rows": 20,
      "weights": [
        [
          -0.16424099890034113,
          0.11455713505138808,
          -0.39459743936384406,
          -0.6138853441878913,
          -0.26285602280120046,
          0.30551125942702395,
          0.3122011323399053
        ],
        [
          -0.03696860359659054,
          -0.26469886598418296,
          -0.5788696567417536,
          -0.09818591627853517,
          -0.5020626296751605,
          -0.8844594278961462,
          -0.16366349741208358
        ],
        [
          0.5699877327090924,
          0.6166090778249879,
          -0.34363827841456535,
          -0.6455643533417659,
          -0.8854421136602648,
          -0.08906101779318792,
          0.45216296637267867
        ],
        [
          0.42879078084182864,
          -0.07293715376483849,
          0.11135732910940134,
          0.32860354640155554,
          0.3324234531125267,
          -0.00477035081420366,
          -1.0840393197622027
        ],
        [
          0.22719536657167702,
          0.1636517018492711,
          -0.014202455708815566,
          -1.932706367810144,
          -0.3739930377212636,
          -0.14743828701414916,
          -0.2545840475320053
        ],
        [
          0.1647891731735725,
          1.493467005219111,
          0.4796752091203301,
          1.888707661048099,
          0.5834949430275975,
          -0.11910724486033365,
          -0.2037341439042265
        ],
        [
          0.08880343463355704,
          0.17725034716230162,
          -0.08714459445689436,
          -1.1873797124664351,
          -0.5832218717575395,
          0.23809604374242407,
          -0.04798985227216901
        ],
        [
          -0.10473948250155533,
          0.9824696546881813,
          -0.025250991062674588,
          0.03629554238710846,
          -1.0011571030607558,
          -0.06299220869340386,
          -0.41812415616282333
        ],
        [
          0.4008284638526911,
          -0.7035504618832882,
          -0.7063576667568511,
          -0.035139762903840854,
          -1.5712980864666724,
          -0.8664649845694875,
          -0.24381829413832407
        ],
        [
          -0.05133114140446006,
          -0.026586919433982437,
          0.5299664045459829,
          -0.08104479109459105,
          0.059711090192922256,
          -0.33359589653104355,
          -0.6551713707352587
        ],
        [
          -0.2832268878058636,
          -1.3398995368655997,
          0.3580924679872405,
          -0.2283913861813425,
          -2.5467859153667916,
          0.47230476161261864,
          -0.0423752135078315
        ],
        [
          -0.0165348163911416,
          0.08410794432778954,
          0.9304037894909111,
          -0.434627522968768,
          -0.11939768444012162,
          -0.2125936696818425,
          -0.2901140831046932
        ],
        [
          -0.43180836170946874,
          -0.13572907057186903,
          0.2365338782679746,
          0.07933400453595088,
          -0.7292865021654028,
          0.45110893373553373,
          0.9210519955155435
        ],
        [
          0.45757763468352153,
          -0.19887651993648367,
          -1.404251468065958,
          0.2916523408191828,
          0.10064057199050637,
          -0.2791511640254465,
          0.44621745453421185
        ],
        [
          -0.03113494018418605,
          0.48816971918671387,
          0.4518093369682978,
          1.0040556966485576,
          0.3899076961701959,
          -0.31575944464456573,
          0.2823851627779615
        ],
        [
          0.37640628620387073,
          2.443059822086274,
          0.5193827582898953,
          0.5483654805185195,
          0.05867864675072795,
          -0.4680113652600412,
          0.10510757936280885
        ],
        [
          0.43541834562114057,
          -0.3093854237582391,
          -0.46984033331450836,
          -0.1402242475573895,
          -0.0943372116770339,
          0.2025535603077024,
          0.4434356706096673
        ],
        [
          0.17070917172713077,
          -0.26595825720549465,
          0.5161554722325482,
          -0.9440381038737173,
          -2.1056763158548875,
          -1.2279298129119052,
          -0.0974211102343013
        ],
        [
          0.1504250049819539,
          -0.7034740504116009,
          -0.6966723645357514,
          -0.38294717718688476,
          -0.12707826643345282,
          0.6668187748232707,
          -0.06471495558451866
        ],
        [
          0.15877293859900618,
          -0.1497739452793472,
          0.9892931094046793,
          0.490750200005311,
          -0.08498976162094712,
          0.03749823009732761,
          1.1068810552592498
        ]
      ]
    }
  ]
}
