{
  "layers": [
    {
      "activation": 1,
      "biases": [
        0.09884901161996335,
        0.5555823984952782,
        -0.2853283016579762,
        -0.2763606109159044,
        0.01691045314360051,
        0.6670365372241724,
        0.03472730069688628,
        0.2531644252166904,
        -0.7322330159708481,
        -0.141928781022061,
        -0.017137640358722103,
        0.4587250997962375,
        0.05080497859974431,
        0.0632586435487719,
        0.29559280265493,
        -0.13220596305009785,
        -0.31788286709625657,
        1.7999319422553386,
        -0.10533409484340776,
        -0.26526814978880286
      ],
      "cols": 20,
      "rows": 4,
      "weights": [
        [
          -3.5374467965662793,
          0.7826357614156044,
          5.490649442273819,
          0.9911252462780911,
          -0.16573127259935502,
          -0.17084980671198435,
          -1.9063117778109666,
          2.072665393674793,
          2.8615810824748737,
          -0.8957492090630977,
          -0.09520986537091881,
          2.5109236669781385,
          6.856247640636154,
          -1.394871325793074,
          -3.338568722175948,
          1.1345002552245596,
          0.9092113813295842,
          -5.260157916401169,
          1.7019427005491625,
          0.12765449437105705
        ],
        [
          1.5817848399730612,
          1.9081870746278793,
          2.830473571500069,
          -0.11718514461682428,
          1.1637077679611214,
          2.732474802361226,
          2.1447608945336047,
          2.0664031883391147,
          -0.9539863550452835,
          -2.1405562442334474,
          0.13829472179801075,
          -2.6276169540154606,
          -2.570761848790934,
          -0.3490156800671599,
          -2.1508695470124466,
          -0.561099043607254,
          0.3655975951011999,
          -4.092704590847486,
          -0.618649427136764,
          -1.4143564436810896
        ],
        [
          1.8155882185380694,
          -2.427829164745201,
          4.226975121797897,
          1.3561009719284172,
          -1.079845309615226,
          -3.1824888784893353,
          -1.9588451440327275,
          -2.906466879592618,
          -1.3009342728346607,
          -2.038546017401541,
          -0.7471665751492498,
          1.8819027453028754,
          -3.0914769191459235,
          -0.4801914785948964,
          3.4888928105209938,
          -1.2232390366500026,
          1.0817257289550086,
          -5.515236402492929,
          -1.9347815042629841,
          1.986158341065421
        ],
        [
          1.1084860147948303,
          -1.309599869515825,
          -2.352671740580051,
          1.4190908281563448,
          -0.4006490467824921,
          -1.431645433072686,
          -2.242882290230253,
          -1.8715257483941667,
          -0.13883931280546621,
          3.4437865367898635,
          -0.2994235882563305,
          2.561051112130691,
          -3.2600255957615984,
          0.7540554670213268,
          3.3722993288898424,
          0.084149306971341,
          0.5119513464625303,
          0.8894657151391762,
          -0.26891604881853226,
          2.5989825462706144
        ]
      ]
    },
    {
      "activation": 1,
      "biases": [
        0.2059813026753972,
        0.4044239230579227,
        0.2271209122856052,
        -0.3171342598662929,
        -0.0842260557140341,
        0.03801212531487818,
        0.46047085645113195,
        0.3168207979893973,
        0.010446230444181121,
        0.11771067239842253,
        0.21179578164181717,
        0.010392890159657298,
        -0.1755430220790179,
        0.021904122189490793,
        0.09237245087158358,
        0.3952229190199659,
        -0.12816121370293126,
        -0.0338036229652874,
        -0.14814581147630534,
        -0.1297266750512486
      ],
      "cols": 20,
      "rows": 20,
      "weights": [
        [
          1.2052379455300501,
          0.769070418174949,
          0.5182364745139776,
          -0.5163058752824103,
          -0.6223499668024512,
          0.7016689425023739,
          0.6124752961415102,
          1.0905921206271845,
          0.06883340259994711,
          0.2682412775842771,
          1.8270478702816701,
          1.4156556911035219,
          -0.7324071919964151,
          0.3814406515155547,
          -0.5238018466171009,
          1.918028407811263,
          -0.5766995904210107,
          -1.2777645588914992,
          -1.782386264436821,
          -1.4444886397284844
        ],
        [
          -0.3022395006330394,
          0.1990161607915936,
          -0.12071639699937976,
          0.28188108018833624,
          0.5634108594739388,
          -0.35381430954715815,
          0.34934005052872635,
          -0.5685980094169675,
          0.09714433524886286,
          -0.07104977567002196,
          -1.881390278655069,
          -1.577151021329459,
          1.3272930429719951,
          -0.4048348595474532,
          1.0487907494397162,
          -0.5470131378167578,
          -0.4289443276478396,
          0.510044945147084,
          1.2343607410061672,
          1.1039677489097963
        ],
        [
          -1.574509692224752,
          -0.8639252108465566,
          0.996992993949154,
          0.8870788607318043,
          1.6383022125141717,
          -1.3049692236892623,
          0.05356939639537265,
          -0.28806324155622315,
          -0.5896460440252685,
          0.44436772689272597,
          -2.557389389516686,
          -2.307325344185908,
          2.058257159268279,
          -0.8799343207874948,
          0.5810862540492923,
          -0.6533019488037923,
          -0.02570945779076616,
          0.2950349628114251,
          2.5523057236686997,
          2.461389452160633
        ],
        [
          0.43608772586792083,
          -0.4959697430437766,
          0.294797480336923,
          0.4373758657838963,
          0.2979088331331498,
          -0.15467447600478035,
          -0.2698677480129908,
          0.5304356894621048,
          -0.3134601906117821,
          -0.43129390345895596,
          0.6769482089753099,
          0.7765873293979841,
          -0.6700033871706212,
          0.3029638762369595,
          -0.7031629055288059,
          0.2520206298202337,
          0.6295908263231664,
          -0.32500647225150964,
          -0.6666987985892984,
          -0.8601092978788314
        ],
        [
          -0.3995876696043671,
          0.1837691380769387,
          -0.03316083079671381,
          0.12845427358869344,
          -0.06373669492889218,
          -0.3669745923873347,
          0.6185547113302664,
          -0.08349509952428462,
          -0.16146061002340414,
          0.19163545313048527,
          -1.0615706641492013,
          -0.3169689014601581,
          0.5518232625802202,
          -0.3362540416515287,
          0.3941869560231471,
          -0.20029711348638662,
          -0.6145413294347473,
          -0.09103402762958293,
          0.20381456625419367,
          0.19686276564209607
        ],
        [
          -0.8190150184288036,
          0.726369690358749,
          -0.05868297568762286,
          -0.34827069342773515,
          0.6833640039616302,
          -0.6022410539169284,
          0.025386064230161855,
          -0.1693039624194204,
          0.14814124641512288,
          0.20935216850018548,
          -1.9960737102919968,
          -1.5366003295605186,
          1.8879494949100004,
          -0.8219260769096363,
          1.0958873154209072,
          -0.054079628430225075,
          -1.2341087951403726,
          0.3218844131264664,
          1.5493744594892758,
          1.6736155228024256
        ],
        [
          -0.4704707404020339,
          1.0801186547303343,
          0.5313820493204683,
          -0.653519344213234,
          -0.23039578353970372,
          -0.03232900028829933,
          0.32281747563387464,
          -0.2865993653379413,
          0.46973815221562487,
          1.2469242273489036,
          -1.6883895498613677,
          -1.7680612579647041,
          1.6720235740362444,
          -0.5382671581598066,
          0.7469546815246885,
          0.1718849099257319,
          -1.2098213951749075,
          0.4641547362391466,
          0.9031637841568173,
          0.7223342999916593
        ],
        [
          -0.642570959741468,
          0.21971441887757054,
          -0.23724080129928773,
          0.39370150312108415,
          0.3149971833740723,
          -0.5178617368560656,
          -0.5090185562730986,
          -0.8580272455770928,
          0.11871863492022759,
          -0.36956306262247895,
          -2.160083177926788,
          -1.6356383994715944,
          1.5908277573207652,
          -0.004972099045207883,
          0.8614766372889029,
          -1.3945864889879072,
          -0.3682317747498202,
          1.0910681821685506,
          1.557081864966773,
          2.111590016594167
        ],
        [
          -1.0593433069017009,
          -0.8338333887412719,
          -0.2396175331646946,
          -0.15932939757666756,
          0.3458789125754665,
          -0.7604502647712574,
          -0.6974054390790886,
          -0.18433704086146893,
          -0.4821703156309666,
          -0.9491201196619039,
          -1.3242327766113255,
          -0.6300372409334971,
          0.35073740023321714,
          0.2520137630747667,
          0.06393355195109467,
          -1.1452407556157926,
          0.7282563951132724,
          0.7774249186923816,
          1.2012214567512192,
          1.3235656944962013
        ],
        [
          0.117663244287435,
          0.7895540908030587,
          -0.7021141954012284,
          -0.5432683929310904,
          -0.5865424668019089,
          0.597433234012858,
          -0.012370433827376471,
          0.17169045631863306,
          0.0889983889016125,
          -0.5691272680320473,
          1.3251869855675684,
          0.9363260562950269,
          -1.4182580645893634,
          0.40409300554044675,
          -0.19077797488856785,
          0.023657966576877455,
          -0.11282093602106225,
          0.31356973328592846,
          -0.6938941751343743,
          -1.0982218740698673
        ],
        [
          -0.3195731274513485,
          0.40769862414498453,
          -0.18056549381579662,
          -0.2420140907268726,
          0.20540182550929717,
          -0.22331491132294007,
          0.12932457562662758,
          -0.1918223367688808,
          0.2935148770594662,
          0.15967851480458564,
          0.034542407683948964,
          -0.41394846184854167,
          0.15893829341088028,
          -0.36674606476086047,
          -0.062307675122906726,
          -0.34248258064504633,
          -0.24055493118220886,
          -0.16434707392754144,
          0.26892370132982263,
          0.2759181113892659
        ],
        [
          0.41062120150649817,
          -0.7776261365957713,
          -0.4680802728234798,
          0.08217510262139659,
          0.15478588755908576,
          0.557123118369013,
          -0.5917031101280118,
          0.31496237602869165,
          0.12601047693147494,
          -0.777245029722293,
          2.019808836058268,
          1.8686598709962683,
          -2.2024560106259963,
          0.6962416943916789,
          -1.264766812283788,
          -0.012467896970959024,
          1.9183979578386379,
          -0.5537397319605082,
          -0.6102656192019642,
          -0.7901661755457059
        ],
        [
          -1.8578285972067041,
          0.3258256492142396,
          -0.9483639005227951,
          0.11515238399998291,
          1.528201306513295,
          -1.446898884249523,
          -0.7502722489635205,
          -1.4084969713628612,
          0.3501902540785863,
          -0.850459453236012,
          -3.4215411523517965,
          -3.010991199774042,
          2.490324846571473,
          -0.21648278677101823,
          1.664954806756432,
          -2.4909702330700103,
          -0.32593026982651424,
          2.19265088448221,
          2.814440038993209,
          3.3316249273325287
        ],
        [
          0.4206082707823833,
          0.7731650948771975,
          0.04197187243078023,
          -0.7537586591026908,
          -0.6581329732829511,
          0.590791239868916,
          0.6657166581917902,
          0.4357142514188193,
          0.6133676242034786,
          0.2323633681143704,
          0.5225219981861726,
          -0.12959118045478163,
          -0.13120426530623946,
          -0.12070736135259101,
          0.4440196878602832,
          0.21916502898958357,
          -0.2799150387512512,
          -0.03588487280887414,
          -0.33955173391261456,
          -0.0431287086700453
        ],
        [
          1.1792018343668835,
          0.7705987830891159,
          0.5627878563847813,
          -0.46672987731930016,
          -1.2097864257876818,
          1.3232755471854236,
          0.7969891314428141,
          1.0176029515302332,
          0.044940950246802745,
          -0.19253276242163597,
          2.4870267575303666,
          2.3683863360353254,
          -2.308927184114483,
          0.6049380207892405,
          -0.9618055600614712,
          1.8645277620570777,
          0.5358762938955101,
          -1.4601929304034436,
          -2.284182370576712,
          -2.7369805583939555
        ],
        [
          -0.42160100851926036,
          -0.05605141396613878,
          -0.33244112058293734,
          -0.20713116895046174,
          0.2544035129566058,
          -0.14245462060414144,
          -0.28456702208770285,
          -0.3666708875833189,
          0.11556332326161273,
          -0.45012059495227424,
          -0.1276538709328326,
          -0.3847297992299714,
          -0.1318081616715301,
          0.1761173057724272,
          0.4806962576572247,
          -0.8330850371929738,
          0.29286602480869034,
          0.20441804137269676,
          0.5905584578340498,
          0.9350538868554031
        ],
        [
          0.17893039339699082,
          -0.789781410536776,
          0.623238200944822,
          0.3164932925874616,
          -0.18594316673319444,
          -0.29881018257147635,
          -0.14681669669683506,
          0.07532092501327986,
          0.037200786546164114,
          -0.4103699865945774,
          0.12842137930232322,
          0.6404093687511613,
          -0.39150320376186665,
          0.2344696060738259,
          -0.25826923676736807,
          0.2539540507116321,
          0.686760211415715,
          -0.269513708486442,
          -0.28121161657604116,
          -0.3630577113239181
        ],
        [
          2.179467950485053,
          1.7802194759579273,
          -1.4076403739211494,
          -1.4901338017003491,
          -1.983785332515164,
          1.881578961046587,
          0.3441732537775994,
          0.6441443884201564,
          0.7346328866256828,
          0.41960482951524547,
          3.128981372772328,
          2.8187729384473355,
          -1.8773037484039423,
          0.9978387220500068,
          -0.6228781138785108,
          0.7509313053287334,
          -0.21156651862967182,
          -0.9629048917972086,
          -2.7198921730896477,
          -3.236776771587252
        ],
        [
          -0.5069235518118755,
          0.18745824832078245,
          -0.7960472264684332,
          -0.33563582080287513,
          0.6191044271943931,
          -0.5818132255563054,
          -0.46897625279794763,
          -0.7280098567683155,
          0.04124306251426591,
          -0.5444027414475805,
          -0.6320606340788073,
          -1.0184489152663416,
          0.4512071797010359,
          -0.0424787438056369,
          0.5583010837878232,
          -0.6481540076840928,
          0.35767760943149113,
          0.5994525776181238,
          0.6441109412016977,
          1.2721898975870887
        ],
        [
          0.44031434017583637,
          -0.14064799294913424,
          0.09719559596208331,
          0.24908766269915056,
          -0.09139581336890258,
          0.2912840225604827,
          0.01843305063923443,
          0.12458872108424006,
          -0.26529885998426384,
          -0.05914496103695231,
          1.7390459119748785,
          1.210288912683009,
          -1.5171350961867605,
          0.2258763032323945,
          -0.7107548122054006,
          1.0879451048544262,
          0.897694752159099,
          -0.1971546955316765,
          -1.5220816840114373,
          -1.6376781747385516
        ]
      ]
    },
    {
      "activation": 1,
      "biases": [
        -0.05713109244943355,
        -0.3595605312337792,
        0.18997339711236763,
        0.14977088519498888,
        0.2620312562539462,
        0.2831701936390314,
        0.11141471399784231,
        0.41353305721574396,
        -0.11733112724567134,
        0.34380128915267427,
        0.09128168271901964,
        -0.1663206317589975,
        0.09845697448574597,
        -0.11299887751924384,
        -0.34431239004173075,
        0.0183229121918326,
        -0.05341611858819765,
        0.42731836399383316,
        0.20205070389075772,
        -0.12110347791232677
      ],
      "cols": 20,
      "rows": 20,
      "weights": [
        [
          0.3324084492581505,
          0.43035049991988467,
          0.4268649791892353,
          0.9442406756141027,
          -2.5203082256501235,
          0.508084371470356,
          -0.03545193507822225,
          -0.028915467957346445,
          -0.16275628004691295,
          0.02009441464548735,
          0.23551220513447596,
          2.1050138255194684,
          0.08056799840878268,
          0.0319864064405907,
          -1.0657243902029314,
          -0.17768356597912308,
          -1.979534109019961,
          0.6080597558273481,
          0.08362493237498171,
          -1.3660099135431787
        ],
        [
          1.1317757240987907,
          0.30289811993043864,
          1.4250356668187958,
          -0.394131265000237,
          -1.42180944009055,
          0.30751217878567755,
          -1.0743537777210181,
          -0.7823570968917256,
          0.5803663244764559,
          -0.07359623991885313,
          0.48501864360217606,
          -0.1838860375305595,
          0.8829186396218311,
          0.41174337082603374,
          -0.8429826031246711,
          -0.06503491623210916,
          -0.5098729926692994,
          1.7016851442022023,
          0.15612804138405145,
          -0.34854453141236535
        ],
        [
          0.3200307513372816,
          0.055958537386319965,
          0.03142355540860459,
          1.0650705953896493,
          0.7833475941635796,
          2.070775260283362,
          -0.1360643668561717,
          0.6461127755002656,
          -0.03613676899096903,
          0.5592415954239571,
          -0.5094509223401636,
          -0.006832169228110711,
          -0.10445859956247208,
          0.6744517755977723,
          -0.613835077435604,
          0.051828870218808935,
          0.02327227065532635,
          -0.22031471064522304,
          0.3324757326394047,
          0.6719897785994541
        ],
        [
          -0.23224474507661153,
          -0.9198388287862758,
          -0.9777597256105429,
          0.0036431410007364126,
          1.6546560618755242,
          0.13948718549703568,
          0.8419432080809858,
          0.45713286185682894,
          -0.5921733023827795,
          0.45510570204477696,
          -0.47865255875520657,
          -0.7294717160521802,
          -0.17421944273347234,
          0.2080151130854949,
          0.13578117133471126,
          0.07450104596290763,
          0.09673794288076104,
          -0.6063255344176737,
          -0.02162941252537175,
          0.6829197544552822
        ],
        [
          -0.42618935571314975,
          -0.6797161969755401,
          0.2348962001191888,
          -0.7567400479890569,
          2.68489074193301,
          -0.1011609675725176,
          0.09676287210633215,
          0.36426133210994627,
          -0.5771782060873755,
          0.9133097666093769,
          -0.6421616979715117,
          -1.6321920500743556,
          -0.3141282432228901,
          0.14375418282673974,
          0.49914353156290653,
          0.17944251247546866,
          1.4880381892337362,
          0.0769956874441377,
          0.26552115868002807,
          0.5807491114098676
        ],
        [
          0.05044969027255258,
          0.06372480888950229,
          0.14946489452142622,
          0.6084112368233515,
          -2.354915652136344,
          0.447447211558529,
          -0.35937832707745215,
          0.4131037590490375,
          -0.1727792990318859,
          -0.5419954150196302,
          0.5462695164822771,
          1.9862752847241183,
          -0.24991605773987177,
          -0.17848883886346686,
          -1.116562995299455,
          -0.404802808705689,
          -1.060251542182733,
          0.8165594768454413,
          0.23336688371970074,
          -1.4209291110341111
        ],
        [
          0.5533439007929806,
          0.44173068635918783,
          0.9734508531279342,
          0.771110119466164,
          -0.7291437115024278,
          1.1058065442354126,
          -0.5573639348622121,
          -0.07654375081130164,
          0.2481832408759106,
          0.12356667306881865,
          -0.4702952704728489,
          0.005861177913445091,
          0.48577507003400505,
          0.39879371894402615,
          -0.6304131363078254,
          0.01956343730343874,
          -0.8706290393855627,
          0.8293417399287547,
          0.3749531636497402,
          -0.213608238829572
        ],
        [
          0.22728353724502134,
          0.37455803202431365,
          0.30358134029725625,
          0.9699420524360768,
          -0.6795378771751985,
          1.0927974164293361,
          0.12182933026319567,
          0.46537150002939665,
          0.11979404191977253,
          -0.0021884397541234303,
          -0.603904670465269,
          1.2249700911597274,
          0.013921337048540317,
          0.2195797644193337,
          -0.9682641549761258,
          -0.08700826095374588,
          -1.1030767862700608,
          0.8213464606462414,
          0.6342849317837774,
          -0.6429940101722051
        ],
        [
          0.4641978568445456,
          0.251382672060248,
          0.3525180373369119,
          -0.23111445331034572,
          -0.4582316603260774,
          -0.38162612332449714,
          -0.5826783126223607,
          0.20046500539790754,
          -0.03837728168839353,
          -0.022136219272971276,
          0.21858579188990487,
          -0.032948869147044056,
          -0.05989290973711853,
          -0.31726263005079797,
          0.036214393488042625,
          -0.07822703016452662,
          0.2980230122316789,
          0.8025142016309513,
          -0.24594457686891788,
          -0.48170603059702344
        ],
        [
          0.5575806712479284,
          0.2563610221836093,
          0.9247637488268197,
          0.22097808763686802,
          -0.9747536574222152,
          0.8372501957892322,
          -0.1315721580029299,
          0.0025659619566816352,
          0.5721500679386586,
          0.27917886296334865,
          -0.6285151329655287,
          -0.46915937559267734,
          0.1083012176661748,
          1.0296636540591246,
          -0.3118350664913008,
          0.5115119907632308,
          -0.005378751240524442,
          0.5159858812504886,
          0.30604276409952036,
          0.3419817378886309
        ],
        [
          -0.08337427020012313,
          1.1211350669758677,
          -0.4496434394503433,
          2.2262965103424106,
          -2.70237075118988,
          0.9588826637552799,
          -0.23296397202265204,
          0.12239401112376154,
          0.16951168967014574,
          -0.15443430555949156,
          0.8588731921563129,
          5.309866186589501,
          0.44819593127127433,
          -0.2735721484541504,
          -1.3335724679220025,
          0.34345562010271713,
          -3.534161955107441,
          1.0217975405974136,
          0.6867620302555845,
          -2.503407608557114
        ],
        [
          -0.0458808681659077,
          0.14854208578918418,
          0.10122276232538617,
          2.982525466937908,
          -2.0869518445118116,
          1.0766295038999578,
          0.4515874425034061,
          0.39995839022379254,
          0.009386569402122754,
          0.12146403919894606,
          0.5184246828122614,
          4.394023115228402,
          -0.48158823156442176,
          0.035599640285608594,
          -1.1688588906175656,
          0.5531520549579786,
          -2.992652197541722,
          0.40223230313478747,
          0.5563597469312492,
          -1.6782717597474435
        ],
        [
          0.3841701833499545,
          -0.5740860810679678,
          0.632222730150978,
          -2.439365369021971,
          1.3111915317948255,
          -0.44709612155739886,
          0.07439492468360442,
          -0.6625218615533407,
          0.05814040974562869,
          0.2225551252144876,
          -0.20309486986296796,
          -4.822440032253525,
          0.14726150681848954,
          -0.09789988388176901,
          0.4403709512219179,
          -0.14122514075672496,
          2.3546263812629946,
          0.2601617957357405,
          -0.1523094639744925,
          1.1804957856259013
        ],
        [
          -0.172148513547397,
          0.08906396900152279,
          0.30579971215576374,
          0.3680806591067239,
          -0.1485573756308138,
          -0.5716853934159996,
          0.12066545568708434,
          0.2612197879582244,
          0.09589449472429076,
          -0.18904117246931576,
          0.6417478172299288,
          1.4450441248939805,
          -0.30926015448839217,
          -0.7348549685514996,
          -0.49869025979508247,
          -0.1560713090670935,
          -0.7954715551120286,
          -0.020477957907341433,
          0.5607687209926001,
          -0.9440420679417647
        ],
        [
          -0.1986418104773112,
          -0.013492261384131444,
          0.045035510348945956,
          -1.6711255557215365,
          0.41260885997835695,
          -0.7730400774377033,
          -0.4564088717107912,
          -0.276355314662584,
          0.41647648092159245,
          0.5647747524122236,
          0.1970172283729343,
          -2.3629322405431488,
          1.0243098844523355,
          0.031671957786210334,
          -0.2178142031174364,
          -0.2813061528989629,
          1.7940391592505784,
          -0.2163464554927383,
          -0.29995128808613186,
          0.20711658141085582
        ],
        [
          0.3667085830941837,
          0.7830334401803425,
          0.33743028257752405,
          2.2435675187571293,
          -1.6107205694855355,
          2.4541298003928906,
          -0.21184045886166838,
          0.6680095920905281,
          0.4728608743215433,
          0.038621071403260224,
          -0.6172738423162781,
          1.8995554174504694,
          -0.2516851497329477,
          0.5128317319080559,
          -0.7967591715641068,
          -0.29262607878180025,
          -1.3145960827053604,
          0.9484161526251614,
          0.27432170826950614,
          -0.5150589738670456
        ],
        [
          -0.3912508221314324,
          -0.5649194427802668,
          -0.37704317930377285,
          1.2324656309540263,
          0.934958748249437,
          -0.19283206003472445,
          0.8345592365509987,
          0.49182511023542064,
          -0.972188304573694,
          0.18910651962242722,
          0.08996508996807585,
          1.9195367936056045,
          -0.953306132375171,
          -1.321054750437285,
          -0.04444126483269626,
          0.014212232382637875,
          -0.6636328040668423,
          -0.2875649775344809,
          0.39954984821337897,
          -0.4058671788731014
        ],
        [
          -0.09943896015940898,
          -0.20106683009262322,
          -0.48255267724523976,
          -1.848024885587551,
          1.3156374263604422,
          -1.6013741176763223,
          -0.22010709669811554,
          0.29689004658509466,
          -0.39737415003078674,
          0.3820417859368137,
          0.30555836910552414,
          -1.69452018526604,
          0.851296608400842,
          -0.3444032894832894,
          0.6916724876633962,
          0.3899603203219296,
          1.4395518109104968,
          0.20664444557088918,
          -0.1676880170727079,
          0.2237680976303137
        ],
        [
          -0.0664594484321757,
          -0.9027156320295371,
          -0.15607239161356498,
          -2.1684852410810205,
          3.1021361123145885,
          -0.9732581436605839,
          -0.09963216570245766,
          -0.04561222001760379,
          -0.05262925580978659,
          0.6537452859671014,
          0.3581573298860103,
          -4.051377738952568,
          -0.2879541979450913,
          -1.030355440638041,
          0.7414342678814827,
          -0.05237506704735934,
          2.8179988047240823,
          -0.6749301635677974,
          -0.47068700634070015,
          1.0506244958202813
        ],
        [
          0.04776404868201662,
          -1.4558970716565993,
          -0.4782725942837608,
          -2.8124649927412197,
          3.0085665372766326,
          -1.9169595650762297,
          -0.03635938332121193,
          -0.45519422303035406,
          -0.4738049651398168,
          0.008014961220351807,
          0.4133136676990501,
          -4.283602529779251,
          0.11199958534307586,
          -1.3006288758817421,
          1.1396448363127514,
          -0.27785458078445185,
          3.3342739214176116,
          -0.3351367195704917,
          -0.37314213521735956,
          0.9065314479816524
        ]
      ]
    },
    {
      "activation": 1,
      "biases": [
        -0.34788241633637573,
        -0.7449853979682527,
        0.4033857902125741,
        -0.6341174468544175,
        -0.48508822073118907,
        0.013743979698629555,
        0.9909641192041174
      ],
      "cols": 7,
      "rows": 20,
      "weights": [
        [
          -0.591433813100487,
          0.35480972357855806,
          -0.8486913503612694,
          -0.25802476783528916,
          -0.1980228423752042,
          0.13847497200030598,
          -0.7688148745227238
        ],
        [
          0.46907510729218277,
          -0.9015700069021702,
          -0.4179385097691319,
          -0.9118357658644788,
          -1.4891586936174477,
          0.4287199757749934,
          -0.7547052129955016
        ],
        [
          -0.02188677289510251,
          0.3417546666443728,
          -1.5427167862732674,
          -0.33225402877982857,
          -0.9454343085416337,
          -0.38581493561016783,
          -1.2795296289447562
        ],
        [
          0.6013432950334319,
          3.3848523655920313,
          -0.9987840989285904,
          1.7626145989481616,
          0.5437599182036058,
          0.48514919766337145,
          -0.5014039888589253
        ],
        [
          0.7419809572356595,
          4.916134524817314,
          1.9404348789458452,
          -2.4141793266419898,
          -2.6443418366771416,
          -0.38132122629151227,
          -0.7430745871337143
        ],
        [
          1.3584151311536736,
          -1.6064711938858132,
          -2.4604548498856333,
          0.7535741932226828,
          0.5515038946453225,
          -1.203554531994909,
          0.6623240285860678
        ],
        [
          -0.687302461026291,
          -0.049155971507909325,
          0.9940586665662154,
          0.7072912050696,
          -0.4395253162204954,
          -0.18989703043784334,
          1.4995752361125543
        ],
        [
          -0.0199701527282533,
          -1.1011363286215745,
          0.05632257760189641,
          0.10643964323771056,
          -0.9184569520838868,
          0.07145970013996003,
          1.5833540306014742
        ],
        [
          0.16616436713958446,
          -0.4082237964770802,
          -0.9733760703154062,
          -0.9114601792881958,
          -0.5116655760153476,
          -0.2550441992308011,
          -0.4390430126474747
        ],
        [
          -0.9744185496072741,
          -1.120870716285345,
          0.24913215423434595,
          -0.12876064204363796,
          -0.17684480929836807,
          0.1974995246741449,
          1.5260629410306983
        ],
        [
          0.21180177566476982,
          0.3107517490404438,
          1.7540768904726496,
          -0.7893207143381482,
          0.17194249878725784,
          -0.5312934251622056,
          -0.5028479988893317
        ],
        [
          0.07868623385615155,
          4.269399027842869,
          -0.8395946401348936,
          3.1276481916349965,
          4.293963216988974,
          2.40896806978503,
          0.7135343731038496
        ],
        [
          0.17344711919746786,
          -1.1475545692995972,
          -0.7003089175339743,
          -1.2967804458778958,
          -0.5893250353578717,
          -0.09992861690854003,
          -0.31405203748784355
        ],
        [
          -0.9270508143309764,
          -1.626325890561005,
          -1.6011164157971662,
          -0.6602961258630772,
          -1.2262050111269023,
          0.6102494047823385,
          0.10864334209962091
        ],
        [
          0.33995223512353945,
          0.5210410737662079,
          0.5692823037886648,
          -1.4344013680662195,
          -1.178857611533074,
          -0.009916339558309601,
          -0.5016550262754761
        ],
        [
          -0.5239303206828747,
          -0.5508572327585625,
          0.3066722464021974,
          0.08716713732419192,
          -0.4891634343467961,
          -0.20070618742549862,
          0.2573218543341498
        ],
        [
          0.07508486522327569,
          -0.12048016155303308,
          1.4625866550267532,
          -3.233131474705179,
          -3.116173213618623,
          2.0897118794926177,
          0.5460681874466018
        ],
        [
          0.06924561598839234,
          -0.664607806444607,
          -1.2064561868400578,
          0.42034821737327244,
          0.482512322317662,
          -0.212443176416761,
          -1.7149149639993297
        ],
        [
          0.5724678984183599,
          -0.6593972438191246,
          -0.34191957339383977,
          -0.6646253682997278,
          -0.07884986221373466,
          -0.6029225369253227,
          0.7407262359674205
        ],
        [
          0.16619449878543993,
          -1.0825060157484985,
          -2.0367236479945725,
          -0.8629857444530293,
          -1.706252121960258,
          -0.6159967578677386,
          -0.14805287946907272
        ]
      ]
    }
  ]
}
