{
  "layers": [
    {
      "activation": 1,
      "biases": [
        3.6492476950960513,
        -0.8066322250197104,
        1.4608399549011089,
        0.07232446891012408,
        -0.7060667261671688,
        -1.3036624912095052,
        -1.8550147043221508,
        0.3417745314862114,
        0.1597862895385331,
        0.26495512313777303,
        0.503254195111348,
        -0.6498472233527466,
        1.2309520242903482,
        0.7954500380995333,
        0.24992220986329233,
        -0.4160996579694909,
        2.0632341508240524,
        -0.1171267489186242,
        -0.43111207499166176,
        0.3062419915668477
      ],
      "cols": 20,
      "rows": 4,
      "weights": [
        [
          -6.304206227467186,
          5.094602136911046,
          -2.2008442683725313,
          -1.4466594720467318,
          -1.8644287147301108,
          -1.2460848866358014,
          0.9341494585199333,
          3.596875811664398,
          2.4780122301781176,
          4.270758855864366,
          -2.8528305821037585,
          -5.541415220828963,
          -6.16127303735546,
          -4.204551440406905,
          -1.3856037427220858,
          0.7900387983722005,
          3.6038361958684955,
          -1.6954519656325857,
          3.073645300599516,
          0.882521285319266
        ],
        [
          -6.202776852653766,
          0.4312596479110452,
          -0.9854555780985115,
          -0.8954248149874403,
          1.022447752812124,
          1.6481864545418843,
          0.4763343485840611,
          -0.8500394833896244,
          -0.7652815495098788,
          1.004514918180741,
          -0.6183593217402078,
          5.154308516484215,
          -4.353462587587692,
          0.03206319807254257,
          0.5938422793361028,
          0.9926053104198892,
          -2.1380100294801148,
          1.882552396034845,
          0.9510841123148669,
          -1.0724559980911659
        ],
        [
          -6.946859572226459,
          0.1469945397161161,
          -2.2285793316391014,
          0.7105325379305346,
          1.9262723925547751,
          1.9809532957897358,
          3.18572368550252,
          -2.073201533187944,
          -1.201127885658424,
          -1.730131713777769,
          0.170549858908434,
          -2.802036770248837,
          3.8274146266520024,
          -2.305801558006628,
          -0.02300369926791758,
          1.2238477052980292,
          -2.6565442446155747,
          -1.954846332303929,
          -0.8042081956483728,
          -0.1901773377827412
        ],
        [
          1.669763920617364,
          1.4122529281659695,
          -2.9598821663410466,
          0.6482913488296587,
          0.14917551899244863,
          0.8061886464225125,
          2.9949042506149044,
          -1.6751192120748584,
          -0.0068067230649931434,
          -1.6836892966270314,
          -0.29043132241276126,
          -10.10158463370473,
          4.095522337993161,
          -3.5264076046764146,
          -1.1953123742985015,
          1.5952380923561402,
          -2.6265549217420423,
          -6.594657764572347,
          -0.11411955151692228,
          5.4269388569605965
        ]
      ]
    },
    {
      "activation": 1,
      "biases": [
        0.14515004835025802,
        0.12888474069291944,
        -0.29941476568614034,
        0.13118001085942235,
        -0.15281800086632544,
        -0.32915508809314403,
        -0.49477257619843823,
        0.4528550534287195,
        0.24764967913226904,
        0.515185319545885,
        0.5222810876278677,
        0.168121118390062,
        0.039302953138794484,
        0.47322645501815136,
        -0.24231494548203192,
        0.3446308369482156,
        0.012495432390881677,
        0.06927582550015621,
        0.03240417882956728,
        0.46054515762622933
      ],
      "cols": 20,
      "rows": 20,
      "weights": [
        [
          -1.964675872239309,
          1.2063577076525898,
          2.1879806355351814,
          0.11779948569692152,
          0.7700335432115074,
          -2.8350787083184947,
          3.2881690468901272,
          0.2792840220018465,
          -6.924845935475975,
          -0.23808183935952884,
          0.5363112916794829,
          0.0562709289375176,
          -2.3001832653237138,
          -6.436647606234826,
          1.1480574148694773,
          1.4048314124361994,
          0.7457293239756814,
          -1.414777471083489,
          3.370826854252062,
          0.8657100346082628
        ],
        [
          0.585394566033055,
          0.45989787443190266,
          -2.2288326028232133,
          -0.9440071563368854,
          -1.609490558894101,
          -2.0993531633296083,
          -1.779108654209575,
          1.460336699205359,
          2.365794273005666,
          2.638220535356253,
          -0.9804249139596414,
          0.0807486650175453,
          -0.901825796748057,
          1.6926069922606808,
          -1.1247995430406676,
          1.1203005625122155,
          -0.7524007452961302,
          0.9653258983218181,
          -1.1908770788400085,
          0.6251343043999047
        ],
        [
          -0.6450264390454097,
          -0.46957662188860033,
          -0.08819061376512531,
          0.8992145383584649,
          1.1751579654440227,
          2.0452038595981263,
          0.3233058017273318,
          -0.9047446195193779,
          2.2350898237267307,
          -1.0148263651470106,
          0.6022246256886531,
          -0.6486546054305511,
          -0.18764639901633082,
          1.439481761003503,
          0.7173073496640856,
          0.4099874148173997,
          0.5183926132012957,
          -0.7612639367580114,
          -1.0194952727669238,
          -0.9925518908209372
        ],
        [
          -0.5128483938634743,
          0.5296798754050978,
          0.8645544726861716,
          0.19078993916406675,
          0.2120039792332156,
          -0.5252087627677893,
          0.11513660855109271,
          -0.3361319181763482,
          -1.1885149073780434,
          0.27327861213149107,
          0.13942896487576803,
          -0.20390729637303526,
          -0.11552437026571968,
          -0.11824379102196554,
          0.07873589569652867,
          -0.05225606425999333,
          0.3787764731127893,
          -0.09959030331051234,
          0.8386054548577245,
          0.06535383226570111
        ],
        [
          0.6027997204971517,
          -0.26921134832475563,
          0.7701858019376705,
          0.2198741499581289,
          0.18850712732308053,
          -0.01724083031115766,
          0.23933723363068965,
          0.2023015785851755,
          -1.3580563740734763,
          -0.20272723482981433,
          0.2868592201205728,
          -0.09517732138863629,
          1.1129647899060886,
          -1.6870518926114906,
          0.23132417261437938,
          -0.755415258344454,
          0.11806120156526788,
          0.28756371790848917,
          1.4341141400192754,
          0.08556369735001514
        ],
        [
          0.3805697163723442,
          0.4245641438526834,
          0.28027719464337986,
          -0.23810722851969962,
          -0.23770476284265246,
          -0.3824567211564225,
          0.13037434917529994,
          0.0671540779096757,
          -1.6603251123778604,
          0.33088593577505093,
          0.32036164455475163,
          0.6968638418954457,
          0.9198809388313368,
          -1.9267628014688365,
          -0.4261868327645942,
          -0.7347883992411864,
          0.3684602489402351,
          0.07631050819881312,
          1.3287358635011532,
          0.28607586633593834
        ],
        [
          0.5215628794731991,
          0.8304714313764769,
          0.7068324027223982,
          -0.1735857962091517,
          -0.7152206764293725,
          -2.142974605547174,
          -0.9851727803939693,
          0.9470007441239001,
          -2.622727327227722,
          1.3894656623277555,
          0.027255688000610408,
          0.7488904282907686,
          0.3582280439857242,
          -2.2885675815566873,
          -0.3645506474423936,
          0.001793461690290698,
          -0.34185498690502636,
          0.275554592982776,
          1.2183265666643857,
          0.6997893502728151
        ],
        [
          -0.2803579112255931,
          -0.1312690184181776,
          -1.6386178383173247,
          -0.3206121993864785,
          -0.291387478845952,
          0.15370841387604642,
          -0.5966363328297222,
          0.5207603000759342,
          3.086283741508026,
          0.4504758335314502,
          -0.38667439279302196,
          0.07495562779343552,
          -0.49371793862604857,
          2.841329299250921,
          0.21442731469632922,
          0.5122574271515827,
          -0.6337135942412158,
          0.013911662089183924,
          -1.807302822410953,
          0.3882840579413005
        ],
        [
          -0.31584412365810965,
          -0.045175727581924195,
          -1.3940668373111764,
          0.027226602057688818,
          0.0075738659487480375,
          -0.26246026645888787,
          -1.1768524906961078,
          0.6713487397576385,
          1.7987745302433136,
          0.9395115499105087,
          -0.5825346551489278,
          0.3668069288332226,
          -0.7092787485424594,
          1.403534877838254,
          -0.09545872824356658,
          0.5738209121380751,
          -0.13782576983444697,
          0.1458150139195862,
          -0.5479963006966405,
          0.11359764721545244
        ],
        [
          0.014432463456362545,
          0.2460425731598355,
          -2.240810008728247,
          0.1865449922797684,
          0.07359238169224341,
          0.1582954627870854,
          -0.6954444436617565,
          0.41199636763243563,
          3.4482412596438206,
          0.8049698100019176,
          -0.308408246662764,
          -0.399030934167173,
          -0.5281729148265751,
          2.69642065305271,
          -0.38817186635780526,
          1.2533857266648847,
          -0.3408660150576757,
          -0.31769801816055043,
          -1.7435862906503132,
          0.1240680304205745
        ],
        [
          -0.44836053099003764,
          -0.21522004580611795,
          1.1150466150231233,
          0.31481686581414897,
          1.069220059278078,
          0.295050172800383,
          0.6389180644657187,
          -0.8112993045377525,
          -1.317485234169319,
          -0.9540481388309413,
          0.925435358075362,
          -0.20596251051334283,
          0.3218651029351959,
          -0.9215966781599042,
          -0.0779688272978302,
          -0.4106075225922179,
          0.7052391275499333,
          -0.7311751602875645,
          0.5585053300346197,
          0.1731565521249021
        ],
        [
          0.014815754623625403,
          -2.808627180734169,
          -0.5304405304888601,
          1.0181068859001916,
          -0.09828699859453177,
          6.231929499224674,
          1.9595530720222862,
          -1.9784132494562352,
          5.578430503977763,
          -3.8916946102189502,
          0.8650275136191449,
          -0.7549896679421958,
          0.41435462238556,
          3.1054133750125,
          1.92951179280032,
          -0.43403340868136764,
          -0.12081781842424105,
          -0.03139554826611079,
          -2.7640719677804855,
          -2.490292342733575
        ],
        [
          -1.1421774889988674,
          1.2919472934844245,
          2.9310153696768086,
          -0.13905333689631363,
          0.8167304930372855,
          -1.9893140796698179,
          -0.010492057205344204,
          -0.2433346711155506,
          -5.83014505130326,
          0.28973620384473814,
          0.2169250712471298,
          0.14853198388813163,
          0.9286274323583037,
          -3.6428624931840647,
          -1.121071511211562,
          -1.0265561806494514,
          0.5621422991705627,
          -0.578295617889989,
          2.650876774913495,
          0.7263213459840169
        ],
        [
          -0.49884264023571967,
          -0.7288884421177522,
          1.2174771518433922,
          0.8128119427866857,
          1.1839888142994432,
          3.5747419029684457,
          0.8991595878479942,
          -1.4267453125927387,
          1.5797700550916542,
          -2.414216044133435,
          0.994614097277422,
          -0.8661617943502016,
          0.27500337061548386,
          0.6603836205103488,
          1.008627335879476,
          -0.49419854510098554,
          0.02842505935898572,
          -1.0108537929454882,
          -0.9410510538016923,
          -1.295371771036304
        ],
        [
          0.3578075479795358,
          -0.4834481124789532,
          0.4701987938327366,
          0.8023036370377749,
          0.45484967678382343,
          0.7485720015693637,
          0.7546063417238241,
          0.009022774061346751,
          0.03537330252094537,
          -0.5931300495745528,
          0.8690527891637476,
          -0.028758839397932407,
          0.5793146411802204,
          0.058605729649447595,
          0.19723346673073153,
          -0.719641995562649,
          0.2934361341151229,
          0.02981187305249217,
          0.46638154562222645,
          0.07363370080243194
        ],
        [
          0.29388773274789476,
          -0.036737130950284066,
          -0.3580746963439589,
          -0.509861951434322,
          -0.9330144280567509,
          -1.5385782743492378,
          -0.9113942742626399,
          0.26298550596875203,
          -0.7970294762216088,
          0.7798989320120857,
          0.12863245118363564,
          0.7830671056083665,
          0.13951811130820388,
          -0.6989779524838392,
          -0.4411661319411088,
          -0.20567629638135257,
          0.0956230589321168,
          0.13978056292626886,
          0.5680439293115223,
          0.4065814907821267
        ],
        [
          0.021133263910012762,
          0.3017222969228772,
          -1.7588380197666782,
          0.6497401811676646,
          0.07468431117825285,
          0.8227200703573148,
          -0.31901095366012616,
          0.4309542631914478,
          3.896265372904186,
          0.8467402322931733,
          0.057298746536391894,
          -0.024422719963940562,
          -1.1974439959839576,
          3.794442902073843,
          0.08055750648548587,
          1.271536231689071,
          -0.7023089274549384,
          0.018847162071864598,
          -2.1155139379648844,
          -0.14958370251586595
        ],
        [
          0.2358769587947249,
          -0.7314977271065863,
          -0.4793740951424507,
          0.5968514720731982,
          0.6322389866906923,
          3.476226256264611,
          0.8184784245782024,
          -0.8424740089184958,
          3.377250283767882,
          -1.8813287441868198,
          0.8200624614728408,
          -0.43082900269559227,
          0.3434632346590573,
          2.1308009442949722,
          0.8012198949066216,
          -0.3669119620515262,
          0.4908995029535186,
          -0.6618013358375242,
          -1.7972047972011451,
          -1.552094608524068
        ],
        [
          0.7669800932398649,
          0.22406041316448844,
          -1.4058369868824863,
          -0.19819532617852592,
          -0.3864545592434496,
          -0.7085678799081353,
          -0.7496228067976024,
          0.8817920745995881,
          1.9776354898741662,
          0.9779129297385741,
          -0.412049865343661,
          0.32844299248439834,
          -0.484585377116682,
          1.7270776229653364,
          -0.10160195455820818,
          0.2402666659742484,
          -0.22950433613660662,
          0.3713984699796349,
          -0.9463846099268814,
          0.4045826805029635
        ],
        [
          -1.2120999841250562,
          1.3172088395550414,
          -0.062268497686068486,
          0.43285469387247777,
          0.7338518640384321,
          -2.8102517658716755,
          0.10683126628293795,
          0.9870266999753281,
          -2.1727911785462766,
          1.5694791460235407,
          -0.035032005519028,
          -0.22003525569601423,
          -1.2296548980453614,
          -1.4467342572179855,
          -0.6418283697658708,
          1.0043226685986608,
          0.022978181482449723,
          -0.49177367218991513,
          0.5047654215042655,
          1.253636105801058
        ]
      ]
    },
    {
      "activation": 1,
      "biases": [
        -0.40903476479571,
        0.030228288866390195,
        0.18511657399971598,
        -0.37720764288535713,
        -0.21676446438285737,
        0.42342579105604083,
        0.11739768861434875,
        0.05777165902543086,
        -0.011026578433618133,
        -0.16391056079524982,
        0.030077049804543583,
        -0.44153753619967223,
        -0.3357409877246547,
        -0.1563509248266102,
        -1.244772492596196,
        -0.1091405640062221,
        -0.19770202070148477,
        0.013086851331539612,
        0.09638677997722507,
        -0.3275483194502148
      ],
      "cols": 20,
      "rows": 20,
      "weights": [
        [
          0.6645012816442966,
          1.1784697276337515,
          1.145809680037908,
          -0.6141616444924796,
          -0.0720074248132445,
          -0.01137569564296221,
          0.4932827271207306,
          -0.4432909141146113,
          0.07366511564493991,
          -0.19419658888654145,
          0.01625552608363598,
          0.32087673512426973,
          -1.0481157661161216,
          -0.5029471109287945,
          -1.5161765476791385,
          -0.9887950621883397,
          0.41015943242015757,
          0.8815542576939704,
          -1.3491823124363054,
          -0.3320732711493967
        ],
        [
          -1.285236133181338,
          -0.369042109474417,
          -1.4539891012961612,
          -1.0964696273830599,
          -0.021819417982890256,
          0.9085659944253157,
          -0.26291006097268627,
          1.9680563902218566,
          -0.4324014831501924,
          0.8556631548145126,
          -0.5923119083956491,
          -0.0945936961435932,
          -0.7178289946179186,
          -0.16693760102399172,
          -2.272900496213173,
          0.7640817883721355,
          -0.0684302607271685,
          -0.892847914100914,
          0.4874720263771097,
          -0.2505622901882893
        ],
        [
          -0.4218300845661485,
          0.5621818136468392,
          1.519420993478275,
          -1.5277772460711327,
          1.2384893635667478,
          2.661514223148272,
          -0.7183683385571551,
          3.6366045668912985,
          -0.9057551921955265,
          0.29801927741245243,
          0.37981697127650393,
          -0.5212142417837446,
          -0.24961700594915912,
          -1.9654292682561467,
          2.0913114452648993,
          2.3156942361738797,
          -1.3684676106731288,
          -0.4923012369489163,
          0.01420868217931928,
          0.799705304262313
        ],
        [
          0.26252158099274414,
          -0.9583757056651876,
          0.921534038293882,
          0.3492017281601735,
          0.5803315743042706,
          0.2980952876133925,
          -0.29471614336676405,
          -0.4742395163803902,
          0.7574398467944333,
          -0.13358779154695408,
          -0.1499272117040453,
          -0.32238760028700064,
          -0.19496968674195078,
          0.2486026646710283,
          0.7849042266944221,
          0.28246461206350565,
          -0.7679816835636345,
          -0.5699760820886332,
          -0.44926279472112385,
          0.015838474677665814
        ],
        [
          -0.8324336722149106,
          -1.5734784165575415,
          0.36159229149677796,
          0.7433933846102924,
          1.0428109605131093,
          0.8536605094020492,
          0.07094110357319167,
          1.1868621384990916,
          0.13102589294823516,
          0.08751814730487549,
          -0.8571847445002501,
          -0.06822353317675486,
          -0.3441047423215122,
          -0.12853422434145287,
          1.2147682046392152,
          0.7724002321757485,
          -1.5249933414983132,
          -1.0830077132843876,
          0.5734151411487276,
          0.42046184125746117
        ],
        [
          2.252371805053061,
          0.4622513650967522,
          0.7426314496138156,
          2.699869360172461,
          0.6903307469650108,
          -0.20846294459854528,
          -0.31616981678500283,
          -4.12849215720622,
          -1.0262412748535672,
          -1.6208828978458305,
          0.15436342624249302,
          0.15419201684190156,
          2.1699573037823665,
          2.33959411148532,
          5.403075447695362,
          -1.9501267236405364,
          -0.41993161812480895,
          0.34705095505787953,
          -0.5753058732871051,
          -0.8771926018276874
        ],
        [
          -1.1312695407675277,
          -1.00411063239794,
          0.5809941479355545,
          -1.5906704775102942,
          0.0067956653471687575,
          -0.42991825567244296,
          0.5466656039229719,
          0.6713434633674225,
          0.6353122339795483,
          0.5275310372293102,
          -0.1104020002731126,
          -0.2460757125892021,
          -1.0721493008968388,
          -1.2586798140784698,
          3.4816663458729926,
          0.9943895663054293,
          -1.176550053415736,
          -0.3251890619129555,
          1.0545562245726945,
          0.5668557293791824
        ],
        [
          -0.948737162391618,
          0.4069952562766695,
          -0.7144616890572965,
          -0.6597030481262872,
          -1.1119081031268783,
          -0.13836993771144748,
          0.6149484584096621,
          0.49175353782793946,
          -0.25506480432923617,
          0.23761059646104488,
          0.047440787224680835,
          0.03409083775912131,
          -0.6411562790206395,
          -0.16254852202519937,
          -3.454749844567979,
          -0.34675867826055923,
          0.6404958609350928,
          0.27522925027835343,
          0.17873270127348836,
          -0.6374714228796142
        ],
        [
          2.689255498738385,
          -0.6846629952257751,
          -2.224985290265927,
          4.351563477777968,
          -0.85158715419061,
          -1.393938038630512,
          -0.09157451265563646,
          -8.692210437497717,
          -0.48752353406641424,
          -2.5171100029238884,
          -0.15377067541646153,
          0.37353672481050026,
          2.4452008694276204,
          4.00267606538525,
          2.8929489094825667,
          -4.543043898258644,
          -0.38924909316064943,
          -0.4465688243944096,
          -0.6779816170186872,
          -1.2517922258732441
        ],
        [
          -1.5931668593863806,
          -0.29807804031780327,
          -2.0221821359293934,
          -1.4787949351814416,
          -0.928648191701879,
          0.7958946615125957,
          -0.246841041261886,
          1.0102864207254245,
          0.19671342847537035,
          0.712397629476109,
          -0.16358447772464993,
          -0.590895974160143,
          -0.527694702852487,
          -0.8668160707931938,
          -5.683873419089019,
          -0.4375029390314264,
          0.04561335410152313,
          -0.4202286542469196,
          -0.17006841178214632,
          -0.6811438523581143
        ],
        [
          0.2839723072427163,
          -0.9213341151646901,
          0.7748419406357524,
          -0.15551385853925404,
          0.4767659493923679,
          1.015813619415794,
          0.5619861643081423,
          0.4875892227138577,
          -0.15766623477204725,
          -0.15880817196826008,
          -0.22744905267789123,
          -0.003960613106223544,
          -0.791145048970188,
          -1.128405703771792,
          1.0435800010066805,
          0.5457431341514857,
          -1.923852240149048,
          -0.5821987824895135,
          -0.18096694397775506,
          -0.10619691440701805
        ],
        [
          -0.3171012939807374,
          0.7437681174352052,
          -0.13356585164033263,
          -0.42731515230208994,
          -0.316078359696435,
          0.2799742149763551,
          0.7626325270736717,
          0.9087613909949254,
          0.10692170529939646,
          0.0071272294508255936,
          0.18224262417200288,
          -0.22772599136407556,
          -0.3844111264198135,
          -0.549326569413378,
          -1.5809071453130166,
          -0.30365059896223334,
          -0.03453531796296591,
          0.18455740449336464,
          0.05014477035254912,
          -0.3823572384541444
        ],
        [
          1.0457268581472874,
          0.6842165054493236,
          2.1368760827203435,
          0.2878955686541224,
          1.1027093661292242,
          1.5366403409808533,
          -0.06330060999600803,
          0.7656034537928103,
          -0.03863233876265667,
          -0.23175954782733718,
          -0.3775289910457547,
          -0.41005729282865744,
          0.33394542502947255,
          -0.9439703773285602,
          -0.022262699997071107,
          -0.20014773250390006,
          -0.44129129819518104,
          0.4628019634987,
          -1.7591084407027002,
          0.22267210803935164
        ],
        [
          1.7936421462287728,
          -0.48269436435168156,
          -2.3989270031070267,
          3.8709596573843497,
          -0.4189338034332711,
          -2.3558211724428393,
          -0.7136438239364938,
          -6.691204569118637,
          -1.002462121648013,
          -1.7136694065589093,
          -0.427573525736171,
          -0.012832587185341979,
          2.648475630736519,
          4.076630794739332,
          -0.8861447000940886,
          -4.0307814317405715,
          0.5747610247786745,
          -0.1361953873526671,
          -0.14453438780530656,
          -1.2458007920735312
        ],
        [
          -0.22216954510370196,
          -0.6720623480337123,
          0.05769924517297494,
          -0.36547118742411294,
          -0.09672770856015414,
          -0.762619251986226,
          -0.20536270638180942,
          -0.8991934961241247,
          0.6837747026209813,
          -0.08841902800507266,
          0.1692516150012267,
          -0.33907656434125644,
          -0.32028776388590086,
          -0.18069288100346423,
          2.4046469434074234,
          -0.3549015644956585,
          -0.6437102743411228,
          -0.25512626964401053,
          0.26193993235399377,
          0.1852573914140451
        ],
        [
          -1.4661832759051852,
          -0.37713900198592015,
          -1.6356980494704971,
          -0.15824781931808413,
          -1.0036432275179756,
          -1.396623419703443,
          -0.15815499653133658,
          -1.1090877732915625,
          0.4974248023961001,
          0.48930669384895664,
          0.1611592710297414,
          -0.5941469889154447,
          -0.2867295909006706,
          0.9940224307027721,
          -1.2565022473632501,
          -0.2067645246548127,
          0.4776783853151942,
          -0.16482116753501247,
          1.0431126308673295,
          -0.4212146039480247
        ],
        [
          -0.11868782603574674,
          -0.5905236902756593,
          0.5114404230634909,
          -0.24188281743401488,
          -0.0004401587324967825,
          1.037024474458809,
          -0.20697919276288684,
          0.5857341204470418,
          -0.00875254429438393,
          0.1608010922301845,
          -0.1719186638765841,
          -0.4503258656832392,
          -0.8212626028442215,
          -0.2439816559060906,
          0.2144882974950248,
          0.8275581054920313,
          -1.0671546128852718,
          -0.700600476691662,
          0.4835058206673043,
          0.14690978221280862
        ],
        [
          0.19498050801868003,
          1.0300677170336974,
          0.22410130938389677,
          -0.4787305212267538,
          -0.6097474862421175,
          0.2332781559172185,
          -0.2813913453403433,
          -0.5398129296917935,
          -0.42303429555466504,
          -0.27684921621042824,
          0.3778072722916885,
          -0.4921272305838025,
          -0.24446169857193265,
          -0.49922989034320714,
          -1.7758604666299538,
          -0.8296798644993442,
          0.5110940270331091,
          0.5229631353160125,
          -0.8472494561006294,
          0.0196243738310218
        ],
        [
          -0.7215076390750179,
          0.31934482967819006,
          0.8420713234505438,
          -2.702549170680083,
          0.48151390779552583,
          2.4851612985771725,
          0.3375058235107587,
          4.567524838809891,
          0.4263620914228409,
          0.8702132526095556,
          0.24565681282827062,
          -0.7208306962601289,
          -1.4225246926356674,
          -2.646420668093837,
          -2.309691098793172,
          2.309529967537302,
          0.1545000367178424,
          -0.055346585998311305,
          0.22464440960520352,
          -0.032833784219248575
        ],
        [
          -1.1834583552600526,
          0.4591309363978984,
          -1.119387592567244,
          -0.9685941351408769,
          -0.16319266671177976,
          0.7417302130096812,
          -0.06895419243604844,
          1.6084031879616367,
          0.24409206988722895,
          0.743143687255542,
          -0.44534014110261716,
          -0.3863257614491529,
          -0.5200970784481677,
          -0.9159934807538811,
          -2.698778375185657,
          0.6233669557739902,
          0.2829387394225958,
          -0.5911361908977183,
          0.16682831121114833,
          -0.3477321588113887
        ]
      ]
    },
    {
      "activation": 1,
      "biases": [
        0.31615136376935626,
        -1.489606765380356,
        -0.46829793442876183,
        -0.03839502572211905,
        -0.25796950664996876,
        -0.06083480989946196,
        0.008766472379245034
      ],
      "cols": 7,
      "rows": 20,
      "weights": [
        [
          0.7855121081138757,
          2.6109812254163756,
          -1.0660530065797995,
          -0.37993038487481806,
          -2.2509520577420425,
          -0.6349704193926077,
          -0.5928705323015467
        ],
        [
          -0.09548105025740684,
          -0.8169510213991941,
          0.1153650366813935,
          0.9057337166923216,
          -2.0504408749456036,
          -1.0531743151094766,
          1.09643027520756
        ],
        [
          -0.8348665415671892,
          -2.452262773135875,
          -2.45979780093364,
          -1.893517409755121,
          -0.6845678005329396,
          0.1702044066574383,
          -0.9395588029838446
        ],
        [
          1.1798615982595013,
          -0.9019674811463222,
          -1.779192033206136,
          -2.058405956645515,
          -3.037491827790475,
          0.38862542956347385,
          -0.44696442224381944
        ],
        [
          0.07402213868482697,
          -1.1355775370946763,
          -0.303616008018615,
          -0.641233653360295,
          -0.9218868686010818,
          -0.45538499219952355,
          1.7811079919965123
        ],
        [
          0.8858972952930945,
          3.5713599388595396,
          -0.543111663447615,
          1.4822027664181088,
          -0.1344112450341305,
          0.3536791096943094,
          0.9605448434429545
        ],
        [
          -0.22615802931926518,
          -0.6638795534404076,
          -1.0221565371946622,
          -0.18943883521732124,
          -0.29355625316890843,
          -0.11148715430261162,
          -0.7641971274300409
        ],
        [
          0.3325507890433089,
          2.2896280368176707,
          -3.159193204020659,
          2.0632228724268824,
          6.12985579097849,
          2.1835000060333547,
          0.48842967212294924
        ],
        [
          -1.376125253976568,
          -1.4273446942218435,
          -0.18304505380047043,
          -0.5814067390907007,
          -1.1103106998778156,
          -0.13309869873861993,
          -0.5777793282344279
        ],
        [
          0.6445983988929379,
          -1.453551260252846,
          0.13862030178367687,
          -1.224243561321447,
          -2.211425784443706,
          -0.010091123840684134,
          -0.5731254859485767
        ],
        [
          -0.3357932241144199,
          -0.46995098737643815,
          0.28284076365594374,
          0.3107774213163863,
          -0.4775068842648235,
          -0.9408860373789357,
          -0.06479654021060925
        ],
        [
          -0.7698202830570431,
          -0.45377620628216364,
          -0.8232038864466176,
          -0.4312439757463093,
          0.07528094865379417,
          0.1574517869182053,
          -0.683351994200646
        ],
        [
          -0.1968042180757903,
          2.0959903725688362,
          1.0981531818139985,
          -1.2996830829717694,
          -1.673863466791578,
          -0.8672669778682602,
          0.3623419661928381
        ],
        [
          -1.4237986952343633,
          2.0247599661606652,
          1.4743159168861928,
          -2.177939296887861,
          -1.585338103348789,
          1.1189622590674722,
          0.5835812041973583
        ],
        [
          0.059505776590633205,
          -6.31902474354204,
          -3.0235148275090675,
          -2.5533172065249796,
          -1.6135069213774917,
          -0.1676208957673294,
          -0.446388756367177
        ],
        [
          0.3772900858288023,
          1.342172893238969,
          -1.4743503793755965,
          1.362728469158254,
          -1.7062846932001474,
          0.09201734683696752,
          0.13728987440917848
        ],
        [
          0.19989665017720934,
          0.2131335277354705,
          2.470792202894139,
          -1.4616524791028367,
          -0.4766194378364118,
          0.8927552525258843,
          2.118033514285908
        ],
        [
          -0.79885556487992,
          -0.8391926184195876,
          0.49295656279403366,
          1.2292447150958812,
          -0.3037688493852051,
          -0.48143935564785323,
          0.4162774911580081
        ],
        [
          0.1698635714096785,
          -0.8768407390035329,
          1.4185831199485293,
          -1.233917771959392,
          0.744464761802615,
          -1.1511687070015626,
          -0.8228434134556707
        ],
        [
          -0.5330718868299229,
          -1.3331318462531818,
          -0.8122276582806998,
          -0.5884292086350883,
          -0.6256394931480246,
          -1.0675250171448225,
          0.4274302298377524
        ]
      ]
    }
  ]
}
