{
  "layers": [
    {
      "activation": 3,
      "biases": [
        1.6199518280504441,
        -0.27079371347894815,
        0.47733903690377105,
        -1.7532396782284787,
        -1.269694669697776,
        -0.1266469538731475,
        0.32362765338247934,
        0.7035727527663757,
        0.06984359678383874,
        -5.167318561854631,
        0.4889881095153978,
        -0.051834806507563995,
        -0.010294164292104889,
        0.5455927026442347,
        -0.22708059412993092,
        -0.26736272297431674,
        -1.004248435634351,
        0.060076706687181604,
        0.42584219781998606,
        0.07096342540977003
      ],
      "cols": 20,
      "rows": 4,
      "weights": [
        [
          -3.0284518535823977,
          -14.685808097703653,
          -1.9527219792359114,
          2.95210458912693,
          5.76202170781806,
          -6.883473759775178,
          3.7463052831250043,
          -1.2712247515510369,
          14.229778466234361,
          1.2407159355242754,
          10.74506075226798,
          5.765591266077679,
          -6.3660294633019925,
          7.6945478910254606,
          -0.9759166905926336,
          6.515955567966726,
          0.48091491790686036,
          0.3977041422770391,
          -10.177979136743275,
          1.908702409832097
        ],
        [
          -0.7218486896439426,
          -2.872951474446347,
          -4.9130812011322575,
          4.5533532893040025,
          1.8704402949720351,
          2.095375818594273,
          -2.618648797201057,
          -2.5306019602149075,
          5.602817088095431,
          1.6948859490772499,
          -0.7269051358837305,
          -7.104643345489077,
          -1.801733833892985,
          3.841012775843124,
          -4.545368872541101,
          5.652975032062663,
          -3.5440306562103627,
          3.123298085726684,
          -3.599126275148457,
          -1.3847115271822292
        ],
        [
          -3.0697772122869056,
          4.913418357337843,
          3.6204008428203647,
          -2.0541839038584206,
          3.855597526147418,
          -2.208747554934356,
          2.722012462238225,
          0.6029789687223168,
          -7.085787153923186,
          3.467651541157906,
          -1.3460854427181914,
          6.929552420399089,
          2.7184143198554276,
          -4.62673796325117,
          5.027464340458268,
          -3.0253143266867717,
          4.836173797799056,
          -2.0568718202865326,
          4.447645549159675,
          -0.42148120173556547
        ],
        [
          -4.993855243880602,
          0.6529759554759262,
          -0.3401264730279225,
          -0.7410152318334101,
          -4.520672366041065,
          -0.4459903800680258,
          0.5082049429733039,
          -0.6046736556596539,
          -0.2076406318747116,
          5.063401781949819,
          -1.2141182847845278,
          6.251734246798364,
          0.7816755697463598,
          -1.3553740965670147,
          7.178876612186826,
          0.11834939960867676,
          1.3087030111303268,
          -3.366074348188127,
          2.998427061947183,
          -0.8627577782967166
        ]
      ]
    },
    {
      "activation": 3,
      "biases": [
        1.2790627651682847,
        -0.6503338176913815,
        -0.6763850205981362,
        0.77033471020376,
        0.16923613781066,
        -0.9084278176408082,
        -1.8645394451151736,
        -0.39181994719831714,
        0.5939383338286498,
        1.5007412265027498,
        1.6903096855435147,
        -0.011012424861324402,
        -0.3836415270515593,
        0.6813710790131932,
        0.4912610501848181,
        -1.4531303403883593,
        -0.130920006798367,
        0.014239347083995903,
        1.51571879696293,
        1.3985003458461427
      ],
      "cols": 20,
      "rows": 20,
      "weights": [
        [
          -0.8560014150299795,
          -0.8534273696280783,
          -1.021859914286718,
          -0.1963178437174222,
          -1.4926328974233825,
          -1.7564121338637213,
          0.8535747708274734,
          -2.3440714766095536,
          0.4577011903038581,
          -0.7543107094463785,
          9.061217837834881e-05,
          0.041514188590285696,
          1.2567871527340004,
          -1.7221072185218054,
          -1.5421261011894054,
          2.908796235473299,
          -0.671804827755582,
          -1.4114302876313254,
          -0.0989831101039575,
          -0.6916713713185001
        ],
        [
          -0.8780803516201717,
          -0.6435556905807392,
          1.4193740698474206,
          0.947138250429661,
          0.145759587984154,
          -1.1797981394097368,
          0.7348474759588961,
          -1.5591616269617052,
          -0.326169520597124,
          -0.230612237899204,
          1.6912728719144856,
          -1.8337852733210893,
          4.852976512555947,
          0.5794291870736279,
          -1.3237259610361105,
          -0.6408652963355506,
          0.35227903888274287,
          0.4792211189010071,
          0.4847122249114707,
          -0.5722320652242904
        ],
        [
          0.17237817743250008,
          -0.7094707406702393,
          -0.3807145584879078,
          1.0613803526139658,
          -0.5226332111564901,
          -1.5010775870951958,
          -0.7277398006167851,
          -0.23508526049958664,
          0.7974916926634221,
          -0.6066587291827059,
          0.34414153978566486,
          0.5575718982920065,
          1.3910743619745383,
          1.1607749968473484,
          1.6203070859451407,
          -0.1916507389834801,
          0.0736042259944715,
          -0.15861704625829198,
          -0.9261886457918658,
          -0.8740144900996238
        ],
        [
          1.0018708405391068,
          0.25966181287795537,
          1.4017056395641112,
          -1.9896642205158048,
          1.4238154697984071,
          2.23492312857462,
          0.2637013526304291,
          -0.24111617085387402,
          -1.1040820855489122,
          -0.20083262678589722,
          -0.6507648040875843,
          -0.6623349081397236,
          -1.6143707017468687,
          -0.9776696095964675,
          -1.4475568919960862,
          -0.3287651560809343,
          0.6050237717204408,
          -0.5921464454713886,
          -0.34136780489071267,
          -0.3879844842722268
        ],
        [
          0.6036881091921761,
          2.9875655474301444,
          -3.344062804034208,
          1.2066704827965884,
          2.9063220434295896,
          1.258521882408819,
          -3.7735908545883032,
          -3.578597443303674,
          -0.45771273597934287,
          -1.8096483383560995,
          -0.06038325934439951,
          4.08297288769596,
          -2.343083516346565,
          -3.4727155846865645,
          2.5010771252359105,
          2.5421410870342864,
          1.5171986536622886,
          -0.7672077084000707,
          1.258516766942052,
          0.8926606516031079
        ],
        [
          -1.1266427697522488,
          0.6175196078904926,
          0.27543924897816713,
          -0.607977627886727,
          -0.5290853224554571,
          -0.048525203160048026,
          1.0728278463061693,
          -1.0687301035121923,
          -0.1042784100963523,
          1.334417315497441,
          0.8781367032741514,
          -0.9814010632803253,
          1.479102040335042,
          -0.5278922409905257,
          -1.915702514530113,
          0.4777185619822315,
          -0.32353901373447713,
          0.17788389588004205,
          0.5722669325109587,
          0.6824341556110174
        ],
        [
          0.8754338423301132,
          -0.657651777827217,
          -0.5637911896064768,
          0.4262597187976413,
          -0.16438118171937424,
          -0.7272251231515167,
          -0.9133057401691227,
          0.9424903658205587,
          0.7236502761326666,
          -0.7779295959662745,
          -0.09346767504272735,
          0.8315811075570289,
          -0.44947465152332294,
          0.7557076129019287,
          1.9057390459521704,
          -1.2398028532992722,
          0.056022104669229814,
          -0.1783339386480641,
          -0.34596986613527847,
          -0.2930805282254065
        ],
        [
          -0.07779678555879259,
          -0.6385691331920338,
          -0.5017150935691287,
          0.6752548983795583,
          -0.4767797561664836,
          -0.6179467118983218,
          -0.6550125531469716,
          0.17333362646389117,
          0.6762895465748674,
          0.34693260131941944,
          0.482028027381305,
          0.06590219946400913,
          0.6667605766851884,
          0.18335979686426052,
          0.6822046522592672,
          0.6438545915149939,
          -0.6396190492966222,
          0.18017811543470053,
          -1.0509939182498473,
          -0.04979614962053487
        ],
        [
          0.53819656417742,
          1.3740912733978838,
          -0.9247257151883251,
          -1.6977517882957076,
          0.08502808345702235,
          0.9650146811685898,
          -0.46279140526807483,
          1.4982584898346012,
          0.19351239777049567,
          0.5172069233195402,
          -1.102231320374486,
          0.9397806084240431,
          -4.677909065001383,
          -1.461420538850472,
          0.35908242685105307,
          0.48358496624777103,
          -0.5717294524523642,
          -0.1478557271854434,
          0.8878658526689921,
          2.0029605460062143
        ],
        [
          0.9651187666511939,
          -1.7112132624779195,
          1.9375751145802937,
          0.3934170492268824,
          0.5663615499278708,
          2.550203598925111,
          -0.5197027186732562,
          0.8764592067723295,
          -3.676769355806097,
          -3.771347600460386,
          -1.2734401188414701,
          -1.7748519760336907,
          1.3784532068049469,
          1.1350101976916402,
          -0.4700080085945417,
          -0.12565798358312955,
          1.4790061916277406,
          0.033206932272304084,
          0.48322597190915334,
          -2.79838383582971
        ],
        [
          0.5314238803822993,
          0.600291001540461,
          -2.055272843394417,
          -0.10848576012370938,
          -0.11432306413756614,
          -0.23639972287799943,
          -1.2163238313081999,
          0.44902313668415356,
          1.4979986718143639,
          -0.04793207032856172,
          -1.6069261807150685,
          2.1918757989594155,
          -3.0744715152544706,
          0.23691882225170532,
          2.0895519229628268,
          -0.08242132004388213,
          -1.2799162906778798,
          -0.8715264651075747,
          -1.6688658291220533,
          -0.1345955627711419
        ],
        [
          0.5918175316853428,
          2.2009178847082103,
          0.21750845801464905,
          1.8726715928091207,
          -0.15268546428502044,
          -1.7290518164415107,
          -0.6375428768541103,
          3.665733916159501,
          0.5885722054204988,
          -1.5323863533230355,
          -0.9966762146018239,
          1.0399683909936048,
          0.013670653560157875,
          2.902553955247964,
          3.3821805633168767,
          -2.620859517437878,
          -0.3038320758982733,
          -0.013283256505307345,
          -0.5626333515095948,
          -0.07932711847819632
        ],
        [
          -0.276043489439444,
          -1.0450191801250917,
          0.5134321645820799,
          0.3124498553441461,
          -0.056630414772478585,
          -0.1588194980761166,
          0.19173491663223466,
          -0.6534539465383928,
          -0.42436038689137245,
          -0.4241032501892994,
          0.5000508646252183,
          -0.5869471162112105,
          2.0482737587716398,
          0.5614978159813283,
          -0.30154487995734947,
          -0.5168371192323774,
          0.9158182909193582,
          0.21152633016843386,
          0.47993934525834514,
          -0.6303463786040712
        ],
        [
          0.27005329421939894,
          1.5962511598313471,
          -0.8623682392456588,
          -0.39607336142066457,
          0.42489701221914894,
          0.29248393354357527,
          -0.4272812132514314,
          0.13864737336563387,
          1.3574655762229026,
          1.5242175050038733,
          0.037042145355221295,
          0.32758813659554326,
          -3.0489111928611017,
          -1.049502656003101,
          -0.5640125756001123,
          -0.08144792294194918,
          -0.827237795450605,
          -0.16774042981288093,
          1.093052106031976,
          1.334109028924891
        ],
        [
          0.22991497159964897,
          2.048299728678025,
          0.7556791641944103,
          0.4920552593830699,
          1.2717847594406104,
          -1.0193218393516497,
          0.25635221293334515,
          2.9574250182110653,
          -0.2162781259213403,
          0.33681459373058587,
          -0.48265289239815606,
          -0.4791596742614526,
          1.17381901106916,
          2.6903829858064503,
          1.363821825150693,
          -3.8523015277066897,
          0.04860633524304663,
          1.6851514023634666,
          0.7497011303870743,
          0.1006765868430224
        ],
        [
          -0.8069874371156757,
          0.48143374395115346,
          -0.06645913780309007,
          -1.038192433372696,
          1.4564609814106704,
          0.9717204913443365,
          1.171046952221594,
          0.6029105689957402,
          -0.5223850728822749,
          0.37952629872422766,
          -0.848210732906107,
          0.2814010306098351,
          -2.639853565221966,
          -0.4954531594191377,
          -0.5410551166223639,
          0.5954159630628445,
          0.32507697750545705,
          0.5380323689654217,
          2.5080313125370095,
          1.0721092594463322
        ],
        [
          0.09682127868160781,
          -1.223419900689775,
          0.0829202373422925,
          0.844054867348254,
          0.4683397330972802,
          -0.49171751878645215,
          0.01669292197504045,
          0.873852384097438,
          -0.5589991981476774,
          -2.303165388609787,
          -0.7991476641937304,
          0.42746246714825586,
          0.6295261130103655,
          1.5272081300504983,
          1.9566797599445667,
          -1.9922831204695959,
          0.9760429634167308,
          -0.5896731730025505,
          -0.41219079458880675,
          -2.05339470321159
        ],
        [
          0.045354319454098915,
          -0.5630612107311427,
          0.2951040800938469,
          -0.8568230095287473,
          0.5513532107086341,
          1.263805644705585,
          0.02439767690411072,
          -1.5533697239627002,
          -0.7005652824637844,
          -0.4426368105356417,
          -0.1344333515152673,
          -0.043888167163969184,
          -0.6533264729331006,
          -1.562853009030823,
          -0.6642811558346621,
          1.330822411554036,
          -0.3982433348904372,
          -0.2908812116441364,
          1.63959553470735,
          0.1678394017876383
        ],
        [
          -0.08152516158449384,
          -0.7095594998231701,
          1.7009659070043415,
          0.8082993007310413,
          -0.3707591099992978,
          -0.9094342252962699,
          0.05412426117521396,
          0.3055269320236638,
          -1.424578340193645,
          -0.17554393168305857,
          1.3453276111152401,
          -1.6943234741387938,
          3.8140499381296307,
          1.0681458293993606,
          -0.3981183044219443,
          -1.7221513314655474,
          0.9053509224135382,
          0.378021616027003,
          1.7407662187409558,
          0.30285271793508867
        ],
        [
          -0.21968595420741188,
          0.5285007658477404,
          -0.7282577868474994,
          0.10306561303829555,
          -0.18025213799284762,
          0.33156955172766966,
          -0.11016863714868141,
          -0.39193271152314024,
          0.804914673252323,
          -0.5173331708100835,
          -0.3866158688637776,
          0.8153800578803314,
          -0.333539493257143,
          -0.398197931885446,
          0.7383579329154127,
          0.11067783521957593,
          -0.7301086993084883,
          -0.7922954832307985,
          -1.6727924020225824,
          0.12977657154335998
        ]
      ]
    },
    {
      "activation": 3,
      "biases": [
        0.15125998348680286,
        1.4729125623514796,
        0.7571620431769521,
        0.14406274981265443,
        -0.11780491257323575,
        0.4434969924189538,
        0.33873858885888497,
        1.309056529473427,
        0.34921638269239713,
        0.5534119212876818,
        0.4431619452897979,
        -0.4461637947171856,
        0.9741930528924851,
        1.6315467379606514,
        0.08342788010043777,
        2.45170316269674,
        -1.693504340578919,
        -0.6509977429061586,
        0.2556474217349902,
        0.15707584373688374
      ],
      "cols": 20,
      "rows": 20,
      "weights": [
        [
          0.9329718396688443,
          -1.3800389374454896,
          -0.3731852417531753,
          -0.8075832866169739,
          0.4701569324048398,
          -1.3077879364124612,
          2.5262355555583262,
          0.025954092160951986,
          0.12115962094836584,
          -0.5580372955292491,
          0.46554975545505284,
          -0.44769613656383234,
          -1.5210283903801034,
          -1.7421827323581125,
          0.10585571536713227,
          1.8554165938432754,
          0.295266199457606,
          -0.09807960689328225,
          -0.09680778086269326,
          1.5935616708704103
        ],
        [
          -1.6585084379339985,
          1.1266546642725457,
          -0.35052188428140013,
          1.345057888525945,
          0.830429855247604,
          0.24134618947672387,
          0.2092214636975696,
          -0.2571687342282374,
          -0.9531240410106527,
          -0.7434376265393726,
          0.1299116662371031,
          0.7416928017304911,
          -0.15644213705003557,
          0.4107515710287607,
          0.47992683070735764,
          0.22125807761655197,
          -0.752115549459687,
          -0.9466994106561645,
          0.4996351843655741,
          0.07382279559171957
        ],
        [
          0.32954138458326515,
          0.07990092409231954,
          0.22791524522629555,
          0.406242430382835,
          -0.628903201348281,
          0.3691643995504841,
          -0.36370509389739214,
          0.1570799288797304,
          1.2337523431853379,
          1.7460804747824272,
          -0.14377967949255982,
          0.7092104769155364,
          0.11284740122356843,
          -2.3196569703064966,
          -0.3166343859988223,
          0.23994806625917287,
          -1.2897315634783848,
          0.12240100207004899,
          -0.31277548518314735,
          2.8719596447694746
        ],
        [
          0.33364477825940014,
          -1.3628491806806744,
          1.2372472242573065,
          -0.7326742979047406,
          0.9340018782871675,
          0.8833045258903547,
          0.04050352682908255,
          1.0680728341462253,
          -1.0103111553305202,
          0.7528265441264589,
          0.3934275093149914,
          2.238044995859332,
          -2.181168015438254,
          -1.0721581287335296,
          0.06010229249471308,
          0.06558840200321178,
          -0.08793777185267929,
          -0.5507727684747546,
          0.7950329815539913,
          -0.3186684353573455
        ],
        [
          -1.3041140684036545,
          -0.944214640539828,
          -1.2641187913791423,
          -0.9701552125308274,
          0.4451632105522926,
          0.3393803994035432,
          0.32989740699876147,
          -0.6437926625247927,
          0.3018531379999177,
          -1.6948897087000834,
          1.2733695084949834,
          2.1049604131428987,
          -0.42644561686737,
          0.9984395115049273,
          0.6057261363181206,
          -0.0664425952256412,
          -0.15973199367942162,
          -0.8897694904809554,
          -0.4603743391846163,
          -1.8471531133590968
        ],
        [
          0.9807928819956577,
          0.0108552380793845,
          -0.6713085864181948,
          2.4366566594686065,
          -0.44777285438245973,
          -0.16964982621341382,
          1.270069865765916,
          -0.640571031170049,
          0.31992602291921196,
          -0.21831993004017536,
          -0.2158812960269856,
          1.2146849186127369,
          -0.20124578055126488,
          0.3748431256873958,
          0.07462349051891871,
          -0.037232153802450804,
          -1.0253740525403532,
          0.025611401714486212,
          -0.5588116433341408,
          0.002540277049543156
        ],
        [
          0.528604103009524,
          -1.4901453416467214,
          -0.2564402002753514,
          0.05412779847194056,
          -1.0113682999591544,
          0.11051122161154882,
          -0.1555880230700487,
          -0.6209848901283092,
          0.3566066738989171,
          -0.4914703233622776,
          0.17857473068359034,
          -0.23983203153002994,
          -0.05077328113322303,
          -1.3462416113352735,
          -1.4026147180713835,
          -1.732469639529203,
          1.8016358522763105,
          1.07496402855773,
          -0.32172822098315956,
          0.7833112466219506
        ],
        [
          -0.31837605222188126,
          0.32166280850369405,
          -0.492042609503538,
          1.410428403484629,
          -2.4077969355752953,
          0.7160293716200237,
          2.6385024029952837,
          1.3508960100797007,
          0.1071357067871829,
          0.7228622708053183,
          0.4466441864223591,
          -0.3894917169962126,
          0.44522133429125976,
          -2.4993867381155446,
          1.6198482437178694,
          1.5726341292004695,
          -0.9891217108601901,
          -0.055531072608059805,
          -0.681902048053704,
          1.6388271911531196
        ],
        [
          -2.3637120100145603,
          -1.230018271071243,
          -0.04073821374248674,
          -1.5797348883808906,
          -1.1875172510260659,
          -0.9773898632447047,
          -0.12423458445051191,
          0.7481809086885971,
          -1.5846898028346497,
          -1.677390010637923,
          1.078770730359358,
          -1.001144464806099,
          0.2029390702319466,
          0.7826186020224624,
          -1.0111437324434476,
          0.5407254637538331,
          1.6549456716450548,
          0.12106375599486029,
          2.0751881837966852,
          -0.021292003129251967
        ],
        [
          0.6720770877935613,
          -0.1262057031934355,
          -0.42445057123893093,
          0.9197612599754038,
          -0.5850930584229416,
          0.12948272923401735,
          -0.8843867579246736,
          -0.5330413092118479,
          -0.9064397640334261,
          0.3827486903749974,
          -1.1542497025878082,
          0.3929669617326827,
          -1.4872518076401091,
          0.937123449417769,
          -0.31301380800020245,
          1.276993876748685,
          0.2996003199937975,
          -0.49456212266151556,
          0.9172884026027938,
          -0.15894183349833524
        ],
        [
          2.194861620727084,
          0.32226620395745126,
          1.0000719807503353,
          -0.5011910076908827,
          -0.6518510509642284,
          1.7657906159545615,
          -0.716948723258345,
          0.8373739089295394,
          -0.39336536541646294,
          2.459912247759688,
          -0.2889885795668304,
          -0.4562170147489148,
          1.8035326566170131,
          0.14152865761212952,
          0.8405670736809303,
          1.723457431015918,
          -0.31941307712050054,
          -0.04293320603298312,
          0.4255625585531173,
          2.1828594650479736
        ],
        [
          0.6100384151821153,
          -0.16202868368887646,
          -2.6941422186788695,
          1.5165513139303761,
          -0.8695579639397883,
          -1.2607516002572412,
          -0.6789441490429248,
          -1.3270034642253326,
          0.15398003641107044,
          -0.24544570358387494,
          -1.1363989790813647,
          0.828640811620312,
          -0.5649377782829264,
          0.93222120092891,
          -0.22140307126382214,
          1.3085141459346086,
          -0.9389060864398409,
          0.7121059184101156,
          0.1421820238498315,
          -2.3832620183843822
        ],
        [
          -1.9924747136234937,
          -2.1566079078333935,
          1.3349523462972899,
          -1.5282890785373702,
          -0.3266737422807042,
          2.4876149056536745,
          -0.45931247797677627,
          1.250666642111931,
          -1.3490765085643945,
          -0.15622680515179388,
          3.474492423093139,
          -0.8976137622082422,
          -0.956661196443198,
          -1.2989017160211036,
          1.1726398263461093,
          -4.631893188487353,
          3.1843647625285754,
          -0.25727810493706266,
          2.6233270751826043,
          -0.046774388234942864
        ],
        [
          -1.0283677476037367,
          1.1105177004968825,
          0.43429922527511927,
          -0.4402758699190247,
          0.00820483138333532,
          0.33307227781455545,
          1.2565054766536714,
          -1.2246245413227896,
          0.4120324578854627,
          0.23717970892524337,
          0.9961254657708529,
          1.9690804546953837,
          1.063241968629555,
          -2.602974702393916,
          0.10888562998333279,
          2.0456398473304622,
          1.7117825109641367,
          -0.5448932408207875,
          -0.9034519381626062,
          0.5584030764462595
        ],
        [
          0.8580649598586865,
          -0.9170096929106288,
          0.061634568996076534,
          0.276719585024292,
          2.5853051047372952,
          2.013976073911431,
          1.8267136415789487,
          0.045991734886598204,
          -1.381816216590331,
          2.561188538448034,
          -1.932657260585691,
          0.39858295369839974,
          -0.8197211546888629,
          0.5079599745674448,
          -1.2721698788776066,
          2.858273664563525,
          -1.9394636919298627,
          0.3300754798407614,
          0.6416802534014429,
          2.507627017474922
        ],
        [
          -0.7020687472771551,
          -0.461657897035316,
          -0.9738568405616906,
          0.929295696814036,
          0.30898861031217517,
          -1.2488085492947036,
          -2.6960944719881605,
          0.49459320339513657,
          -0.5137899992950933,
          -2.101836171520873,
          -0.48747312653750857,
          0.034820398950316384,
          -1.5497739036697928,
          1.703822482871227,
          0.07952360739009423,
          -2.86713021798892,
          -0.8549248666647931,
          0.4101739347911917,
          0.9560662058492623,
          -2.408955453352034
        ],
        [
          -0.7712756809653377,
          -0.6709029773362971,
          -1.227961512710721,
          -1.946776166461237,
          0.2639404077661601,
          0.7058021761862757,
          -0.1501738198799337,
          -0.6328093355786694,
          -0.5593215488561163,
          0.392435389330971,
          -2.028703885502547,
          1.2762064925583356,
          -1.1830630363445462,
          0.39045607145215183,
          1.704992385549623,
          1.3174258066590308,
          -0.7848718628778254,
          0.4815518218521036,
          -0.43577652452920684,
          0.21377207182406413
        ],
        [
          0.33279789351478944,
          -0.06805472383107236,
          0.2419611606978356,
          0.5420845089270394,
          -0.20099682906317293,
          0.3395486534254377,
          0.6545116089499801,
          -0.9633081411396814,
          0.25645576654691893,
          0.010253561177043985,
          -0.8322990707927035,
          -1.447866656328092,
          -0.9519479874663931,
          -0.12073672198349604,
          -0.021280071077764185,
          -0.5737700270991443,
          0.18286517921209214,
          -0.46028487279180286,
          0.41429868453147695,
          0.5323316238519872
        ],
        [
          -1.7646422037404135,
          0.2820969243639953,
          -0.9323939934369673,
          -0.558981144379951,
          0.7238664222005903,
          1.4880616048336974,
          0.0797610932564801,
          -0.29400793429109245,
          0.9692915360152949,
          -0.016880439222699245,
          -1.3709458876845289,
          0.7460746107826183,
          2.4412985813854244,
          -0.05109798120583975,
          0.2591904318218254,
          0.20379611454771474,
          -0.4991206922585348,
          -0.21670128866101007,
          -1.9725223676857966,
          0.5433177001059958
        ],
        [
          0.5959308865615124,
          -1.119423735051026,
          0.7234698810870275,
          0.48589622818630956,
          0.1991522609165861,
          0.5128708011930295,
          0.47411496945647064,
          -0.8095548481122191,
          -0.35035204934658337,
          -0.06572237881932698,
          0.25544278695899564,
          -0.65266570810366,
          0.9330344286871634,
          1.3017991672345763,
          1.9085050945772433,
          0.9276493328147956,
          -1.10025429307526,
          -2.4288127260342733,
          -0.31326132581392885,
          0.6418939910642937
        ]
      ]
    },
    {
      "activation": 1,
      "biases": [
        0.2729208818380651,
        -0.4583114519885287,
        -1.7615290509258423,
        -3.3180138220581052,
        -2.67588696748343,
        -0.2421616490849175,
        0.6795827139254406
      ],
      "cols": 7,
      "rows": 20,
      "weights": [
        [
          0.18149865111367736,
          0.5015197284087294,
          -1.192297138058989,
          -0.12803201835549005,
          -0.5867312808332207,
          0.9497040259598011,
          -0.37999814593870845
        ],
        [
          -0.010398226199530989,
          1.0450528579261706,
          -0.17432005764427522,
          -0.5164600615960389,
          -3.717271544095311,
          -1.2929686277079002,
          0.03591560129828597
        ],
        [
          -0.15529695986234462,
          -2.069961262278053,
          -0.4304220819885765,
          -2.0232665083304786,
          -2.6412652497538773,
          -0.5373753143573617,
          -0.5720439371345243
        ],
        [
          -0.14609012846641461,
          -2.4007014868805716,
          1.5118482905790116,
          -0.5572426290894582,
          0.9057208678308258,
          0.6357751692865712,
          -0.46702878925355096
        ],
        [
          -0.18740928706679186,
          0.0017797339310062783,
          -0.594374755977701,
          -2.3827126525727116,
          -0.1943215970951292,
          0.8400507221331552,
          -0.49672806130789254
        ],
        [
          0.19101084181248829,
          -0.8819139527853687,
          0.7002002915061268,
          0.84281131892687,
          0.9286768518526437,
          -0.9424743865634089,
          0.06497013822359418
        ],
        [
          0.12126252987612081,
          3.1114380042822547,
          1.715544368782135,
          1.8939404010467262,
          -0.7437415974288323,
          0.15990128470677828,
          0.17276628456286436
        ],
        [
          0.1206604973573223,
          -0.6297174573414434,
          0.1018941468449515,
          -0.5213484861231401,
          -1.9864725715547824,
          -0.14979880268181944,
          0.5368482945771665
        ],
        [
          -0.1803777008931559,
          -0.4199055601263482,
          0.3099024303383201,
          0.0841736873328215,
          1.6634940625224333,
          -0.9007845282192537,
          -0.5095321260788633
        ],
        [
          0.08197267915450597,
          2.928784931637125,
          0.27693614697828683,
          2.1315823233485505,
          -0.27347212266985843,
          0.41430943927365854,
          0.31244377111275184
        ],
        [
          0.02792138056731335,
          0.8403361243261491,
          1.1860277262681223,
          1.0611022350179433,
          0.6431145141469087,
          0.3749800597417935,
          -0.05321310238148344
        ],
        [
          0.02692845932593841,
          -0.1512133859049086,
          0.08832269195402649,
          -1.639077640387995,
          -0.48795052406190803,
          0.1622735649790423,
          1.2626456490604654
        ],
        [
          0.3287981304709511,
          -0.14982701512444452,
          -0.9369896114294138,
          -3.6098031422929395,
          -0.8214559594581989,
          0.39752188347472556,
          0.43446148875677804
        ],
        [
          0.02763001425717653,
          -0.12550469557195035,
          1.5576007241129437,
          -1.0925625911507781,
          -3.950600202628526,
          -0.6994611771754363,
          -0.0872991597964355
        ],
        [
          0.5539171009845036,
          1.1170048600783549,
          -1.5899837951838027,
          0.4454400457988402,
          -0.8197610776084886,
          0.5318554147207932,
          -0.6519057353844904
        ],
        [
          -0.011048193376973641,
          -1.461592434302939,
          -0.5610887816151165,
          -1.1976006569365325,
          1.319525484153488,
          -0.1325347918742523,
          -0.07081951859728175
        ],
        [
          -0.3937549410487003,
          -0.03753785111118542,
          2.2646559047399357,
          0.36725903249805164,
          1.9184521588132397,
          -0.3079083395580301,
          -0.08498639246937156
        ],
        [
          0.6414426135652915,
          1.2901272426585493,
          0.4473331086671074,
          -0.5616241856242199,
          0.009348043662670478,
          0.4421020229724032,
          0.0976474285991515
        ],
        [
          0.4036867989627264,
          0.31654471960411423,
          -1.8170775630977702,
          -3.9387098742422526,
          0.3574511929124071,
          0.18192425063750123,
          -0.5283018759584196
        ],
        [
          -0.05419873348837353,
          -2.769302643383883,
          -2.884085443160387,
          2.522521634509676,
          0.05069018495703328,
          -0.24180516210988945,
          -0.061218460698481816
        ]
      ]
    }
  ]
}
