{
  "layers": [
    {
      "activation": 1,
      "biases": [
        0.10294626475484725,
        -0.045238483521389504,
        0.3425784219610142,
        -0.6121098887977503,
        -0.19173560875206022,
        0.2674586768661789,
        -0.2676759675433145,
        0.005353473667944634,
        0.3494744617023268,
        -0.18178011513840922,
        0.03791616237134329,
        -0.24154872366891858,
        -0.23444359980196175,
        -0.8157045127134149,
        0.5747260495548119,
        -0.427838213930856,
        0.4465544653922774,
        -0.15114902639055966,
        -0.19460775106365585,
        0.7696747881802064
      ],
      "cols": 20,
      "rows": 4,
      "weights": [
        [
          0.6518883244613087,
          0.471519416616806,
          -0.5991785260938927,
          2.2190191429579196,
          1.642924776067585,
          -1.9627842231462564,
          3.957537595755344,
          0.21364740608284846,
          -2.2818691680909406,
          4.128355254641192,
          -2.517640837811817,
          2.408727689256345,
          1.7566995968587111,
          -0.2306257746507854,
          -1.9426873964642117,
          -1.073222250903016,
          -3.305179778956213,
          1.3515496314914177,
          1.8000711737135109,
          -3.5049294673591707
        ],
        [
          -2.6774558873789114,
          0.5409869361941234,
          1.6190315556881985,
          1.9739634196111546,
          -1.5618955130363155,
          1.5313445913811188,
          -0.11800156499086475,
          2.702953036746803,
          -0.14197553242633,
          -0.49511319898951617,
          0.1315323890300441,
          -0.6996793600177738,
          1.0194867339611655,
          3.3658822828634447,
          -0.2322589204897471,
          -0.0034188512182904683,
          -0.8038584776935435,
          1.0487543516674531,
          0.4476183908253653,
          0.7207596811414412
        ],
        [
          2.088697271275218,
          1.4134097447807963,
          -2.0427692021466526,
          2.242530474981153,
          1.4345216345031664,
          -2.069825079553357,
          -1.2689097206960502,
          -2.4756707285502,
          1.0931448101551218,
          -1.3297977941381074,
          1.3721640152970371,
          -0.592488821569483,
          1.1998846791485456,
          3.483509982774949,
          0.2548651092839879,
          2.003187470118565,
          1.2857540189422731,
          0.49753775138789874,
          -0.8139026996489577,
          0.5568688977826373
        ],
        [
          5.815814766041264,
          2.2218694340818015,
          -3.902368289775756,
          1.5463658534998872,
          3.9182659626051146,
          -5.351835782136292,
          -0.569071117305357,
          -6.056548377244978,
          -0.3400854012682994,
          -0.9726318797421649,
          1.1971979764786702,
          0.34868381728654646,
          1.1825623114042858,
          -8.510255133197719,
          -0.6566987271451988,
          1.7426461572299832,
          0.4521204342035264,
          1.0718033307139472,
          -0.03305312348581186,
          -0.5387007319221899
        ]
      ]
    },
    {
      "activation": 1,
      "biases": [
        0.021552148636810074,
        0.24830112801369314,
        -0.026780329518457532,
        0.4400091050201809,
        0.06516034440615566,
        -0.12142034348931738,
        0.23220256419934335,
        0.017318306700802137,
        0.19620685947829994,
        0.3133985225826159,
        -0.31401059476992993,
        0.06859291670798127,
        -0.2511805214527809,
        0.10192390470398002,
        0.22069492533821553,
        -0.3486211179426899,
        0.3441820377933582,
        0.4474215353258605,
        0.14761216309033812,
        -0.41398349977222165
      ],
      "cols": 20,
      "rows": 20,
      "weights": [
        [
          -0.06903206938697973,
          -0.060089422831802394,
          0.4006135948659453,
          0.6040934466045932,
          0.16545782527601524,
          -0.8945778438846946,
          5.190767667034692,
          2.521019188847676,
          0.4523253357843822,
          0.5260738215123676,
          -0.899455978990243,
          -0.31752680579325815,
          -0.03095942259782845,
          0.6555843978981619,
          0.6309460639968479,
          -0.8172994725315272,
          0.028971334433470157,
          -0.22491590001507564,
          -1.0586553921644113,
          -1.5680227943519396
        ],
        [
          -0.3406413601057038,
          0.3194475768997136,
          -0.029211957609319928,
          -0.3880992684284503,
          -0.26802483146601425,
          -0.37280122529299786,
          2.2708016389536243,
          0.6506293924867673,
          -0.4012032352317434,
          0.1619240749305445,
          0.17290799422677725,
          -0.420960032404985,
          -0.13423163806247673,
          0.6196227054335727,
          -0.06839516008559941,
          0.08216207712868588,
          -0.24760875462751109,
          0.11593091605872351,
          -0.3303498969482552,
          -0.5459726917240065
        ],
        [
          0.16074214038268872,
          0.1600002306913214,
          -0.5702743386936096,
          0.6680455591996473,
          -0.21248281278910622,
          0.5613475357849651,
          -3.8184327648631027,
          -1.8412941571176833,
          0.28045748911601687,
          0.14614242598727092,
          -0.2846218766673115,
          0.8398097198333353,
          -0.016388695013618934,
          -0.6785734413558948,
          0.02412919392481844,
          -0.14829214029057455,
          0.9575256844347771,
          0.8117700728666867,
          0.9565290592423327,
          0.022060334871406115
        ],
        [
          -0.20346834331295247,
          -0.5147429032772569,
          0.20496140484079975,
          -0.446456665643716,
          -0.40464165484424386,
          0.22374206150502146,
          2.6025128484719264,
          -0.5619699444091447,
          -0.23290588677990146,
          -0.8285193702749358,
          0.8622298923117127,
          -1.599916528687158,
          0.7122254375189272,
          1.2062890579300758,
          0.07093798791175905,
          1.019691940724464,
          -0.9342834972017294,
          -0.22728445047783452,
          0.3689562481234085,
          0.19843314157193861
        ],
        [
          0.02380340161824156,
          0.008697149824675773,
          0.3250169014473577,
          0.2592467657773746,
          -0.18285017155835662,
          -0.1085800627078297,
          4.226819596841958,
          0.9616119398128666,
          0.11005494220720377,
          -0.2002310900404785,
          -0.337935339469006,
          -0.8507109146297315,
          0.28249752360257546,
          1.005866610197731,
          0.4311281001651037,
          -0.47873418748300217,
          -0.3540913137077284,
          -0.18849798124232708,
          0.13827516242380652,
          -0.7455469442674237
        ],
        [
          0.5264824111855851,
          -0.179913546937773,
          -0.33196592481660286,
          -0.034951311520160046,
          -0.05655996354176032,
          0.7464826763948759,
          -5.208995804908562,
          -1.9294892393336494,
          0.5506156677815027,
          0.2391823050551719,
          -0.3128218070832271,
          1.2191517181153344,
          -0.6926770186177109,
          -1.417653672024252,
          -0.2026583264657723,
          -0.35971643779974033,
          0.6500456703903467,
          0.18813315914044956,
          0.7868003651779188,
          0.8967488568497755
        ],
        [
          -0.6956494615782046,
          0.16518882973298799,
          0.19969348136583626,
          1.4511028238455281,
          0.5071634942992277,
          1.2032606326928408,
          0.23011548838873766,
          -3.143157548074261,
          -0.667428459406251,
          -0.4633725930236678,
          -0.04391052083346464,
          -0.8370779864633133,
          0.0019834930825236774,
          0.8201923405553575,
          0.17668145011484618,
          0.6839689319249378,
          -0.4338016238565069,
          -0.28768602685273154,
          1.9571439392739003,
          -1.019770176402919
        ],
        [
          0.0943433106719944,
          0.25955382275424727,
          -0.3172591427603354,
          0.5310257598887861,
          0.10872727479736408,
          0.6922850812499677,
          -5.052577933472721,
          -3.1869138699983135,
          0.2537396516574827,
          -0.2197384678917784,
          0.451268220010666,
          0.48807339072875083,
          -0.26081238426555353,
          -0.742598696570929,
          -0.6666287517754623,
          1.1990454435492917,
          0.6044612511749299,
          0.4806735108322283,
          1.6104993693530558,
          0.8768239249573022
        ],
        [
          0.4843600351021713,
          -0.40668868074433023,
          -0.4041052623061221,
          -0.6687712028053369,
          0.061262912484347835,
          -0.6476187544609879,
          -0.5373256027593141,
          1.8175886031213153,
          0.5932922202635779,
          0.35964792409595026,
          0.004891788093043755,
          0.15582364012959765,
          -0.005567097137576567,
          -0.35378467809472863,
          0.14152768413235445,
          -0.8668113490014699,
          0.6658645708065191,
          0.3924206300948525,
          -1.3312821723981578,
          0.07076091912513231
        ],
        [
          -0.6310633864901097,
          0.6952294078073111,
          0.47774695155757374,
          1.5933680387174607,
          0.7184874369290086,
          0.842275703979711,
          -0.2714909345434565,
          -3.0553450543674674,
          -0.657259551199961,
          -0.2784188764517984,
          0.07710791706218996,
          -0.8395504720965848,
          0.27559872240592254,
          0.7443094461184666,
          0.04669142492865121,
          1.100972133042222,
          -0.2495569607394414,
          -0.35779568026896696,
          2.0975366223568273,
          -0.9455429904697423
        ],
        [
          0.5769314235631836,
          0.19456328896728867,
          -0.3325814126194279,
          -0.9320928867448889,
          0.009598194967947187,
          -0.6032812841237295,
          0.9378021479089426,
          2.2815321006135503,
          0.20070905882091605,
          0.1954179785182299,
          -0.231504184235838,
          0.4486681329903698,
          0.08794214332157936,
          -0.16245147167489896,
          0.6945193610238956,
          -0.6062329815446803,
          0.34716559517503154,
          0.38994485541095836,
          -1.4407200153834643,
          -0.11167983103926568
        ],
        [
          -0.5887330613879733,
          0.011931884806939179,
          0.11004639788992703,
          1.176087822026418,
          0.5842219669735463,
          0.7993719069989982,
          1.0380603890994307,
          -1.5238357914934775,
          -0.18961036265976727,
          -0.4816106362788841,
          0.09534079942945425,
          -0.2817276133584882,
          -0.17395168190534238,
          0.43744461406081964,
          0.04922346354829659,
          0.4392830848799494,
          0.09904229536231159,
          -0.34709913847158286,
          1.070328172196464,
          -1.0158421101108566
        ],
        [
          0.2724307182846045,
          0.27925419576247035,
          0.05954773137857564,
          -0.1078619806392297,
          0.0868690236978621,
          0.3337846576752471,
          1.788175406964284,
          -0.3383743802528877,
          0.10308509679485163,
          -0.36098796170009817,
          0.5208005509590196,
          -1.1806839065576415,
          0.5872885951381298,
          0.8375787246257305,
          0.42787746201430626,
          0.30945454394803257,
          -0.28825983158510804,
          -0.45928645997858114,
          0.4023790682020005,
          -0.002327113386921639
        ],
        [
          0.37872745373371536,
          -0.4370811330527176,
          -0.29573986141042835,
          -0.8035490976044142,
          -0.29734484268719774,
          1.0985169462152329,
          -5.503887376403256,
          -4.012537350321303,
          -0.394063138477899,
          -1.3424426592583838,
          1.8181855116924668,
          -0.5188301357826386,
          0.9627886017582858,
          -0.3401065939287846,
          -0.7817709917327781,
          2.887192007435834,
          -0.3798756102161887,
          -0.5382630518992365,
          1.5930075618900104,
          2.1970535680009298
        ],
        [
          0.1359078655424163,
          0.3397705032502951,
          -0.047340371375690804,
          0.11365786161932905,
          -0.10543981584616988,
          -0.3534720471521447,
          -0.6948904534609807,
          1.18732874595733,
          0.7310924177320232,
          0.3469690112617376,
          -0.11718077015287597,
          0.8511261184589424,
          -0.271811210336014,
          -0.7383332540142412,
          -0.060139132913045595,
          -0.7215623769533503,
          0.6685891374392343,
          0.8595699122994628,
          -0.9522377082503773,
          0.27607880193069095
        ],
        [
          0.18341388825174,
          -0.23649303832432425,
          -0.198960977316946,
          -0.6751953396317895,
          -0.10824365095019853,
          -0.8728968974959723,
          2.067326785019775,
          1.2965792083010523,
          0.1384784179091529,
          0.2953239053277373,
          -0.05388425083643281,
          0.09868844041318937,
          0.2998300185083543,
          0.5432210700856911,
          0.5540465892625307,
          -0.06054265843159055,
          -0.09036866014933513,
          0.04336594557289758,
          -1.2587381830783555,
          0.06931514414146775
        ],
        [
          0.46436507773976904,
          -0.11849246128060589,
          -0.38901858010635953,
          -0.9292199250463811,
          -0.590322795576412,
          -0.9492042150753203,
          0.16967827076731679,
          2.7032363512270647,
          0.8232612096944483,
          0.29847094747400826,
          -0.7219016751363643,
          0.9252085002629854,
          -0.43825193789997385,
          -0.27334290748473833,
          0.13599156830877382,
          -0.929034838526953,
          0.5873890373195303,
          0.4338086015774641,
          -1.7825138550534634,
          0.31923265250806576
        ],
        [
          0.15617396309396525,
          -0.045474651664562604,
          -0.14292720361860994,
          -0.06926705950169447,
          0.2364096160116145,
          0.2653972185825032,
          1.2798188562586008,
          -0.16482947515869834,
          -0.27116994004266537,
          -0.43467973043972924,
          0.6262127142961355,
          -0.47129278070050457,
          0.3719143232532856,
          0.34383326173074164,
          0.42392607421737694,
          0.7346998137307648,
          0.03848498542146873,
          -0.1951171271043687,
          0.5509779435157299,
          -0.2667702159777522
        ],
        [
          -0.2553628183240763,
          0.44848367125767646,
          0.393410500901671,
          0.6525182157820243,
          0.3601723856259307,
          0.28166355810503624,
          0.10483289737253769,
          -1.1641628072590617,
          -0.3235847060046135,
          -0.2153712493372725,
          0.25987572611492055,
          -0.5647332103157303,
          0.0790103166423917,
          0.18905381369339977,
          -0.03559886352097401,
          0.4511976876780604,
          0.01519455059720033,
          -0.16087779229758845,
          1.093510202316771,
          -0.381302262948275
        ],
        [
          0.19022099099972964,
          -0.43214872321477854,
          -0.6669287425760149,
          -0.940136886235041,
          -0.46898112008596177,
          -0.8949648020696721,
          -1.281579431763516,
          2.460642099263274,
          1.0012899590187048,
          0.9644265196005615,
          -0.4184035766942319,
          0.6040753432472431,
          -0.3077043327311575,
          -0.6741017736524678,
          0.24596094853229325,
          -1.2095534977717957,
          0.9103328491930925,
          0.887216513317709,
          -1.7518331809819545,
          0.8367076484606992
        ]
      ]
    },
    {
      "activation": 1,
      "biases": [
        -0.21719968215417895,
        0.005153785292995566,
        0.050896120079773836,
        -0.08386568113079262,
        -0.15919678079642535,
        0.43681901646743837,
        0.2746908317211563,
        -0.021934528216843562,
        0.17838133284775431,
        0.0012266884139592361,
        -0.03036379632587864,
        -0.15048896737778178,
        -0.14234484230114203,
        0.41632098319815486,
        -0.171995857144657,
        0.5543492757348757,
        -0.13728571341908824,
        -0.04900623823553686,
        0.16033782104363753,
        -0.21404546430110916
      ],
      "cols": 20,
      "rows": 20,
      "weights": [
        [
          -0.6548603621489285,
          0.08250619139891528,
          0.5776429685966635,
          -0.7465699426199898,
          0.11621811095184925,
          -0.11245346506160461,
          0.9314331813613046,
          0.5324428683487084,
          0.3942977409639285,
          -0.09990683116207216,
          -0.31495652622770054,
          0.28538305497033745,
          0.27616747761843063,
          0.22528364317854574,
          -0.7587653040438447,
          0.33898399713876143,
          0.13785940534499883,
          0.8022296452812767,
          0.2164383524754242,
          -0.284392460006638
        ],
        [
          -0.13416130976521434,
          -0.07540274743827381,
          -0.3587288897365981,
          0.5003111095585006,
          -0.0693760892289399,
          0.29455350389742707,
          0.30996555072270554,
          -0.30764958074061266,
          0.19203834809756265,
          0.409605089886546,
          0.29039028133632216,
          -0.5574414613244717,
          0.04710283910706443,
          0.1683269131872955,
          -0.31950855290438174,
          0.6712507876848842,
          0.12258725706682864,
          -0.3296016740450225,
          0.04798304315687214,
          0.2987235798991425
        ],
        [
          0.3058146370723148,
          0.13234744706020843,
          -0.46511575565062657,
          0.5857709318873442,
          -0.3830146724933587,
          0.2738378195090366,
          -0.9418260310748662,
          -0.619164511089233,
          0.549919522873684,
          0.5505775852612683,
          0.20277437770416307,
          -0.26594211034767523,
          -0.48774988286537113,
          0.37442907573612333,
          0.39060116491646346,
          -0.12713222491364323,
          0.039439695236725254,
          -0.43697293280559274,
          -0.06901184899384899,
          0.08743195403102269
        ],
        [
          -0.5445825966375137,
          -0.09729849000787605,
          -1.2237153078778984,
          1.4034311059273135,
          -0.5993294731205723,
          1.1316865993789638,
          0.01959307014710052,
          -1.1486006531470465,
          0.2905111853606773,
          0.3243328922848635,
          0.07783263007106542,
          -0.7407175622359985,
          0.22962692001627472,
          0.01488712678221689,
          0.13268190240190605,
          1.4103524999788974,
          0.17876820258973905,
          -1.4647891462789473,
          -0.6484755109898782,
          0.6558415751197397
        ],
        [
          0.050783002312255375,
          -0.14639223116393427,
          -0.5340117565556298,
          0.4779028397244164,
          -0.37143590968404605,
          0.01621536323187064,
          -0.2625862918565242,
          -0.47271463585155604,
          -0.017392930914828478,
          0.25321828947744063,
          -0.20392708935069392,
          -0.3409846398392315,
          0.04093481357891447,
          0.2847121766259864,
          0.07070664234422723,
          0.5759900318853749,
          0.13860439476607064,
          -0.7405548931357109,
          0.08591110366018928,
          0.13150100176383378
        ],
        [
          0.0691737732800406,
          -0.2280412582857543,
          -0.7645784778282637,
          0.1917875984088745,
          0.1683157066828702,
          0.887498538012093,
          -0.5976746965895362,
          -0.2892929949822877,
          -0.24054021547513535,
          -0.33556154427633494,
          -0.10968830214067612,
          -0.8763667209093667,
          0.1294075893834271,
          1.5063384698099247,
          0.8703682677882957,
          1.8967375946417595,
          -0.47623543192939327,
          -0.6596383557351885,
          -0.3817088770925624,
          -0.8510611965428171
        ],
        [
          -0.10400518054728444,
          0.8491734271690012,
          -1.4075134862660323,
          -0.9507860844459846,
          -1.8162803715028517,
          -4.408413995037206,
          1.4340501348210102,
          -0.37000588178873633,
          0.35995389396445987,
          2.6749737350630762,
          1.340243535948763,
          -0.5681339749712282,
          -2.607399170126971,
          -5.753255026721429,
          -1.3322705919839164,
          -5.687462036137251,
          -1.1796790986998242,
          0.888111668892023,
          2.536093689764092,
          0.09613056260467388
        ],
        [
          0.027290780869709853,
          0.6433259370624866,
          1.0450965848158822,
          -0.5896944958124091,
          0.01883013564745655,
          -1.780272618858668,
          1.1454472763620698,
          1.5160241429990857,
          0.7207009524481438,
          0.5568134914139277,
          -0.2072685718558995,
          1.6623738761918756,
          -1.3431971989548304,
          -4.397311748568124,
          -1.4916990131036076,
          -5.335383256721785,
          0.3596124602166214,
          1.2377562985232926,
          1.3891778288191685,
          0.8696865415254956
        ],
        [
          -0.4588029796407233,
          -0.42493364640935505,
          0.7118240596805855,
          -0.5455019796023423,
          -0.09489526993682705,
          -0.02384146288194423,
          1.4148868500026202,
          0.2786741879034787,
          -0.17242133059658032,
          -0.4015445800600535,
          0.42023899815208204,
          0.610819634590592,
          0.07350873385995589,
          -0.5891294558829638,
          -0.7265844835839713,
          -0.326990988381657,
          0.18247535840099102,
          0.7167749306973757,
          -0.018617811457217533,
          -0.03234626751510356
        ],
        [
          -0.3201712645614643,
          -0.1164104197057578,
          0.4699801512170734,
          0.027298338451690624,
          0.04230773972405065,
          -0.07825266728240822,
          1.168975351256012,
          0.5204295351117668,
          0.40587024971729385,
          -0.557690174237276,
          0.594138874911802,
          0.22654682438046886,
          0.25821807595268437,
          -0.895627619206665,
          -1.0370319485958313,
          -1.0288445135782387,
          0.09107041515381575,
          -0.48869119836683544,
          -0.18557729463688163,
          0.3635673910139602
        ],
        [
          0.0945590872251242,
          0.45862180852151385,
          0.0455515468593728,
          -0.2506144173565615,
          0.3217296356340957,
          0.4905495999982502,
          -0.37540606013010674,
          0.1088069519272813,
          -0.8656129640487766,
          -0.24366221524314222,
          -0.9214441653869497,
          0.024140877276818205,
          -0.2203618824224206,
          1.4943484608233668,
          0.2167950945401236,
          1.1380960419804502,
          -0.46824207228711123,
          0.9731313550040924,
          0.2757612941306116,
          -1.0764252308558044
        ],
        [
          -0.5556001678531571,
          -0.8655466523026677,
          1.0477010467776262,
          0.3286995066087885,
          0.44543449238961047,
          1.0698963258688374,
          0.48350750587868135,
          1.2941572830116759,
          -0.08640854387928343,
          -1.3641225821022525,
          -0.6568381740145792,
          0.643224520183993,
          0.638312189021206,
          -0.1912611346567826,
          0.0879130210041355,
          0.025060599177337217,
          1.36592883936282,
          0.034416733043157684,
          -0.6317606063441265,
          0.328662657778615
        ],
        [
          0.47059754128267683,
          0.5725364979562889,
          0.03321363553285605,
          -0.1736882724109401,
          0.13797518335227837,
          0.2123900306320244,
          -0.8701802264269248,
          0.03457764959065058,
          -0.06613134540414262,
          -0.05874972107019591,
          -0.3508429277509688,
          -0.07358471434287564,
          -0.7383419579990185,
          0.6414231953517583,
          0.38028865995044714,
          0.7954955612120287,
          -0.40890365876568363,
          0.5340118368616339,
          0.39517353866850075,
          -0.4040007317939125
        ],
        [
          0.5087361376405369,
          0.4806241204033794,
          -0.4867228121972381,
          -0.2228313616591264,
          -0.30312263645953375,
          -0.7570667786233786,
          0.20010705179045765,
          -0.9871191974559942,
          0.01608582194862657,
          1.2579765925089226,
          0.1951159021940728,
          -0.9415980659301434,
          -0.9842706455105728,
          -0.2865375513255971,
          -0.4458216252726685,
          -0.04631513750574802,
          -0.9380675660990581,
          -0.10318954500271815,
          1.1758426732671128,
          0.08561319810235218
        ],
        [
          0.11702562732323815,
          0.5256749403633194,
          0.23451241784010357,
          -0.2487016697642258,
          -0.5515972149563193,
          0.10667432794216566,
          0.35446304715218047,
          0.22928638872861562,
          0.7216460032529989,
          0.6844423264233278,
          -0.10933254822144427,
          0.1690000366542945,
          -0.27234288155114367,
          -0.5418256458446377,
          -0.7307511629310041,
          0.08272847478804676,
          -0.13572726569144863,
          0.06578152737859994,
          0.01939055868197513,
          -0.20877666582363003
        ],
        [
          0.5732137538169737,
          0.6367256676992746,
          -0.1710730687720076,
          -0.6898459212690007,
          0.1548782703865085,
          0.41643907800999047,
          -1.3677136996379955,
          -0.6039706613248307,
          -0.7379097426734225,
          0.30271484190221715,
          -0.7117015430115647,
          -0.9839376246912717,
          -0.2634719438319143,
          2.5975463943950157,
          1.0490594115185412,
          2.4482235697412835,
          -1.174074167603933,
          0.202037230044697,
          0.19468586909104477,
          -1.1608575912189951
        ],
        [
          -0.37775114681989397,
          0.028330893077075404,
          0.5932561553588087,
          0.05006568052420123,
          0.2430279137591837,
          -0.429586909963399,
          1.6745628518375262,
          0.6133280542303191,
          -0.3349100313521064,
          -0.43701741601067,
          0.47719378188585615,
          0.40878611570049933,
          0.6400286995404612,
          -0.1207529354075811,
          -0.5986417573775578,
          0.2367785904589652,
          0.5871721799360536,
          0.031124176148008824,
          -0.47901267711055967,
          0.5977398757109522
        ],
        [
          -0.4109830782842133,
          -0.020826978333687508,
          0.4858475404630344,
          -0.018827981651729574,
          -0.0622497180249026,
          -0.22290223081060145,
          1.636245521586214,
          0.12184701021824708,
          -0.2880510688509228,
          -0.425702935960352,
          -0.16526311930578635,
          0.6629498442025556,
          -0.15398604376128897,
          -0.06379310755614795,
          -0.780976230765787,
          0.05845219764593049,
          0.30629548017531505,
          0.15682614559737998,
          -0.1641024351782214,
          0.5518072984641503
        ],
        [
          -0.10434288768239763,
          -0.22313928790472612,
          -1.3375503884692181,
          0.848024378706807,
          -0.4554626997663345,
          1.3881713845892325,
          -0.9342451020715666,
          -1.7155713364081582,
          -0.3036563153977773,
          0.05611157828665951,
          -0.2741133705286296,
          -1.7751598889752311,
          0.02260850893945556,
          2.171165719721911,
          0.5398617260779079,
          3.5152296837684323,
          -0.9422835876412363,
          -1.6003036099646781,
          -0.31035785645766234,
          -0.4798799209664677
        ],
        [
          0.35318143547334835,
          -0.38262967061362735,
          1.1849244690310796,
          -0.9224527445701356,
          0.3961638300858656,
          0.4986922195293124,
          0.056975090496024734,
          1.104706687581028,
          -0.4654360767860253,
          -0.64452896980387,
          -0.7026726556468241,
          0.1515428593102427,
          0.46801899272078623,
          1.6167013442467482,
          -0.5460176776493478,
          0.6380003153607055,
          -0.16173075731292708,
          1.4235973618106905,
          0.09876689152818244,
          -1.242215332890911
        ]
      ]
    },
    {
      "activation": 1,
      "biases": [
        -0.2702233589391552,
        -0.29563781869406563,
        -0.11152412843176604,
        -0.9969200916550766,
        -0.5378632089381681,
        0.3854831837899853,
        0.28370356889165266
      ],
      "cols": 7,
      "rows": 20,
      "weights": [
        [
          -0.20176231786637538,
          0.8523316326978272,
          -0.0856431887728498,
          0.988664315924235,
          -0.5712969489029428,
          0.15893998848197077,
          1.097997358155188
        ],
        [
          0.2969955944617798,
          0.48448785409993556,
          -0.06216031269716756,
          0.325897871409789,
          -0.5227585881016134,
          1.0057903427637496,
          0.2854078817097837
        ],
        [
          -0.4484972186685398,
          -1.0914198440407665,
          -1.549175503162832,
          0.516306631894416,
          0.5302353091408193,
          -0.4657401988210535,
          0.8737674256760654
        ],
        [
          -0.401284836535649,
          -1.173571876933891,
          0.2419720407715607,
          -1.314639544492656,
          -0.6875205313084228,
          0.6553116977107702,
          0.41509056921827264
        ],
        [
          -0.09876096907144495,
          -0.1629763387953386,
          -1.1120447834503369,
          -0.9318039286231634,
          -1.0336445577707147,
          0.52579411410703,
          0.33993699979250563
        ],
        [
          -0.03581364427932783,
          -1.445456791697178,
          0.6058928028151208,
          -2.8185023639699818,
          -1.3882247280820104,
          1.1622925909580355,
          0.8400184293875581
        ],
        [
          -0.16760514164157506,
          0.2956695110542014,
          -2.1909740353628333,
          1.068688925688664,
          1.6531813962713386,
          0.6691912720104335,
          -1.6998327531482964
        ],
        [
          0.5756022401368427,
          -1.2693639678774127,
          -1.3857233710003876,
          0.6179824943229507,
          0.6893218325639817,
          0.1900279510106027,
          0.6702448822896488
        ],
        [
          0.6056992650336306,
          -0.37969864414438914,
          0.4710325495614808,
          -0.4336223280208042,
          -0.9159046725498726,
          -0.5198805915791642,
          0.2722354871894846
        ],
        [
          -0.9706852520813192,
          0.8997627750937721,
          1.369423432457075,
          0.7418956161778815,
          1.0777067835505834,
          0.3135778995762278,
          0.15811189562900077
        ],
        [
          0.5879972778755903,
          0.9089901184700374,
          0.14761299921097454,
          -0.7308512140067797,
          -0.22204472365964945,
          -0.2977745731246912,
          -1.003407971419234
        ],
        [
          0.08682370491591984,
          -1.2476767360389323,
          -1.834767410664952,
          -0.6304258169768342,
          -0.5753859485431695,
          0.8804741869410297,
          -0.21775207337504843
        ],
        [
          -0.22662386018713135,
          -0.9892382672057837,
          -0.7281798033326964,
          -1.8025160478532982,
          -0.8266170272786745,
          -0.22644169052710814,
          -0.6010236029311327
        ],
        [
          0.6335730632863047,
          0.7904248580454524,
          -0.5563691174093209,
          -3.9278100111169567,
          -4.775900776090701,
          -0.766569622255128,
          -0.9143644346828554
        ],
        [
          -0.3528120458282193,
          0.12620811095593434,
          -0.2456444033578122,
          -1.7202168500056394,
          -1.6362060998202597,
          0.8016156331774349,
          1.4955475663869378
        ],
        [
          -0.1902193949538504,
          -1.9877407573960197,
          1.211872701484103,
          -3.128960870138706,
          -3.419751785220784,
          -1.9777785812800803,
          -0.5084402619124719
        ],
        [
          -0.34951319283932997,
          -1.6422375838727592,
          -0.9368587013081935,
          -0.24312160907286912,
          -0.022092700076839333,
          -0.3107827566599919,
          1.0519306933075607
        ],
        [
          0.824254685245992,
          1.243683437055969,
          -0.9222017518142516,
          1.1607105876948975,
          0.38814069667254003,
          -0.9396461521529286,
          -0.10963116596223854
        ],
        [
          0.20237785223319307,
          1.2475492621608384,
          0.13605055878736896,
          1.2816467856136027,
          0.6026568785138133,
          0.1492435581485177,
          1.0231871412193472
        ],
        [
          0.7120580481533889,
          -0.8873363398579781,
          -0.598243248671643,
          -1.5051914876032335,
          -1.2993830029918747,
          -1.02120919161066,
          -0.7151993043964184
        ]
      ]
    }
  ]
}
