{
  "layers": [
    {
      "activation": 1,
      "biases": [
        2.4867426563364243,
        -0.7033546291948569,
        1.5543961919804692,
        0.34560251759973676,
        -0.07390918027760689,
        -1.4066458582946535,
        -0.2370131581066928,
        0.14845315467686368,
        0.43281002096394877,
        1.5544940498112367,
        0.013744772465079718,
        -0.3115336772234817,
        1.711200124157563,
        0.5284186625608068,
        -2.6677449821207944,
        0.35564693695376187,
        -0.16896189379391457,
        2.7064615467105373,
        -0.7508249191372518,
        0.2304276230815571
      ],
      "cols": 20,
      "rows": 4,
      "weights": [
        [
          1.7555541502772263,
          3.85813727482096,
          0.44611547640503274,
          2.0752424992425444,
          1.5470249072981668,
          -3.3284155273437666,
          -4.429517904684172,
          5.698555624376267,
          0.1759187358496802,
          -2.6521189794472133,
          1.141350085284928,
          2.298706948321811,
          -2.2390493631792485,
          -3.013888385631444,
          -1.6893147662877965,
          1.701848550341014,
          4.246757783200323,
          -10.40803366503216,
          1.5635826123733312,
          -3.7532093908466053
        ],
        [
          -2.4073372372534365,
          -0.42639401815528927,
          -0.7741555742151356,
          -1.6143514304332414,
          -0.3826296404875745,
          1.0726132444671903,
          0.5857794615603709,
          -1.9654132654681806,
          0.05545596292306828,
          -0.3537735010501311,
          -0.7369665163332039,
          4.493457648104153,
          -0.3226813362500832,
          -1.747052497890194,
          4.533216930474415,
          -4.679577591391816,
          -0.34968439011324765,
          -3.578310253890902,
          0.07422352731059155,
          1.176560557948165
        ],
        [
          -2.4903529798445145,
          2.420582602331463,
          -2.672822279337501,
          -0.3309615677888077,
          -1.1013804698383358,
          2.4837560309507065,
          1.6230322650064877,
          -1.9518237569909003,
          -2.158066605862452,
          -2.8870232787904,
          -0.9081605408613567,
          -4.144451500338439,
          -2.765352783170927,
          1.503230098319633,
          -1.04459106452176,
          3.369974088653595,
          -1.0787629535153138,
          -7.0153437020024825,
          1.288655477787585,
          -1.5925469405841246
        ],
        [
          -1.9845171350141293,
          1.9948914982630432,
          -1.061205548333072,
          1.0122369024270887,
          0.07960460597496387,
          2.6469582857269427,
          2.181703994207644,
          -3.442786531829519,
          -3.6488015887905187,
          -1.6021564472861365,
          -0.45505088027828633,
          -4.815280462153007,
          -0.2943620280781824,
          1.7091487959083442,
          -5.327137012825622,
          6.417464939967681,
          -1.5522484683740831,
          2.51069636630899,
          -0.3074722856833405,
          -1.2723142303677613
        ]
      ]
    },
    {
      "activation": 1,
      "biases": [
        0.06059805753969796,
        -0.3846203170923257,
        0.15070225001314655,
        0.12395899263655033,
        -0.05079500014935518,
        0.4016472212206148,
        0.4855796958586772,
        0.1499919535755297,
        0.11263559942760044,
        -0.4594113507835206,
        -0.3545976883439297,
        -0.23518095733983685,
        0.25394806901038475,
        0.2612837504534115,
        -0.10056346470325375,
        -0.3059458607811989,
        0.38915891529998176,
        -0.19941607761488525,
        -0.23294323414206528,
        -0.18291274103367186
      ],
      "cols": 20,
      "rows": 20,
      "weights": [
        [
          0.9626188219836799,
          -0.5390392688112529,
          -0.874892394566051,
          -1.02587265488423,
          0.8361370398312528,
          0.007803806088957239,
          2.719480546972901,
          -0.48066613769438205,
          1.0794978337423162,
          -1.2161079649057833,
          -1.5477748773167148,
          -0.957139499761551,
          1.2837667454023718,
          -0.9529805070478529,
          0.9981441909595211,
          -1.37245941163438,
          -0.49755257322457336,
          -0.7536399360051865,
          0.5540356435935279,
          -1.1469526719811758
        ],
        [
          -1.1365033317333555,
          -0.17104587387549344,
          -0.14776052160194844,
          -0.3228553306811196,
          -0.41735104313519905,
          -0.35431240611437237,
          -1.224362352263381,
          -0.3836471425572097,
          0.260532332400616,
          -2.3310884761639206,
          0.7349341631026901,
          0.2064119554759921,
          0.8799784726523863,
          0.009042602962468883,
          -3.4768998133925226,
          0.7626554785649028,
          0.6742381438416769,
          0.2097964911964074,
          0.849635214272495,
          -0.5011194383239662
        ],
        [
          0.7614995716784603,
          -0.6073615654285484,
          -0.4048740421103511,
          -0.7676498834289622,
          0.21760728137871316,
          -0.068147960486512,
          1.6795431201622737,
          -0.3306364905944695,
          0.22733025561533154,
          -0.2809618704827901,
          -0.8755537085567843,
          -0.3676721292326524,
          0.46199043886842533,
          -0.5179770062360614,
          1.0433805509224283,
          -1.2439484633502902,
          -0.6195803305178368,
          -0.6643402249320332,
          0.5458033727585301,
          -0.8339071340888535
        ],
        [
          0.5109933925844801,
          0.3810419074327915,
          -0.6998966248712734,
          -0.6288594144169897,
          -0.07366620049399228,
          -0.1597004181139061,
          -0.027835536900870858,
          -0.7423065666996121,
          0.2649485502293585,
          -2.534842741228219,
          0.31431982113974255,
          -0.00669940056593102,
          0.4871321922052515,
          -0.4004169413519423,
          -0.6554084842427051,
          0.039292940195741755,
          -0.58416128599373,
          0.6972651280105056,
          0.4341088530361902,
          -0.1680735122572289
        ],
        [
          0.8363038285131507,
          -0.6154878518023179,
          -0.0201962317557528,
          -0.3932717933209606,
          -0.05887176363554427,
          -0.31319175669509886,
          0.3887643419922634,
          -0.07146770359544247,
          0.5628842826798877,
          -1.5754007367083573,
          -0.8700737231374926,
          0.0883678729358837,
          0.3325544902788511,
          -0.6623507011499988,
          -0.10994228174477391,
          -0.22387087836755848,
          0.3053545179578504,
          0.050953012432813805,
          0.5580047418627212,
          -0.40487127602725126
        ],
        [
          -1.012112498800964,
          0.2935952206572731,
          0.8767596488872339,
          1.1184759444241439,
          -0.6551359535916456,
          0.7213831157063976,
          -2.7941520711677907,
          -0.09710756286565735,
          -1.1617399850142158,
          1.4510638658523638,
          1.9518113576644538,
          0.6567538340720894,
          -1.9026308266836465,
          0.5908823328904688,
          -0.6595837472671372,
          1.08225018657704,
          0.7624632352963057,
          0.867189039257075,
          -0.7983256322036485,
          1.3786604613881681
        ],
        [
          -0.8105997295614447,
          0.2862724881778634,
          1.4117443197754664,
          1.6474438708907628,
          -0.5209818198615637,
          0.9634289906945944,
          -2.2650491361677103,
          0.34392937650596883,
          -0.9242313344788534,
          2.3176623295624093,
          1.8296134638725625,
          0.2528378612509097,
          -2.094491464005585,
          1.1137616207946086,
          0.18074463871491434,
          1.1644062649956897,
          0.48660790151697203,
          0.5968528886711468,
          -0.8617747849993715,
          1.5748036735501096
        ],
        [
          1.5710653693243186,
          -0.64956313916949,
          -1.4801909226174925,
          -1.2221319111840943,
          0.49470196644094916,
          0.14736183238442452,
          4.308802966449653,
          -0.012313325475240295,
          1.5195440743781106,
          -2.034963782773733,
          -2.5108093838566234,
          -1.2344719507008313,
          3.100479718304155,
          -0.7376374198691373,
          0.12786566441600905,
          -1.7369669765349782,
          -0.6682932557956582,
          -0.6864457002547687,
          0.8784815292618949,
          -2.4965586946746385
        ],
        [
          0.8763072685307904,
          -0.5529263804767289,
          -0.36831900204966106,
          -0.2668587974557121,
          0.7214682999247267,
          0.289092561856042,
          2.4450740496308057,
          -0.2356777538785856,
          0.5509817230271852,
          0.23746680386202879,
          -1.397509565829013,
          -0.2295776088816099,
          1.3688115100647744,
          -0.17591964516657704,
          0.6633217592491434,
          -1.2058169644423007,
          0.23540557070003884,
          -0.8543266623664605,
          0.2542267796657962,
          -1.3271981093346616
        ],
        [
          1.1974817725034221,
          0.1619516459501336,
          0.336152963984583,
          -0.3129168813805425,
          0.5859468224911025,
          0.9697141125740834,
          1.2227957686363553,
          -0.28391743910770245,
          0.23876305329470948,
          1.4147534338731893,
          -1.380566025329617,
          -0.23281446426201485,
          0.17391243304778886,
          0.20164903363318948,
          3.0958571026141812,
          -0.35059652128478896,
          -0.4400480404919205,
          -0.38936575333331064,
          -0.2309654497492995,
          -0.36287245862943174
        ],
        [
          0.44565952460274016,
          -0.3192856527840579,
          -0.25172218752523845,
          -0.3038684769240169,
          0.31956622500039106,
          -0.3867473730850716,
          0.4611731634204943,
          -0.5251986641096702,
          0.5553841383276689,
          -0.9176665055362684,
          -0.5133731678424487,
          -0.2559205430888828,
          0.6933392912657358,
          -0.249923927026633,
          0.07404992615156257,
          -0.18523099156955872,
          0.24552346811364975,
          -0.21584853345477284,
          0.2986617096178117,
          -0.3409784854693926
        ],
        [
          0.8350022519413204,
          -0.6778223864274794,
          -0.24155502708990806,
          -0.8446331379524962,
          0.08489078604375852,
          0.2264416837843168,
          5.002664172431038,
          0.2433956110307684,
          0.9324729057348151,
          0.7633787151381344,
          -3.009127307180547,
          -1.240243883722674,
          1.7304778583427456,
          0.5066785129115934,
          0.6145803500780961,
          -1.8773905768261754,
          0.38514928214142097,
          -1.348711105354103,
          -0.37095784933702197,
          -2.4604945988939875
        ],
        [
          1.2031901635420585,
          0.2034778897782098,
          -0.06156534817375447,
          0.35977718088376265,
          0.6227675073216028,
          0.9338769505150678,
          1.1612165928010978,
          -0.4234819778925743,
          0.08699035627435733,
          0.2455842859905932,
          -0.49110322121937416,
          -0.052891894401644025,
          -0.35718257548657073,
          -0.4341882443126708,
          2.8392423664352946,
          -0.7263728418344365,
          -0.8090183469012299,
          -0.7431634907919228,
          -0.35804849042493336,
          0.10387532370491062
        ],
        [
          -0.25221353409194847,
          0.18215629424249807,
          0.44028458073950244,
          0.4733444572371654,
          -0.042982131643574374,
          0.8213076272759455,
          -2.303566665181945,
          -0.159202683528249,
          -0.9448488523046997,
          0.689340991492712,
          1.1215085287132873,
          0.8222168720460561,
          -1.1041505164131262,
          0.03682670423077492,
          0.8035619084570491,
          0.8524025697673464,
          -0.1233977137552397,
          0.44149836825691147,
          -0.10865415868068136,
          1.3934198195798007
        ],
        [
          -0.472670235019811,
          -1.2080331405008942,
          -0.30756946440176774,
          0.3751680952829122,
          0.3237352500259649,
          0.5602986687840017,
          4.060419721806362,
          1.5890402840192637,
          1.087755825346862,
          2.5505431288768294,
          -2.3893787456367774,
          -1.9320214694967635,
          1.2264632803386872,
          1.4119306306409625,
          -0.23814957783831064,
          -0.970169407684589,
          0.802363050679749,
          -1.9435821590537954,
          -1.0804400206039235,
          -1.4434241721208676
        ],
        [
          -0.4287710110562237,
          0.6253101742105658,
          0.07489609193168241,
          1.0477969312091104,
          -0.4560248407619206,
          -0.1968725332532491,
          -4.6863939474966605,
          -0.7323416171715713,
          -1.012804634670366,
          -2.428839511524061,
          2.830834851964402,
          1.311067304115154,
          -1.1988577353524494,
          0.14092052928822313,
          -1.9282923925905198,
          1.679338053814938,
          0.27926263679754465,
          1.5585094557804349,
          0.9216606465590143,
          2.2083883059610208
        ],
        [
          0.6671071137693825,
          -0.09123699993483331,
          -0.6645933630646857,
          -1.3036338918102166,
          0.3159469638328773,
          -0.7439745325074631,
          2.032585813437236,
          -0.3143533514692519,
          0.6278439934946969,
          -2.6939316091615755,
          -1.457954695951411,
          -0.9082552574178224,
          2.1322802268592076,
          -0.5267572867550042,
          -0.8068565435144749,
          -1.2205524374404237,
          -0.11693653246995522,
          -0.30287931897332254,
          1.1234442648972838,
          -1.625854773549888
        ],
        [
          -1.136096218194983,
          3.1260516753003342,
          1.7585390117154165,
          0.9629745002417611,
          -0.8102146013153313,
          0.7501772280699004,
          -7.77100798100992,
          -0.35759010063753494,
          -2.2593776693553282,
          5.010299525154705,
          5.122753280690842,
          2.7598450378074646,
          -4.713322918882402,
          -2.75259100091778,
          -0.050930709474436134,
          3.7388711945754824,
          -3.331429487518389,
          2.774083961422319,
          -0.40020650631612426,
          3.526553245206892
        ],
        [
          -0.7686022941806611,
          -0.5865853972140911,
          -0.32260322023701526,
          -0.11248833783622948,
          -0.16856704024857302,
          -0.06024257863449113,
          0.046052546794381755,
          0.17152836344453673,
          0.4364308136340738,
          -0.13642967750140456,
          -0.23313414244554878,
          0.06663264052176787,
          0.6329155866067995,
          0.2721077964597634,
          -1.9674331623071921,
          0.45027496827969726,
          0.6049523342163634,
          -0.08680992398430078,
          -0.18272288335760575,
          -0.6858845560029595
        ],
        [
          0.6343541382324092,
          -0.5291305156094045,
          0.901828005469881,
          0.6993821285900718,
          -0.01690596805322198,
          1.3726950993199862,
          0.6534429970831446,
          0.6300516721381358,
          -0.19771262231784795,
          2.5664288160878708,
          -0.20265121516716933,
          -0.12313851640292361,
          -0.49410444252500013,
          0.6095405036147129,
          3.0543877523222127,
          -0.0256478799291533,
          0.1303626575652771,
          -0.2790866555069903,
          -1.2960215935801258,
          0.8123882167814022
        ]
      ]
    },
    {
      "activation": 1,
      "biases": [
        0.07349993588091411,
        0.24252149569135983,
        -0.5288521875007698,
        0.5300541699935976,
        -0.19000462505630678,
        -0.31415582376536416,
        -0.15877906118604118,
        -0.6080690135568071,
        -0.05286934175812992,
        -0.5238942147915268,
        -0.27260948931716505,
        0.6770654117556675,
        0.05764583352973659,
        -0.8889938269261269,
        -1.0274646106737617,
        0.5505372383305285,
        -0.3732661217007226,
        0.6779356619774598,
        0.2167115162056363,
        -0.02033606599810251
      ],
      "cols": 20,
      "rows": 20,
      "weights": [
        [
          1.9469200434909606,
          0.8296439937314688,
          -0.2387527428700939,
          1.3366364616495026,
          0.03390353409234234,
          1.5556904335410948,
          0.22611246834468443,
          -1.2646490508619923,
          0.010798450645684028,
          0.8770046271014742,
          -0.8895449303189132,
          0.8079851159198111,
          0.25685331284382745,
          -0.20397527690417996,
          -1.6061133310394333,
          -0.006590594011084585,
          -0.34381915409108743,
          1.0268581335739886,
          0.19183693365705567,
          0.20979488122328457
        ],
        [
          0.1578721585625503,
          0.6167336440914936,
          -0.6290100113049277,
          -0.5134761333041563,
          -0.5259668058374806,
          -1.5167535209179586,
          0.8625174068194936,
          -0.23627641610386352,
          -0.654105113928115,
          -1.913079328673395,
          0.07244598462121864,
          -1.1836404342612796,
          -0.45321157270045614,
          -1.0829513409847584,
          1.9690436941056126,
          1.1674843110827526,
          -0.9252449036383276,
          0.9066163116056744,
          -0.30804378514678793,
          1.161717376070449
        ],
        [
          -0.23674310235415483,
          -0.41799916991914104,
          0.9535856368078693,
          -1.2746376024766908,
          -0.3490726639256007,
          -0.6358910168660085,
          0.39284982251109946,
          0.11007220779464995,
          -1.086107300408451,
          -1.0589387526327647,
          0.7295846357637584,
          -2.1523641248528285,
          0.26499966342240927,
          -0.13279452097996514,
          1.623422621419755,
          0.2088432564081758,
          0.08773971304543049,
          -0.5910632135506727,
          -0.31659752888751924,
          1.054479520051788
        ],
        [
          -0.4482760043538179,
          -0.28846556117608485,
          1.7307788363563015,
          -2.0431748493844757,
          0.1250386618904099,
          -0.9876821607433723,
          0.31208741762151654,
          0.6317617410817463,
          -0.4518796114002917,
          -0.35468098631782147,
          0.6865647971377977,
          -0.8922306294575525,
          0.3788680486312343,
          -0.16278689373922361,
          1.8535120715836277,
          0.45434262700992734,
          -0.32862002508883364,
          -0.42897479404971234,
          -0.5547916199628565,
          0.5371287085894187
        ],
        [
          0.8410472903906189,
          0.06061412538531384,
          -0.6331961375545084,
          0.42283215107014505,
          0.22088957799790002,
          0.7882411461482737,
          -0.08738621588734014,
          -0.4485122945967187,
          0.13187427147013578,
          0.3726578241029699,
          -0.14653449870231205,
          0.4515096935642318,
          0.055672763679088105,
          -0.06839966477054396,
          -1.5076157105020502,
          -0.03890466077776154,
          -0.17459124589075617,
          0.11441270877108303,
          -0.029944236082852134,
          0.15991618098878582
        ],
        [
          -0.22609982384412783,
          -0.4745875994245348,
          0.7232688993984195,
          -0.3916198006408319,
          -0.32330566913639297,
          -0.42473811618659296,
          0.10884987718140608,
          0.28170472620353537,
          -0.7880047161157604,
          -0.23621661230116592,
          0.431860252014772,
          -0.9530772990410594,
          0.5812395805440976,
          0.33483180689177644,
          -0.0479305827200189,
          -0.06710187352065079,
          0.25752805417480024,
          -0.19934236608684958,
          -0.18188997634093163,
          2.8181129355497117
        ],
        [
          -0.04957299346635169,
          -0.16572809838093513,
          -0.5968886550994357,
          4.325247478981817,
          0.7434905808904534,
          4.193980483734215,
          -1.7108033026911242,
          -0.5854923439556625,
          0.6801386300445426,
          4.1498846619909395,
          0.003727984103998819,
          3.311906327608076,
          0.45299855718383375,
          -1.5353647602514693,
          -9.540636946491551,
          -0.6774924763890136,
          -1.7082055380870842,
          2.1929664935117192,
          -0.6340934256420521,
          0.9521159180715209
        ],
        [
          -0.9452570670542437,
          -0.11607311457608141,
          0.7960426755259786,
          -0.0013396538551548722,
          0.5495306733924871,
          -0.3580890889648951,
          -0.2538693783995922,
          0.15311465201083388,
          -0.18629536627253637,
          0.35832238397354677,
          0.13351690609427347,
          -0.428400921929067,
          0.5912444005787607,
          0.56271849067135,
          -1.2043984875094527,
          0.024496065815811426,
          0.5141495140262383,
          -0.6461267072087943,
          -0.0982778158898366,
          0.6449224624973016
        ],
        [
          0.3036702320228276,
          -0.05806498504802052,
          -0.1896090663895111,
          1.3202564225308326,
          0.14968974426690307,
          0.7827538760019835,
          -0.5976147248933167,
          -0.17996731188461745,
          0.6778217165671835,
          0.8611503802024078,
          -0.4799757289192351,
          1.6681513743203882,
          0.4533910297829644,
          0.16386178785700495,
          -3.217910674755499,
          0.3537296778262557,
          -0.04725739047095741,
          0.4461370628326874,
          0.5329543231300387,
          -0.2167885498651255
        ],
        [
          -0.4474769439299666,
          -0.8511596946996387,
          3.2199947894916927,
          -1.0156717681219765,
          -0.024154758140156492,
          -0.8344293146893171,
          0.10522763676033833,
          0.8241790855382771,
          -0.8182820450480877,
          -0.04531430754177567,
          -0.2683501539238376,
          -6.420269759823127,
          0.8149089113392837,
          2.1334016661401196,
          0.24936195518919804,
          -0.647957297927026,
          1.3656302755003626,
          -2.8701361357228268,
          -1.0501118580226785,
          1.360347326803119
        ],
        [
          0.11398623333211971,
          -0.2052573494323911,
          0.376732516867681,
          -2.4542011879404506,
          -0.5148316040574316,
          -3.061689853273372,
          0.5983805052832964,
          0.17912579856559366,
          -0.8063350868624889,
          -3.138719301968155,
          -0.31199338307491814,
          -2.162118525135997,
          -0.5941659655015681,
          -0.2615387265107346,
          5.9830629999995155,
          1.1572889364042747,
          -0.018006990871270535,
          -1.098218810440099,
          0.7055854737232287,
          -0.09706443833768122
        ],
        [
          0.7160118325007422,
          0.10838958451219499,
          -0.3258881012549895,
          -0.7245935602597418,
          -0.4477272906216405,
          -1.0265506936262982,
          0.8052594790935168,
          -0.5553345506758284,
          -1.103513877802155,
          -1.9775121493771484,
          0.005439629997885082,
          -0.8231169165648613,
          -0.5184208433782633,
          -0.5893891765912441,
          2.9555421383545495,
          1.41502488244574,
          -0.5776985604725634,
          0.6413683961497848,
          -0.25247248608497774,
          0.21946641870667108
        ],
        [
          -0.2898402674179267,
          -0.2534900743337477,
          -1.36018676941595,
          1.9421149212544395,
          -0.03758774372298061,
          1.7563201561247292,
          -1.3035726820609805,
          -0.444132397851365,
          0.37306963596881576,
          0.9720407618443561,
          -0.6331594325400156,
          4.299478649158641,
          0.41230267322931263,
          -0.7255553879151094,
          -4.751201157872997,
          0.020315127690548922,
          -0.31955289898931516,
          1.6865127495834424,
          0.28920863173467976,
          -0.5639622512575463
        ],
        [
          -0.4612149504277833,
          -0.7790731692342554,
          1.50734360216239,
          -1.4405318163813214,
          0.2847850763084262,
          0.33700546463784625,
          -1.3132875997143396,
          -0.41752438827709043,
          0.26585178741138704,
          0.7060286344129999,
          1.0339861143114821,
          1.3520149967013733,
          0.9099425934810144,
          0.49701587998172897,
          -0.8259585251495377,
          -0.25431192215044546,
          0.6610611926388009,
          -0.747874893759208,
          -0.12660759633354743,
          0.6167352926027051
        ],
        [
          2.8793981151761963,
          -0.04372545310219337,
          0.6600702054475193,
          0.8653039607462789,
          -0.8884258954709524,
          2.6625816325308387,
          0.9174427279890195,
          -0.9109769586976587,
          -1.0829351060261048,
          2.486641506123371,
          -0.6552625989478953,
          -1.734726291064087,
          1.4004679463772396,
          1.1338088165556914,
          -2.1956572286070983,
          -1.0916953331814347,
          1.178184619876676,
          -0.8411533267234875,
          -0.8892547551892112,
          2.786435277206711
        ],
        [
          -1.0233869256370096,
          0.27867922316817795,
          0.47862855814594657,
          -2.745922891366572,
          0.17543833494010921,
          -2.2061576167018577,
          0.4839758923373965,
          0.5841660338958858,
          -0.7976902273342203,
          -2.473914390954459,
          0.6908334830594064,
          -1.0512570678969237,
          -0.5193915125456602,
          -0.24466418870815695,
          3.625586009852107,
          1.3215188741664146,
          -0.0034859644421098277,
          -0.017947552776925665,
          0.2829852714156885,
          -0.4192064911619691
        ],
        [
          0.001953405727200195,
          -1.202819073494392,
          1.2858725214221347,
          -1.2278720131318763,
          0.21710847303335784,
          0.7743203002685328,
          -1.4529851381000891,
          -0.41161765807672895,
          0.002323585700872925,
          0.9405251033716693,
          0.38409383184015033,
          2.0522171495837993,
          0.5414833366798387,
          0.15270840467528418,
          -0.7957514651403345,
          0.45502801712302454,
          0.02823502919983667,
          -0.047279801710670054,
          0.35560130201856366,
          -0.6052111753405247
        ],
        [
          0.30483843865424276,
          0.5316300343678433,
          -0.5021762042408286,
          -0.6162074897539117,
          -0.754912382838806,
          -1.6778928705069422,
          0.7688340667508581,
          -0.5138504846328298,
          -0.7190483562155685,
          -2.024349213186969,
          -0.4731668839261391,
          -0.10242344350836102,
          -0.9735050812039836,
          -0.2691593616277857,
          2.845728094864716,
          1.4505004380624322,
          -0.32855255437691266,
          0.6281006998316819,
          0.2838924139350807,
          0.4743952233369491
        ],
        [
          0.6741547696960827,
          0.7420772052751985,
          -1.6360880980636316,
          0.9663039508830166,
          -0.27515859905682216,
          -0.31504824482341853,
          -0.38660071145092323,
          -0.6120130381717123,
          0.3657856080070211,
          -0.8422035301658982,
          -0.06535912888988708,
          2.022544660616765,
          -0.31183961058219556,
          -1.5706311111658229,
          -0.4622127865831619,
          0.7166455965277828,
          -0.3234421729032007,
          1.310188373699838,
          -0.0778057588337112,
          -0.9053757683169619
        ],
        [
          -0.34175777941699026,
          -0.0075614141741182405,
          1.1347237937199308,
          -2.663567576697737,
          -0.519825488947245,
          -1.6105404027084942,
          0.8162352768213346,
          0.06950707356644163,
          -0.7170806384317452,
          -1.2774452401444951,
          0.9399494385895061,
          -2.1169698705332904,
          -0.2540498162138818,
          0.7061067941792066,
          4.591627506767852,
          1.2500018304947222,
          0.3468454465841258,
          -0.7845192546929739,
          0.18966640177592006,
          0.26166592901588565
        ]
      ]
    },
    {
      "activation": 1,
      "biases": [
        -0.16959541411980647,
        -0.7271151769236243,
        -0.4192538517314458,
        0.023699216511040382,
        -0.8523451033540492,
        -0.5274676245539321,
        0.1675908339803849
      ],
      "cols": 7,
      "rows": 20,
      "weights": [
        [
          1.1087809167876366,
          -1.7973370913629227,
          0.16376324813943552,
          -2.6367121966180975,
          0.4315832530205493,
          0.41126807134286564,
          0.20933946981307142
        ],
        [
          -0.9039385557027015,
          0.7751313467901925,
          0.7272117911774365,
          0.7180945028919501,
          -0.48408444205421647,
          -0.3840896098944652,
          -0.3105970604487252
        ],
        [
          0.4150318815395879,
          -0.8609584297657654,
          -2.322809080642045,
          -0.5882047478482098,
          -0.4574566053274266,
          -1.107932266721158,
          1.2330291190586893
        ],
        [
          -0.08862428638975425,
          -4.053887729699977,
          1.816391324757628,
          -2.1927785795447026,
          -0.623971878490462,
          0.16863605276258373,
          0.3190568259332849
        ],
        [
          -0.3427946192546776,
          1.0463318709364016,
          0.12737189623789577,
          0.3257759793372349,
          -0.2744779322336487,
          -0.3004527224547173,
          -0.12285842643039546
        ],
        [
          -1.0265705121708062,
          -0.9102545927495833,
          -0.0984544466620229,
          -2.9114366241999527,
          -0.6254387600977908,
          1.0428036808342942,
          0.7578759629144695
        ],
        [
          0.0480293956310114,
          1.362571421106236,
          1.10762020632599,
          0.7077192217476242,
          -1.7811925220248217,
          -0.44632754476416875,
          -0.7859176810746128
        ],
        [
          0.3740123806899119,
          1.0780611666079305,
          -0.8018367355490621,
          0.5738250525508759,
          -0.4820226720869558,
          -1.0228456229355243,
          0.15807713309390634
        ],
        [
          0.15984370196258768,
          0.8991313990839355,
          0.9832120009097622,
          -1.1205194378649903,
          -0.42927577300942343,
          0.1768680659453416,
          0.932232323786386
        ],
        [
          0.6040931977568542,
          -1.7347729438258142,
          -2.1562644467460657,
          -1.6858503834953238,
          -2.9242637168921344,
          -0.9849747471757468,
          -1.159622675209396
        ],
        [
          0.3075307152458763,
          1.368143093941897,
          -0.5034906277036114,
          0.617708963658196,
          0.34137708510843345,
          0.9916872498865026,
          0.39589025057734867
        ],
        [
          -0.14834690071118597,
          6.170624877354157,
          2.748620589135622,
          1.1086284764046006,
          -0.3810825910281593,
          0.1334659862868701,
          0.4559862790059773
        ],
        [
          -0.6997456113135305,
          -0.27677601349127046,
          -1.952728221375626,
          -1.0637928753840333,
          -0.768586585977042,
          0.8540187772385582,
          0.4039669316365238
        ],
        [
          -0.06592794392828165,
          -1.096800743356737,
          -1.4107230236988462,
          -1.195113973941476,
          -2.3884072711673863,
          -0.8926101148235732,
          0.7438327360976672
        ],
        [
          0.06131469684990803,
          1.0701034753874006,
          -1.5237001469420384,
          2.495525724135803,
          6.080581797275154,
          2.119594751509894,
          0.7404211627263492
        ],
        [
          0.4627618509419615,
          -0.14834780030623365,
          -0.44966906265654966,
          1.1186608336493982,
          -0.2605443595538321,
          0.3814685205664814,
          2.115342382430343
        ],
        [
          -0.1474443017413879,
          -0.7919319072285925,
          -0.9665132210388533,
          -1.2836376621570549,
          -1.8981171420475953,
          0.24285510347740624,
          -0.2637610329799972
        ],
        [
          0.49190968657186773,
          2.047264754804663,
          0.9845520354201507,
          1.798596054172494,
          1.2515850797880774,
          -0.31875475707021805,
          0.5442115191968899
        ],
        [
          -0.5765077968432942,
          -1.227026086022707,
          1.3841980588165168,
          0.49048611758766936,
          0.16777251112241398,
          -0.22764956739824713,
          0.2532327772930435
        ],
        [
          0.23791400866365164,
          0.6396799149035238,
          -2.105514368864875,
          -0.09396122180429421,
          -0.8835222490824909,
          -0.573813068050172,
          -4.01193912099401
        ]
      ]
    }
  ]
}
