{
  "layers": [
    {
      "activation": 3,
      "biases": [
        0.06391301763636419,
        0.06029822186158359,
        -0.3222258550298588,
        -1.8281979124941994,
        -0.9256212621183413,
        0.07063550984463576,
        -0.16737086959838593,
        1.0576238680037715,
        -0.12662150015875184,
        1.4869210502226404,
        -0.04440426145575689,
        -0.22935819413520597,
        0.05967679326361018,
        -2.5859312861027,
        -0.2259603916661837,
        0.2828568039818674,
        0.5031904374840114,
        -0.07143853338381521,
        -0.030720879427939662,
        0.24132142623058003
      ],
      "cols": 20,
      "rows": 4,
      "weights": [
        [
          -5.973739364192473,
          1.5396201441294382,
          -0.02088645792660619,
          1.5416325397226243,
          1.5151431777262268,
          -4.8071542968400784,
          -4.036132366638345,
          -2.1741503739708556,
          1.5276781242908115,
          -0.08592248942496587,
          4.357348020040676,
          -5.668983849926052,
          3.0388837765460095,
          0.0686154644592803,
          1.984493174976154,
          -1.1827851301625134,
          -0.5491873399209946,
          0.5881450015866562,
          -0.15558553789996465,
          3.6169804579329163
        ],
        [
          -4.917867004431154,
          1.3047407483117996,
          1.3812174458467663,
          -1.9673479967681005,
          0.7108040593593989,
          -3.0713593300331947,
          -1.0337749105626828,
          -3.2596219142962357,
          -2.720022654279851,
          -2.3920575612919306,
          0.23393939753378384,
          -1.2136120491768057,
          0.8491787421895548,
          3.1998840167678213,
          -1.0337055061855807,
          0.34591896107952813,
          2.247921714083306,
          3.5578980655463393,
          -1.7873282175155532,
          2.4075348026645957
        ],
        [
          5.169703282951396,
          -1.4003777020357173,
          -1.3021702907471207,
          4.2455368187274525,
          0.6687382950724455,
          3.297654724168032,
          1.807598002484045,
          1.127648856898268,
          2.746627934855813,
          -2.881726446358158,
          -0.4358645926896249,
          1.9940798457726119,
          -1.7923020487755335,
          0.19482684233724473,
          0.8406302241146891,
          -1.269792425547268,
          -2.7509856404881816,
          -3.156846148332091,
          -2.016521650604336,
          -2.498441986314229
        ],
        [
          1.9912955609256,
          0.834272401506288,
          0.43329783456466286,
          1.6219416078382944,
          2.1109609569433867,
          -0.6166093828099176,
          -0.5546950538103605,
          -2.0730030415619485,
          3.433294786208713,
          2.340300490967363,
          2.845526698573996,
          1.4709153913443462,
          -3.1311810765855164,
          0.08491715900275434,
          -0.16454600415619375,
          -2.9449733889760497,
          -0.5134327020685647,
          -2.4882311765606446,
          0.052338751759705565,
          -2.4242831200923938
        ]
      ]
    },
    {
      "activation": 3,
      "biases": [
        -0.21869233475239716,
        -0.0036932690954777463,
        -0.4928326809542352,
        -0.9805200968151533,
        0.30471113525622173,
        -1.1437044400551717,
        0.6663040179576141,
        0.08896579625507993,
        -0.7124125548324131,
        -0.3328640710953866,
        0.18619348816567471,
        -0.24322606559960333,
        -0.14551601865854766,
        0.0785511259890658,
        0.3937391259671855,
        -0.8626858829055075,
        1.6328402919882072,
        -0.1668227282459948,
        -0.6170795556535218,
        -0.8806212658276094
      ],
      "cols": 20,
      "rows": 20,
      "weights": [
        [
          0.070444609195267,
          1.1707685827479162,
          0.5248151978684801,
          1.2809020457050895,
          -3.081748640818522,
          -0.05937208668969461,
          0.7838015558950538,
          3.3631830967734735,
          -0.1286581596317341,
          -0.2869420508893417,
          -0.5399460665341532,
          1.6375556408122653,
          0.09465934679617802,
          0.8760376039719951,
          -0.2524855979675524,
          0.5308520526315701,
          -0.5070260825879033,
          -0.09655321504387909,
          0.6243089633157047,
          0.2987874152772052
        ],
        [
          0.19908354813005344,
          -0.658725713444086,
          -0.11229989298035979,
          -0.9445524896904125,
          0.38948358667832295,
          0.014288885073889573,
          0.6407499432597118,
          -0.8504889614051709,
          -0.24719380158165508,
          0.855383340242564,
          0.5939565084453642,
          -0.35754665808492336,
          -0.31985388785837676,
          -0.2623409715765766,
          -0.01955861376507136,
          -0.14343720773499163,
          0.08257568638743343,
          -0.36382621126637404,
          0.24080322537911306,
          -0.25794622211380175
        ],
        [
          0.2501994089634007,
          -0.33565528401619144,
          0.17890296578400128,
          -0.5041483662865771,
          0.5223849725109495,
          0.6239237465194175,
          -0.6121020857355259,
          -0.35909368570006295,
          0.3942938618639195,
          0.7127637315639086,
          0.5491153012074724,
          0.46444047944211553,
          0.4134400787370586,
          -0.7817488939025748,
          -0.3981851144235809,
          -0.1687841803220755,
          -0.3132452487199681,
          0.37510749515437775,
          -0.03600473322844962,
          0.22535340510687193
        ],
        [
          0.14964647112858717,
          -0.79496773740821,
          -0.6988388138532966,
          1.9734094695034943,
          -1.3851709396791114,
          0.3328707857202552,
          1.9922259433430276,
          2.335915809993988,
          0.5207954707674849,
          1.0375512061993757,
          0.2618525989312065,
          -0.5204279386091356,
          -0.6320640380092692,
          1.5664514022677025,
          -0.15851774161882173,
          -0.9738592799826873,
          -1.6842520244751056,
          -0.09628040973877147,
          -0.03373312077598085,
          0.023117052521836347
        ],
        [
          1.0448727624270149,
          -1.551080164733005,
          -0.2205602191371422,
          0.21726372777533434,
          -0.4203634037494165,
          0.5845832207767919,
          1.5961314481929367,
          0.0065427085351662225,
          0.44678291535737186,
          1.3443626844320207,
          0.8303875651411726,
          -0.2606164874654387,
          -0.6090877163452844,
          -0.047956113609917576,
          -0.7911138528173244,
          -1.023838589749498,
          -0.6647336971694677,
          0.37018295833594644,
          0.17691671830563224,
          -0.7497018070486197
        ],
        [
          -0.7637054975847445,
          1.144153156578907,
          0.5658569083122876,
          1.3784038479107417,
          -1.6870175363310596,
          -0.5691022992909781,
          -1.0895119872703638,
          2.1449478785313922,
          0.10316803757625158,
          -0.8959770891210754,
          -0.5820861740594604,
          1.3820726749151813,
          -0.2821850223741043,
          0.21348818488490295,
          0.203040808089327,
          0.5639278496498623,
          0.4312440837850207,
          -0.07574095401995164,
          0.28088571366681686,
          0.7322639080920491
        ],
        [
          0.24376553742417503,
          0.2951762625337429,
          1.1140027997001445,
          1.1210002504849308,
          -1.0088272869304464,
          -0.8986750656126025,
          -0.6209845644322195,
          1.628260813002023,
          -0.5353907140033684,
          -1.072630329982976,
          -0.3807495080555199,
          1.35551868590127,
          -0.5315453449219607,
          -0.7371450872150269,
          -0.4800999588701287,
          0.15287116450224528,
          0.9017655336861449,
          0.5413649983470922,
          -0.010880175653013477,
          0.32621387847918265
        ],
        [
          -1.7074446076513357,
          2.039629582334482,
          -0.522887895813136,
          0.5393709705448587,
          -1.2853982534184778,
          -0.5250338992340491,
          -0.9811206460420716,
          1.8881306224144652,
          -0.2243809483200658,
          -1.0966738168878964,
          -1.2457926734735676,
          0.7958985894283924,
          0.68191875763868,
          0.5610062492144599,
          0.34980660235978256,
          1.7799068680490338,
          0.04994960765619556,
          -0.20179431283348342,
          0.6571110183771129,
          0.8648798617881606
        ],
        [
          0.017518434388426544,
          0.01229350646550037,
          -1.4263079459501857,
          0.7683819470258325,
          -1.389000110387868,
          0.3064840601804844,
          2.2367489022980034,
          0.8769425984462051,
          -0.08351473520914084,
          1.8252372010230486,
          0.1864478613733913,
          -0.041444961320195595,
          -0.27088244291804575,
          1.6067388161094756,
          -0.40446907470901317,
          -0.20920026675227427,
          -0.06262643842158003,
          -0.3700791780585481,
          -0.28466746629191314,
          -1.4119019055880742
        ],
        [
          0.8271152084563638,
          -0.5858991764640751,
          0.38254965647903744,
          -0.10560260641012076,
          -0.2815034621643066,
          0.3438329445326608,
          3.0265011264238137,
          2.178764746447735,
          0.7949161016387816,
          3.571661718777028,
          -0.15663241685590384,
          -0.3954145165662828,
          1.3629581396627106,
          -1.7307958964386305,
          0.019450594070162773,
          2.5000699392691526,
          -0.4875289051380474,
          -0.867759055837291,
          1.2464940230539852,
          0.08315699001014881
        ],
        [
          0.43840247070316035,
          -0.9944953178072329,
          -1.4879089231129614,
          0.41155599294268974,
          0.44058627228150277,
          0.35218985558383487,
          2.268558001146179,
          -0.9192488673612345,
          -0.39706603985159045,
          1.8607500304137037,
          0.7819319080763946,
          -0.8782390800195532,
          0.06085040904845191,
          1.0013987527134813,
          -0.629937665513152,
          -0.63399735100632,
          0.31019914019822425,
          -0.014184971839637324,
          -0.17947594842944065,
          -1.3334148184208687
        ],
        [
          0.6110969651434826,
          -0.5642634933138096,
          1.5157942393885813,
          0.14282428520747922,
          -1.9626131965359852,
          0.33677176363932454,
          0.30753298825610537,
          2.6366868736677223,
          -0.6868593397986856,
          0.15962497091377353,
          0.0715191134628112,
          1.8686893406910061,
          -0.3851085638493751,
          -1.0627080885219224,
          -0.6789004073545519,
          -0.9069505383139341,
          -0.052330690605280276,
          0.36077949413214494,
          -0.18468899793232824,
          0.3726184116809352
        ],
        [
          -0.7895203628209947,
          0.473106262744853,
          -0.5454924730222438,
          0.29569689502078944,
          1.6360518938663384,
          0.4546646771544761,
          -1.596724858555089,
          -1.7188024006413918,
          0.39266290352662697,
          -0.9531753119227682,
          -0.299110421988463,
          -1.3535285865797078,
          -0.24453469668634809,
          0.4962264015339305,
          0.7879430396574462,
          -0.3436777939541221,
          0.09554003663282815,
          0.3396438912398699,
          -0.3067982222024274,
          0.36869591437355664
        ],
        [
          1.6853997713094155,
          -1.4974762147967655,
          1.3242762061277888,
          0.047417376206403135,
          2.2875556979684672,
          0.43142757264359394,
          -0.10028505348035163,
          -0.3407513377443292,
          0.27347690057303453,
          0.07078481731249953,
          0.07110145875978963,
          -0.5626943487788985,
          -0.7478939931027994,
          -0.4094330855582618,
          -0.16383012912433426,
          -0.9174254458292257,
          -0.10241214177785728,
          0.6001253646287075,
          -0.3255665408784347,
          0.2095371019119831
        ],
        [
          -0.653822235292981,
          -0.176376113921253,
          -0.4349069036008388,
          0.9199590374902756,
          -0.24331799405877663,
          0.5373954147231504,
          0.28629414871410874,
          -0.5350749212195482,
          0.9185235679459689,
          0.41016446988886157,
          -0.4383706672769936,
          -0.9357344063935267,
          -0.7305487885206059,
          0.9055256914771637,
          0.4757670847491949,
          -0.5020881310147361,
          -1.1262953138803637,
          -0.550223010754707,
          0.04843705455727116,
          0.20144502985157378
        ],
        [
          -0.5835657064504578,
          1.0216069863059638,
          0.8155430967779421,
          -0.31244097958519657,
          0.759210645123394,
          -0.15007662650344827,
          -1.8048611429348913,
          -0.32636492086618524,
          0.5700213533971722,
          -1.3029731081380702,
          -0.6463864640261905,
          -0.23145111960242973,
          0.5490802268675632,
          -0.49088717244728064,
          0.6604466627510562,
          0.8940785357146132,
          -0.25887165672414847,
          -0.02984514855389564,
          0.42511928781132735,
          1.2400979452946694
        ],
        [
          0.17055063660698241,
          -0.08332138509658008,
          0.8898417969273799,
          -1.6461793549578452,
          0.7945640185448792,
          -0.39915219147587994,
          -0.1342036969926124,
          -0.976616765370469,
          -0.5779768612046547,
          -0.022965160580224596,
          0.38036548656290237,
          0.22261861638859315,
          0.534956707066908,
          -0.87709779674688,
          0.16744519282363682,
          0.24476527316044047,
          0.8207662461461521,
          0.44469085687060134,
          -0.52902661689696,
          0.14876429434807112
        ],
        [
          -0.023859799248362727,
          -0.9290582628101667,
          1.6755547722061002,
          -0.5494279121212484,
          1.6477674126408641,
          -0.2066426054980357,
          -1.5976697881646549,
          -1.3147214730272878,
          0.21105731893472465,
          -0.8391958679400061,
          0.32008943862344635,
          0.10535388753577375,
          -0.14186151167349484,
          -1.4007451182397477,
          0.784215180183985,
          -0.19636841239228175,
          -0.4526397394926089,
          0.7449541798182723,
          -0.28263528355535944,
          0.4201419358280977
        ],
        [
          0.3420636310279264,
          0.2741233313880523,
          -0.12025163126302596,
          -0.36069342796863063,
          0.9240017975084078,
          0.8353590138118864,
          0.164986278430505,
          -0.15492326719616012,
          0.789165506333084,
          0.736776581341786,
          -0.7559336317133286,
          -0.21453248792005822,
          0.13282057168717512,
          0.7477335721230988,
          0.2796845454732979,
          1.5062688977373044,
          -0.4052508362000871,
          -0.04573902273460777,
          1.0221049807340894,
          0.8960068105840943
        ],
        [
          0.17052340024862994,
          -0.008718982490049414,
          -0.3235493117694228,
          -0.29552420927284767,
          2.123517428024725,
          0.003916295394263414,
          -0.48814161345893564,
          -1.9290235312488728,
          0.5984005521984932,
          -0.24117772694786405,
          -0.45359523567049903,
          -1.347662866260696,
          -0.6289588042087293,
          0.10647967605691513,
          0.462388766770278,
          -0.22923619936521417,
          0.7809578224811901,
          -0.29999182747338526,
          -0.0996473550981152,
          0.06782984160865455
        ]
      ]
    },
    {
      "activation": 3,
      "biases": [
        0.7793588600031036,
        0.4759406039736468,
        -0.31769336682058913,
        0.7048289198109586,
        -0.5618988305190517,
        -0.3562449317798065,
        0.6976517606812289,
        -0.9419909428981192,
        -0.7549948971402387,
        0.8254679277765656,
        0.9069860547491876,
        -0.14380091657190094,
        -0.10437233386005891,
        -0.2531561862809887,
        -0.871184374412632,
        -0.3603226851628874,
        -0.7579634937314397,
        -0.19793160421774372,
        -1.2258291664824708,
        -0.9067697816541996
      ],
      "cols": 20,
      "rows": 20,
      "weights": [
        [
          0.7251539410211892,
          0.12286544450048942,
          -0.9120898997664811,
          0.06858925163143352,
          1.8324616057907441,
          0.09768082845044074,
          0.441569200260874,
          0.22949364390375798,
          0.24516245576071047,
          -0.5879267181541168,
          0.10446846714733761,
          0.4455602001320801,
          -0.5717483090529052,
          -0.3235477660360576,
          0.6837290429516373,
          0.23506838878000424,
          0.4314740370386289,
          0.3594573328232596,
          1.1312476593474132,
          -0.5881666827248302
        ],
        [
          -0.40332347597096035,
          0.14541329636300346,
          0.4703107570297206,
          -0.7283135590094455,
          -1.96007060518098,
          -1.181540791794527,
          0.21310438573423124,
          0.2249956481637737,
          -0.3912831203074744,
          0.16850641980725584,
          0.029196312296259946,
          -0.4002147420474616,
          0.5716021377938747,
          0.37351363795952053,
          -0.4403010446458947,
          0.3698862983668819,
          -0.3215635612259696,
          -1.6307677317974316,
          -1.0217305794176033,
          0.5095981882703658
        ],
        [
          1.553843091470835,
          1.329470681133993,
          0.5869113611259515,
          -0.36552330599239413,
          1.9987726681350868,
          0.3741682725708758,
          -0.4132215466149381,
          -0.0055934129504673635,
          0.40702385837859784,
          0.43075762604208623,
          0.9421663332647107,
          -0.19027174544425102,
          -1.377741470267392,
          0.20972975843746866,
          0.27761563150345514,
          -0.566819066341115,
          -0.03760577388318812,
          0.404832701462263,
          -0.5291461299905396,
          0.1689353138000283
        ],
        [
          1.029940619616844,
          0.36975556265649506,
          -0.3055230471659223,
          0.19742676669931064,
          -1.929416834997977,
          1.3275173646154268,
          0.06814480602230728,
          0.008046086990277888,
          0.3219938071371384,
          0.3612766098492923,
          -2.1392581997287947,
          -0.42475867252061106,
          0.42312132203840597,
          0.1902153168662005,
          -0.15703262378445465,
          0.5818246262039631,
          -0.6142135043909174,
          -1.259073422418149,
          0.5970183112716537,
          0.3584977501910588
        ],
        [
          -0.7899318376698612,
          0.09741044400694933,
          0.7229275705207499,
          0.39203671936397017,
          1.7606539320026462,
          0.39748927101800957,
          -0.3701211803162298,
          -0.5058940754649415,
          -0.21469659967572752,
          0.6488824415765194,
          2.55816870420668,
          2.004649792907234,
          -0.041838050661398944,
          1.978730584714749,
          1.0092968905761504,
          -0.6400431122588601,
          0.6242116718431788,
          0.85024729026655,
          -2.6075034538680923,
          0.07758977559173397
        ],
        [
          -0.836158927910758,
          0.37089757009748664,
          -0.36113350978251485,
          -1.6192716456432938,
          1.357019291267555,
          -0.26761603062740547,
          -0.6766657736039083,
          0.7234517650208427,
          0.09397018313358407,
          -0.7184832475529221,
          0.25335417117862347,
          0.23769503835200362,
          -0.2069638595416211,
          0.510362936169621,
          0.7248599165507752,
          0.2634426099258141,
          -0.30468890153169054,
          0.783666195254557,
          0.08941767124053474,
          -0.27276066248888653
        ],
        [
          1.3097349600144181,
          1.2856625346835646,
          -3.1393404335400055,
          0.28219392728299636,
          -0.592248425315814,
          -0.612028431074201,
          1.7381796106107568,
          -0.34452775408223113,
          -0.9091935750244912,
          0.8612586723281488,
          -1.784439665977639,
          -2.6548594154224063,
          -1.1316145367523673,
          -0.7784391796882951,
          1.2391098943601797,
          -0.6302497499662942,
          -0.1966551125823677,
          -2.795410784711488,
          -0.5021138120062538,
          -0.6409931949667881
        ],
        [
          2.4914285521606265,
          0.4891270311035743,
          -0.45639766872179455,
          0.23536353136261368,
          -2.7986782103309675,
          -0.30244325351537266,
          -0.014153619978767903,
          0.4875702975103656,
          0.5823395226344005,
          0.20761936292960856,
          -2.2953720812182725,
          -2.3447153314461304,
          1.102182720246242,
          -1.3043320123374802,
          -0.7868108140279985,
          0.7647980919406658,
          -0.20963491754065056,
          -0.9786788077684514,
          1.6317068555444805,
          -1.260039078040804
        ],
        [
          -0.8089574554800272,
          -0.7648361287233805,
          0.6262824921542002,
          -0.5810974204392455,
          0.9024470082571361,
          -0.9437669306196161,
          -0.1595836255418932,
          0.3116285506797357,
          0.5922723348412386,
          -0.0935860086917818,
          0.5707377693932001,
          0.8262848741083144,
          -0.38339726416052045,
          1.1427820623015057,
          1.1199117437122807,
          0.3427548438825742,
          0.10154308504054987,
          -0.020603699529765932,
          0.6550802493564036,
          0.6582827061788942
        ],
        [
          -1.3512952028491856,
          0.8836967109794712,
          -2.7606768708995872,
          0.23931793137800764,
          1.3718909287857013,
          -0.5007613667548291,
          1.2729146117206687,
          -0.2523825725885392,
          -0.991912912447804,
          1.0336244293762222,
          -0.2707994590020629,
          -0.6470233294851875,
          -1.1190063378847888,
          -0.8288319083138724,
          1.219611827412038,
          -1.4701512356055095,
          -1.067635760354281,
          -1.5808520364084915,
          -0.25294706274013146,
          -0.41557516101314346
        ],
        [
          -0.578714308996964,
          0.31203801056196334,
          -0.42521697709507106,
          0.9096804957638087,
          0.26290964586713494,
          0.3461923295809012,
          0.5122320015525939,
          -0.8443876210959623,
          -0.4200562587009632,
          0.6756981693726478,
          -0.10087655848049401,
          0.7977663123951517,
          -1.1282234421398762,
          -0.2738830567715743,
          -0.3737139860413417,
          0.08665333002081316,
          -0.21117452346638219,
          0.21313738577994387,
          0.01780602586362752,
          -0.75156372366961
        ],
        [
          1.2692071682934256,
          -0.15364735051544198,
          -0.4799565522013531,
          -0.49281876325558677,
          -0.40045152599617456,
          1.0802026398854272,
          0.5391121849824386,
          -0.13545042979861754,
          0.2422646595237552,
          -0.30098336301607365,
          -1.0459884454027115,
          -2.2286732008556265,
          -0.13541901970976103,
          -0.25065881183114314,
          -1.231186737908664,
          0.24574991910975616,
          -0.04651008488324356,
          0.1410118563811675,
          0.2605103806014934,
          -0.0913649306109696
        ],
        [
          1.6935240356912926,
          1.222641236333543,
          -0.0631598629257981,
          -0.09505903628049764,
          0.017593350794722115,
          0.2537201289856276,
          0.6608891300047667,
          0.11901256218925463,
          0.38946909746699904,
          -0.2742119725872898,
          0.1442217868351722,
          -0.15610241500525227,
          1.6752881784128901,
          -0.09750979912478575,
          0.18064624668360432,
          -0.5978570398205796,
          -0.80944484806565,
          0.1838445236957159,
          -0.45430797544049917,
          0.08294998734655923
        ],
        [
          -1.19078900595271,
          -1.479369522377944,
          -0.5105393399743032,
          -1.5609109699565533,
          -0.45613844889403915,
          1.0837109936698435,
          0.5557104392113099,
          0.4559000506105556,
          -0.23958500569486146,
          -1.0874593078751573,
          -0.4698163437303652,
          -0.9184748438015208,
          1.3498979315734982,
          -0.2519953210655418,
          0.7434012232614002,
          0.5303808217005209,
          -0.12630960044894765,
          0.5376080525783123,
          -1.091594925696406,
          0.21645879030743612
        ],
        [
          0.17474284371828167,
          0.7086075146824441,
          0.7658990594241007,
          -0.5225524708646173,
          0.2964619563362275,
          0.0017139357900261573,
          0.6852644021734521,
          -0.37855628791054496,
          0.5363229536660662,
          -1.6108761994933343,
          0.6097521104061814,
          -0.35290296947845523,
          0.15218291703496886,
          0.7123450045946568,
          0.26871431531278284,
          0.38708407540617734,
          -0.2136221366741899,
          0.584720624502468,
          -0.24089835684048863,
          0.1874213044089975
        ],
        [
          1.4267981652719648,
          1.4317313898974184,
          -0.12818595275129138,
          -1.4184814114301219,
          0.06614346167948659,
          -0.42976066575760097,
          -1.7638578498468354,
          0.41631334330162434,
          0.38672836412461326,
          0.9256513661926797,
          -0.2424217178155545,
          -0.5672275901541474,
          0.1557748810673121,
          -0.023979033247016134,
          1.2066495176048668,
          0.4805606413239451,
          0.8540724875279827,
          -0.7485832302683109,
          -0.5510311358500635,
          0.4014532665138187
        ],
        [
          0.88286234493042,
          -0.41729364827546056,
          0.20013687195744717,
          0.9269198546032938,
          -0.8837627715516798,
          -0.5924358250852526,
          0.5348898740365577,
          -0.804350351665452,
          -0.7559087370133046,
          1.7344747387483541,
          0.5261594840178967,
          0.38020294625061596,
          0.20951729966143193,
          -0.27826520154158035,
          -0.21487598649849984,
          0.01518159566963415,
          0.011421060071311141,
          -0.37849691388997747,
          -1.044634073375938,
          -0.8366299426095691
        ],
        [
          0.0890768524604305,
          0.24756581333309438,
          0.7118776497741622,
          0.21210313989522755,
          -0.945684428469548,
          0.028046198225048627,
          0.2022450429798571,
          -0.18339529396738874,
          -0.3451193708319652,
          0.35687757350428834,
          -0.08199397009100283,
          0.3070462099052779,
          -1.734149100605109,
          -0.6166860170008129,
          -0.45103382487186894,
          0.3072480805733692,
          0.17020189581693834,
          -0.1044649251616246,
          0.4068880993624565,
          -0.19806937083430495
        ],
        [
          0.5847987744770502,
          0.24084332274801884,
          -0.35779259960371657,
          -1.3960751701331,
          0.8788593315770058,
          -0.32640815445310967,
          0.36000569264594445,
          0.45648234443721325,
          0.24190484872676227,
          -0.09608388287316448,
          0.7467268797753509,
          -0.6638110737692093,
          0.5344585507466237,
          0.2612057005643583,
          0.6237755945408398,
          -0.6388118044347935,
          0.7528446147891729,
          -0.048201788836379496,
          0.16041757540273038,
          -0.5016422605820668
        ],
        [
          1.0857287343248299,
          0.07370664651639962,
          1.3951533988954072,
          0.5647870915318153,
          -0.635925223933848,
          0.2621178405054491,
          0.15438409263843342,
          -0.40364619322655004,
          0.6836250041716538,
          -0.6016729718883304,
          1.3709877871959306,
          -0.4482213728990047,
          0.47511783512622663,
          0.9388522015236112,
          0.10681667736026183,
          0.11147275471690225,
          0.8607729789425523,
          1.1437959046057156,
          0.29348926150915405,
          0.5255593024748948
        ]
      ]
    },
    {
      "activation": 1,
      "biases": [
        -0.042136783490437237,
        -1.2397083069606873,
        -0.44782674013647517,
        -1.3136995037091763,
        -2.074198958541354,
        0.647785591816076,
        0.33561603888376224
      ],
      "cols": 7,
      "rows": 20,
      "weights": [
        [
          -0.016829618519310342,
          -0.7343676110035773,
          -1.006465389565277,
          -1.8328636075563205,
          -2.8102916153429724,
          -1.0636346181846497,
          -0.29349192533596313
        ],
        [
          0.030286512544353043,
          0.07453548058164187,
          -0.2076132021066141,
          -0.2705740074946717,
          -1.800997206495989,
          -0.7421652110791551,
          -0.20619299845619657
        ],
        [
          0.14624107410478152,
          -1.6992149469142905,
          -1.3912808550462907,
          -4.138710407076786,
          -2.8081556768645792,
          -1.0337523653333904,
          -0.28569099711433443
        ],
        [
          0.15731214506474797,
          -0.8712124936114931,
          -1.1651261029338238,
          -1.9617147464235642,
          0.24228675403655414,
          -1.4343532965573476,
          0.8812341385675966
        ],
        [
          -0.19270658685229727,
          -1.8908665644429041,
          2.083368990929519,
          -1.6035212772040106,
          -1.392785079598527,
          -0.4178831585048081,
          -0.5903686272579743
        ],
        [
          0.02052405211398951,
          2.883251089681476,
          -1.288300961747025,
          -0.1449420872708349,
          -1.110168804127108,
          -0.34339750691873083,
          -0.2527288437945155
        ],
        [
          0.052669389508966685,
          1.354079446261871,
          -2.2018070257517866,
          0.33037695268755324,
          -0.07026600014324158,
          -1.0816956285552206,
          -0.06573473065066363
        ],
        [
          0.19355735463082263,
          0.22798468720756745,
          1.0754073561751283,
          1.6824538122270765,
          0.14076398084873282,
          -1.1776354097205626,
          -0.8184020685874631
        ],
        [
          -0.06844122292106074,
          1.0885726548805792,
          0.9183772935277764,
          0.5497434217460547,
          1.3433351078854445,
          -0.40463432247386366,
          -0.24044650617094393
        ],
        [
          0.0302726234809525,
          0.5612709055472332,
          -0.8847168569609405,
          0.2513767128019583,
          -1.0985475109807752,
          -0.15060314742007902,
          -2.130950934059722
        ],
        [
          0.05071789707671029,
          0.688147666673834,
          0.6783468912844756,
          -1.6866370848309942,
          -2.113218488480751,
          -0.30710885831604323,
          0.11814602843091887
        ],
        [
          0.04153115142827167,
          -1.6203719599196704,
          -2.2565477814942465,
          -1.135587798006191,
          -2.1451896430386204,
          -0.20866564218298567,
          -0.11247902643255098
        ],
        [
          0.12029447578142125,
          1.2443118643227837,
          -0.5912824673996405,
          -0.3027043244917166,
          0.4652336304982427,
          0.4166798923691069,
          0.11256228719977286
        ],
        [
          -0.2830070839147945,
          0.8637641705263881,
          1.8210007458020017,
          -1.216491971558729,
          -0.30713948667601004,
          -0.04929595541131918,
          0.0896086716011497
        ],
        [
          -0.3379537292159916,
          1.5860587948455707,
          2.2415769880501983,
          -1.8318886993491632,
          -1.0214576288421593,
          -0.12257158988233553,
          -0.4914701846082014
        ],
        [
          -0.4480941348396259,
          -0.03558931505312369,
          -0.18641236565359953,
          -0.34892311381436425,
          -1.8126244179535276,
          -0.12387631316044992,
          -0.2944984750436376
        ],
        [
          -0.22541869220796312,
          -0.9213639776510532,
          0.6412921370382777,
          1.573478453153536,
          1.4225802885698375,
          -0.07922538929927729,
          0.3302299093727012
        ],
        [
          0.038839727341354734,
          1.6926487806502333,
          -0.03911485088407607,
          1.9834724125159808,
          -1.1349030793834647,
          0.01851082574735987,
          -0.07211347256771167
        ],
        [
          0.1655039816615818,
          -1.1837167491998526,
          0.14858572026594646,
          1.1530056610075914,
          1.086608744836957,
          0.9562896371868882,
          0.393506889236984
        ],
        [
          -0.08321001104384308,
          -0.8161989345672177,
          0.5068044746088454,
          1.5111349895715598,
          1.7879963503743996,
          0.3907616089568819,
          -0.5814347596716596
        ]
      ]
    }
  ]
}
